<?xml version="1.0"?>
<opencv_storage>
<opencv_ml_ann_mlp>
  <format>3</format>
  <layer_sizes>
    140 40 20 11</layer_sizes>
  <activation_function>SIGMOID_SYM</activation_function>
  <f_param1>6.6666666666666663e-01</f_param1>
  <f_param2>1.7159000000000000e+00</f_param2>
  <min_val>-9.4999999999999996e-01</min_val>
  <max_val>9.4999999999999996e-01</max_val>
  <min_val1>-9.7999999999999998e-01</min_val1>
  <max_val1>9.7999999999999998e-01</max_val1>
  <training_params>
    <train_method>BACKPROP</train_method>
    <dw_scale>1.0000000000000001e-01</dw_scale>
    <moment_scale>0.</moment_scale>
    <term_criteria>
      <epsilon>1.0000000000000000e-03</epsilon>
      <iterations>300</iterations></term_criteria></training_params>
  <input_scale>
    7.6055004944415465e+00 -2.6270598486812826e+00
    7.0109087267519401e+00 -2.6266743188767721e+00
    6.6384106940657386e+00 -2.4854735429543515e+00
    5.4393281086396765e+00 -2.2272954511084100e+00
    4.1236664893086505e+00 -2.1631810582028179e+00
    3.7445271013037522e+00 -2.4958770270309425e+00
    3.7206832592407788e+00 -2.8644936612406919e+00
    3.7706268105618710e+00 -2.9854882285408726e+00
    5.9191666978591497e+00 -4.6816309976326442e+00
    7.2320779413861693e+00 -5.6921029685601496e+00
    7.0133223465248307e+00 -5.6196831436046910e+00
    6.6560980150041926e+00 -5.6999708478807243e+00
    5.9548261125712090e+00 -5.3235226322948863e+00
    5.4280776462562743e+00 -4.6258305465388903e+00
    4.9012712479063589e+00 -3.6173439739215607e+00
    5.0199341473817105e+00 -2.7149241111599380e+00
    4.6412560277073149e+00 -4.3178775132140002e-01
    7.2444960110010612e+00 -4.0747397331509888e-01
    8.9729551397434424e+00 -4.1597193059640453e-01
    9.0722494694379030e+00 -4.2377828514545629e-01
    6.2126269215602372e+00 -4.7848314490636268e+00
    6.6463398914103928e+00 -5.5337569946086367e+00
    6.4209998310688974e+00 -5.2960501861615112e+00
    6.4023407543467385e+00 -4.8893853140934347e+00
    6.9133348940061827e+00 -5.0066416702149859e+00
    7.2525304336278582e+00 -5.1805247018743730e+00
    7.3644813595869660e+00 -5.3208593566965083e+00
    7.1234836381741111e+00 -5.2340855807886992e+00
    5.6158636589582001e+00 -4.2495492108135284e+00
    5.5583550914545432e+00 -4.3444138936324377e+00
    5.6170903936580574e+00 -4.2969290916970486e+00
    5.6816109998276625e+00 -4.0983282717460368e+00
    6.1265887032525930e+00 -4.2282630846962208e+00
    6.1778512796477578e+00 -4.2604687053310437e+00
    6.0532378008751495e+00 -4.2954374067525940e+00
    5.9462211052827527e+00 -4.2346194247001980e+00
    5.3431540978687178e+00 -3.9651036885317916e+00
    5.1823956214734945e+00 -4.0464429625962408e+00
    5.1980549258311326e+00 -3.9668532410886312e+00
    5.4928291851271345e+00 -3.9592548342844132e+00
    1.0115217201523026e+00 -7.6175594643727651e-01
    6.2958471550804529e-02 -2.1136322061982707e-01
    1.4865974747475840e-02 -6.0234081454826349e-01
    1.0835820183863863e-02 -1.4632848340843738e+00
    1.1929795219621573e-02 -2.3056574115857869e+00
    1.6027777395825806e-02 -3.3827196054960695e+00
    1.2444673353239743e-02 -1.9934882596397305e+00
    1.5633768343862008e-02 -6.3356648532990567e-01
    6.7051828343779846e-02 -1.5097476188373654e-01
    3.1577136641738801e-01 -5.1116068698650492e-02
    1.1119294595130806e+00 -9.5649845979619841e-01
    5.1677058844528154e-02 -2.4867627104579004e-01
    1.2643463987807311e-02 -8.8053631397549059e-01
    1.0335791908672315e-02 -1.6720906695842497e+00
    1.2907001261892892e-02 -1.4618901124276740e+00
    1.2542411641351087e-02 -1.6478056124753104e+00
    1.1301046036780824e-02 -2.0429639962702244e+00
    1.2632044878934179e-02 -8.8409002582989027e-01
    4.9066425395575729e-02 -2.0170473642087408e-01
    3.1695557490175458e-01 -5.1803491811899680e-02
    4.9979572098442415e-01 -4.4879017526519260e-01
    3.7535416980630017e-02 -2.7155388179241713e-01
    1.0934052655067051e-02 -8.8608579400100074e-01
    1.0197035976206666e-02 -1.3021983749368717e+00
    1.2239360006297833e-02 -6.6152604236580748e-01
    1.0960214725881764e-02 -7.2767897569789264e-01
    9.9804978582902579e-03 -1.3998160441889975e+00
    1.1008716571127531e-02 -8.5876598221810296e-01
    3.7394507442212989e-02 -2.2893626599274677e-01
    3.2048518885932686e-01 -5.4322709431287662e-02
    5.1074144828481616e-01 -4.0589716271315301e-01
    3.8479489532625553e-02 -2.6441389992037595e-01
    1.1020997849948961e-02 -8.4276266999674232e-01
    9.6662974280349589e-03 -1.3365361733540599e+00
    1.0969710970561597e-02 -9.4932500677887466e-01
    1.1141608776772720e-02 -1.0299899986250627e+00
    1.0153355057769471e-02 -1.4374371739889376e+00
    1.1384238373459582e-02 -7.8561482801605809e-01
    4.0636028237133991e-02 -2.1833821388878855e-01
    3.1298121780045091e-01 -5.3479097626118098e-02
    5.1162171905351506e-01 -3.6748742830940651e-01
    4.7506344528632533e-02 -2.2407391360660578e-01
    1.2411485439116425e-02 -7.3255911350042779e-01
    9.3425375871070103e-03 -1.4162154553255790e+00
    1.0214159814286495e-02 -1.6354357555548855e+00
    1.2399471180320941e-02 -2.2591763766373609e+00
    1.2084831579434702e-02 -2.1789317544738327e+00
    1.2773192833063189e-02 -7.4089762557856320e-01
    4.9859164043004597e-02 -1.8561450668756471e-01
    3.1586391003684067e-01 -6.0085158253342319e-02
    8.6581736535209497e-01 -6.9688564871057190e-01
    4.8833679005881585e-02 -2.2145572203722957e-01
    1.3199502207827020e-02 -6.2554802164166956e-01
    9.8454127219192982e-03 -1.1094346152758898e+00
    1.1506301701976264e-02 -1.2858354013795581e+00
    1.0698956052269731e-02 -1.5438583125012659e+00
    1.1227805575559371e-02 -2.0566574020675952e+00
    1.1947812503609797e-02 -9.0101689225658421e-01
    4.3868087367852020e-02 -2.2318264664195761e-01
    3.8903352017029946e-01 -6.7615014551592606e-02
    6.7654417968592440e-01 -5.5181667989240990e-01
    3.7132265960110142e-02 -2.5803113612632550e-01
    1.1328250858159526e-02 -6.7770181086936754e-01
    9.9253870160906157e-03 -8.6404035291061843e-01
    1.1938232033895555e-02 -6.3052536860624664e-01
    1.0760642906303236e-02 -8.8382009315939458e-01
    1.0770559834553413e-02 -1.6661392774445549e+00
    1.0767969336092569e-02 -9.5305686134998324e-01
    3.3426320938361766e-02 -2.6233290350511362e-01
    3.8423403783613630e-01 -6.4677518392358427e-02
    5.2661664381192397e-01 -4.0080519928833236e-01
    3.2301321165096465e-02 -2.8986567796658708e-01
    1.0793990433722644e-02 -9.0152294412516465e-01
    1.0194148172506846e-02 -1.2568079287697422e+00
    1.1706298630717623e-02 -7.9905844166632922e-01
    9.4973340642580135e-03 -8.4710278217012247e-01
    1.0637091385681864e-02 -1.5026435676186456e+00
    1.0689647543325145e-02 -9.4463464452850687e-01
    3.4701634100814338e-02 -2.6679891742886114e-01
    3.8638908296372620e-01 -5.9752446651868504e-02
    6.6294023421889803e-01 -4.9315495429186845e-01
    4.3028185803380213e-02 -2.4528168947311049e-01
    1.2239732746174709e-02 -8.5825293165332395e-01
    9.9017589940985397e-03 -1.6044295343853026e+00
    1.3269630153108595e-02 -1.8583371180226431e+00
    1.3448226987660317e-02 -1.8781323188751191e+00
    9.4852803318301194e-03 -1.4853819191312980e+00
    1.3179293806602224e-02 -8.0482842477499072e-01
    5.3847938238587613e-02 -2.0248509170693924e-01
    3.7744762640562846e-01 -4.8333958024572167e-02
    1.5070204116798993e+00 -1.1634845758991050e+00
    9.8055881478901166e-02 -1.9404137484446485e-01
    1.9699890040895774e-02 -4.8796800944114438e-01
    1.1525742294947685e-02 -1.4106629773415764e+00
    1.2980013400053772e-02 -2.5539235828065134e+00
    1.1229714135280233e-02 -1.9566069920268294e+00
    1.1222195536700813e-02 -1.2220235956963803e+00
    2.1806154008644701e-02 -4.5607048869810390e-01
    8.5991163837895110e-02 -1.0745953455558663e-01
    3.2882365355749738e-01 -5.0078910287642310e-02</input_scale>
  <output_scale>
    5.2631578947368418e-01 4.9999999999999994e-01 5.2631578947368418e-01
    4.9999999999999994e-01 5.2631578947368418e-01 4.9999999999999994e-01
    5.2631578947368418e-01 4.9999999999999994e-01 5.2631578947368418e-01
    4.9999999999999994e-01 5.2631578947368418e-01 4.9999999999999994e-01
    5.2631578947368418e-01 4.9999999999999994e-01 5.2631578947368418e-01
    4.9999999999999994e-01 5.2631578947368418e-01 4.9999999999999994e-01
    5.2631578947368418e-01 4.9999999999999994e-01 5.2631578947368418e-01
    4.9999999999999994e-01</output_scale>
  <inv_output_scale>
    1.8999999999999999e+00 -9.4999999999999996e-01
    1.8999999999999999e+00 -9.4999999999999996e-01
    1.8999999999999999e+00 -9.4999999999999996e-01
    1.8999999999999999e+00 -9.4999999999999996e-01
    1.8999999999999999e+00 -9.4999999999999996e-01
    1.8999999999999999e+00 -9.4999999999999996e-01
    1.8999999999999999e+00 -9.4999999999999996e-01
    1.8999999999999999e+00 -9.4999999999999996e-01
    1.8999999999999999e+00 -9.4999999999999996e-01
    1.8999999999999999e+00 -9.4999999999999996e-01
    1.8999999999999999e+00 -9.4999999999999996e-01</inv_output_scale>
  <weights>
    <_>
      -5.9932738796970232e-02 -8.0721244477188814e-02
      1.5774790558410211e-02 2.4293293148776879e-01
      9.3271063135469456e-02 -3.4473640467083949e-01
      2.0378227600431900e-01 -2.4660713364117753e-01
      2.9722135891167145e-01 5.2955620992979180e-02
      -1.2150672025945981e-01 -7.3198503495080058e-02
      1.9569309292920387e-01 -3.3163729201922493e-01
      -2.5469115578628088e-01 -3.2787036754588927e-01
      -1.8502486605574314e-01 2.3609793579363431e-01
      9.8675502054260997e-02 -1.0800827015641511e-02
      -4.1178836250141465e-01 -1.9706889117138113e-01
      3.5384451194633271e-01 9.1893646627277684e-02
      1.8986551968466514e-01 9.3508768333150263e-02
      2.0126616667170297e-01 4.2379792823924206e-01
      -1.3243254317062478e-01 -1.2061797957697221e-01
      -1.0658255983469300e-01 2.0504872720376177e-01
      -2.2737378457698063e-02 3.7011893409194374e-01
      -8.7701985262165674e-02 -3.6272249197316676e-02
      3.6470296679629963e-02 -9.1152560623225992e-02
      1.8992084477797575e-02 2.6180924518504922e-01
      -1.4565806206798279e-01 -9.9909892896162394e-02
      -6.3491735045701547e-02 1.9638512061606422e-01
      1.9187054358096620e-01 -2.4230745263819270e-01
      3.0937885451934560e-01 -5.1163692549016415e-01
      2.8402536139726975e-01 4.0663537335058147e-02
      -2.5088822516703524e-01 5.4497831290966151e-02
      3.0412378571011833e-01 -1.7754617737655887e-01
      -2.4423727510590026e-01 -1.4412878242083085e-01
      -1.5231249528631263e-01 2.9339708792453933e-01
      8.8701067221051810e-02 6.4116083285886111e-02
      -2.1455496343077365e-01 -2.7298080842124878e-01
      5.3972631220810108e-01 1.5726956501040226e-01
      1.5722396355209742e-01 3.6915918041724068e-02
      3.2991226079275854e-01 4.2035655219485069e-01
      -3.9918335329652238e-01 -2.1602315999210372e-03
      -2.6715539457390869e-01 3.2600712877142451e-01
      9.8163017099038963e-02 4.7181861335160935e-01
      -1.8622823252267096e-01 -1.1793885172205612e-01
      5.2167931232138573e-02 -2.1636025062044922e-01
      1.4264872043285046e-01 3.7670065483432502e-01
      -1.7214306491920839e-01 -9.5179144550607261e-02
      -9.7110792322401565e-02 1.3752020303914259e-01
      1.4997136935747604e-01 -2.7548144077635150e-01
      2.8451267861923674e-01 -3.1152923092320717e-01
      4.9268742346951783e-01 9.3903399034593840e-02
      -1.6961451654564408e-01 1.3554201871404487e-01
      1.4179827083042582e-01 -5.7201595055060483e-01
      -2.8534357934252824e-01 -2.1702921684814980e-01
      -3.6133923482692842e-01 2.4749354431284240e-01
      1.6316261985861111e-01 -1.0552650858505197e-03
      -1.0346010187013220e-01 -3.2814168210063227e-01
      1.1684652816983951e-01 1.2683168370379738e-01
      3.7073653933304002e-02 2.1140139389807366e-02
      3.4903718034996317e-01 4.9057073641043369e-01
      -3.4320287472607919e-01 -1.8360083419410297e-01
      -4.4427790544482974e-02 3.9983183525300203e-01
      -5.5252242131241502e-01 5.4017702773955445e-01
      -3.7207398116113360e-01 -5.5374553253035370e-02
      9.8613273368954368e-02 -2.8485255742298456e-02
      2.8235899478798887e-01 2.3538805656457834e-01
      -3.6913869373623363e-02 -5.1948331261977912e-02
      -7.3760710138507463e-02 1.3458089226590306e-01
      1.3709786960335749e-01 -9.3932056257717195e-02
      2.0334148323891366e-01 -2.6134905634104666e-01
      1.7030234579066794e-01 -5.1608337533889041e-02
      -1.5967442816008651e-01 1.8977903773887011e-02
      2.9047970442525295e-01 1.1400072413290584e-01
      -1.7429338694177343e-01 -3.5291702745818165e-01
      3.7016077874826636e-02 2.4360731149061826e-01
      -1.8264817519626275e-02 1.3294483536144973e-02
      -1.2866561749690530e-01 -2.3151858906962641e-01
      4.6184480827302316e-01 1.9655583695486964e-01
      2.4937829053570015e-01 2.4975045478954527e-03
      1.5043523675970874e-01 3.1167305140953461e-01
      -2.4377493407601766e-01 7.7729074639342352e-02
      -1.6277875739025080e-01 1.9219381090983689e-01
      -1.8043766322541337e-02 3.2704188513295490e-01
      -1.3555347602738899e-01 -1.6382517004843156e-01
      9.3277268306180230e-02 -1.6328282429375274e-01
      9.0903783460084292e-02 2.8836771764128455e-01
      -6.5741669844317521e-02 1.1716329726745064e-01
      -9.8895540870366533e-02 3.0219445058266542e-01
      1.2227251058043059e-01 1.2158704701828027e-02
      4.0456601751853637e-02 -2.4295806795714317e-01
      2.3890917683603799e-01 -1.4058642953756043e-01
      -1.7576213789841078e-01 1.7591093808384729e-02
      2.3206691140143038e-01 -1.7548516479637657e-01
      -2.7133387935480446e-01 -1.4642124768958956e-01
      -2.0223880086633858e-01 2.6581133800495099e-01
      1.2126297886139764e-01 5.3457655657679820e-02
      3.7441550605248626e-02 -1.0498568557577884e-01
      2.1374034047627227e-01 1.5969522895890642e-01
      5.9598892471371595e-02 -1.4213194733715122e-02
      2.3136947383351214e-01 3.0521395745817320e-01
      -3.8158169069412790e-01 1.5363562766793520e-01
      -2.0258580882894622e-01 2.9053967320493779e-01
      -1.4155904398927804e-01 2.6130239409623995e-01
      -5.1266287873088616e-02 5.3249880384006111e-02
      8.3942750239892061e-02 -1.3629570032492547e-01
      6.5053455745058678e-02 2.2819742916061378e-01
      -1.8146964900802226e-01 -3.6111981987352056e-02
      -1.6791489789319594e-01 1.5049649065994880e-01
      2.5818465742160468e-01 -4.0086535744214100e-02
      9.9871897397841247e-02 -1.8541666034279145e-01
      3.1983845554865836e-01 -9.5107549396209301e-02
      -8.4731446368711258e-02 -1.6696279012433209e-02
      2.1767194082957603e-01 -3.4616608609339211e-02
      -1.9714537570282345e-01 -1.6477280076310125e-01
      -3.0283396712040095e-01 2.1223182100933832e-01
      1.9583694134711194e-01 1.8562092807265970e-01
      1.3303598772244776e-01 -1.8413327187418765e-01
      2.9030105524590344e-01 2.6649589386003925e-01
      3.4336273882423531e-02 -6.1266137300639720e-02
      2.3744633298006443e-01 2.9238905800633808e-01
      -4.2063828433300476e-01 1.5384956786205531e-01
      -2.3723470074889730e-01 3.4997509112699587e-01
      -5.3630766780922080e-02 3.6970633721756230e-01
      -1.1386017632901414e-01 1.7809251175633117e-02
      1.4060498661753104e-01 -2.4314755388591577e-01
      2.0806084310018239e-01 2.2046491817048891e-01
      4.4235966615548399e-02 6.7545918668878617e-03
      -1.2464654927678125e-01 4.8958692806358106e-01
      6.1328822703705863e-02 -1.0331378656007049e-01
      1.2835473084521101e-01 -2.9246131273519799e-01
      3.4743823290775283e-01 -2.1064224510268931e-01
      -1.0014032439930477e-01 1.6480647034485804e-02
      2.6622636651130738e-01 -4.9369432303111478e-02
      -1.9300426297871331e-01 -3.8188291831480342e-01
      -3.6822884205185930e-01 3.5082435745865492e-01
      -2.4185827287684672e-01 1.6986677598446551e-01
      7.7100021196198618e-02 -1.3395000166176552e-01
      2.7445800042663582e-01 1.3361479412119143e-01
      4.1267261947965245e-01 -1.6293467983522883e-01
      2.7555535290138816e-01 4.9859776603011791e-01
      -3.6420806382250848e-01 2.2921410749929422e-01
      -1.4704771463794275e-01 4.4668639542434574e-01
      -2.3884825569284882e-01 5.1402618191898497e-01
      -1.9060411216748085e-01 -1.9242399058097246e-02
      4.7868690623577535e-02 -1.6018782907835258e-01
      1.8934361524670187e-01 3.3855351385733146e-01
      8.1182629158834466e-02 1.6170803026375313e-01
      -1.5155739186885603e-01 4.7642902974050177e-01
      1.0400332907420728e-01 -1.9379561259553144e-01
      1.1008564700683918e-01 -5.0041797497370877e-01
      3.0851981041335524e-01 -1.3091876852124304e-01
      -3.1546599566924710e-01 -2.9101078186146288e-02
      4.2173736174151205e-01 -1.3919628560744010e-01
      -1.1714776184291883e-01 -2.6738344323268243e-01
      -2.8779367271701922e-01 3.6404390838015149e-01
      -2.5085699771195102e-01 1.3775903787186694e-01
      -1.5250489266208803e-01 -1.0532996814644589e-01
      3.1693327691779472e-01 1.6117645451553714e-01
      2.2264550332136049e-01 -1.5668414816307322e-01
      2.5434173150663220e-01 5.4501722431142319e-01
      -4.2750432474267669e-01 2.2240560338488183e-01
      -3.3032257899883033e-01 4.3438986418300146e-01
      -1.6038131583738327e-01 5.0698397328732081e-01
      -1.8158659312829700e-01 2.8103819138704363e-02
      8.1411732919646720e-02 -1.9685627042164863e-01
      1.3657606158373808e-01 3.4637428069531773e-01
      2.7602659252691392e-01 -1.3885157629718817e-01
      8.7287919306097250e-02 3.0771422885917155e-01
      -1.3841887414955397e-02 -3.1889483562638316e-01
      -2.9830173134020727e-02 -4.5861673176341544e-01
      1.2248488665543251e-01 1.0588459914133158e-01
      2.2457523479054464e-01 1.4932445463866623e-01
      1.0916142378118193e-01 -6.3008680586109900e-01
      1.6515363363888502e-01 -2.9512349151238099e-01
      -1.6350429917971598e-01 2.5929319612523427e-01
      -3.7145197763907439e-01 -1.2493335164796525e-01
      -5.9167846910794308e-01 -7.4698130850925526e-02
      8.0846051960518461e-01 -4.3677362473151154e-02
      3.5138152271536410e-01 1.1832992384528425e-01
      4.8498155772046969e-02 2.3813947231268101e-01
      -3.2986590243032388e-01 -9.7185875094388960e-02
      -8.7208858512880003e-02 1.5550176506591426e-01
      -5.0310000709690705e-01 2.8188161399547623e-01
      -3.0024421128147924e-03 2.8465506072205243e-01
      -2.0455291089895952e-01 -1.1035024071119699e-01
      -1.3221492909984464e-01 2.2167230995824180e-01
      3.0672220209233308e-01 3.4173512237666481e-01
      2.8964344999097852e-01 3.6964868254594725e-02
      -1.8282629971533124e-01 -2.0331896337867131e-01
      -7.4029819657777413e-02 1.2112761596207980e-01
      2.4290905108523744e-02 2.5671488224965339e-01
      4.1161571128445829e-01 -5.0677957840948540e-01
      -2.7993356240511763e-01 2.5225816223466480e-01
      5.2967440114219206e-03 2.8502023608164556e-01
      -4.2470660794494443e-02 6.7056398331017480e-02
      2.2698254137084811e-01 -1.9314132138796700e-01
      -6.1201148127582351e-02 3.5116907951593168e-02
      -6.1516397585035111e-02 -3.4286593512550784e-01
      -2.2480743052364863e-01 2.8000764879501305e-01
      2.4369514316323893e-03 -3.1459389309144103e-02
      2.1149697072425183e-01 -3.5971843324616970e-01
      5.9260749075784314e-01 -9.0442574581956741e-03
      -1.1307271814301950e-01 -4.1298743335213065e-02
      1.4488817057948811e-01 1.0135231317987863e-01
      -3.4021745504961953e-01 1.9542060526257737e-01
      -2.2144099193648131e-01 2.2318199635333921e-01
      7.6508116631345630e-02 -8.5826630257824124e-02
      2.9508450193752128e-01 -1.2736620232922199e-01
      -9.4663445197302465e-02 -3.6129902014662107e-01
      -2.1310715927307103e-01 2.2521776129143775e-01
      -9.0319502434800900e-02 3.4440505681233324e-01
      5.1484455736534518e-01 -2.8111175165777053e-01
      -4.8021995169781584e-01 -6.8747238102321451e-01
      -3.0141652902691538e-02 3.7359690296651876e-01
      9.3447092059004741e-02 -1.2009136676804548e-01
      4.2918488265299082e-01 -2.9137836661693206e-01
      -6.0528781592991965e-01 -3.1264498720062046e-02
      -3.2974548938432952e-01 -2.5093225444942036e-01
      -2.5544811327363809e-01 2.9701979135041817e-01
      -5.9604904463075488e-02 -9.1901763118032789e-02
      1.8225326191271576e-01 -6.0532918240154776e-01
      6.6348062370836924e-01 -8.9668379494324851e-02
      -5.3316596744619649e-01 -1.5046679142782574e-01
      1.9419151968514994e-01 2.8431623532658562e-01
      -3.8611674602727131e-01 3.5045181801295094e-01
      -1.9343760274477559e-01 1.5864528290128360e-01
      4.9810680602756570e-02 -1.9190247639800850e-01
      4.7037243784885496e-02 -1.2128827329243996e-01
      7.0536875024911364e-02 -1.5655167517456320e-01
      -1.4893898879283161e-02 2.5754804708593922e-02
      -8.1535716861015572e-02 3.8641022994107349e-01
      1.3257160589868983e-01 1.3045963205220279e-01
      2.1890311558806763e-01 -4.5745788357953088e-01
      -3.2733970179614330e-01 -2.9773280276528293e-02
      4.0096904297765322e-02 1.2283135015855434e-02
      3.1647745997472332e-01 -2.0018910370422635e-01
      -9.4713119712615257e-02 1.0114594720875705e-01
      2.9298616054505078e-01 5.3341257470828143e-02
      5.3366696076407448e-02 3.8890637854585847e-01
      -1.0201337799037601e-01 -6.1231776878692794e-02
      -3.6051133894496507e-01 -2.6140062866912911e-01
      -4.6444884838892316e-02 -9.2423687878969013e-02
      1.9405193854234634e-01 -4.3899766576061136e-02
      2.5889926106288214e-01 -9.3917613861670524e-02
      -8.3671686723591470e-03 -1.0389079466666825e-03
      -3.2959767916270999e-01 5.5755638459996114e-02
      -2.3045961752443772e-01 -4.9055688522918667e-01
      -1.2569149872427821e-01 4.6130949895952233e-02
      1.3544324181740436e-01 -1.6081477713893391e-01
      2.3282797887863460e-01 -2.9675747753664644e-01
      1.7689937402553249e-01 -1.9382526997579967e-02
      -5.1353787057671740e-02 4.1277678763224146e-01
      1.3191852160156661e-01 -7.0063632667316877e-01
      -4.1512371934054704e-01 -1.6414837174010177e-01
      -1.9516953632280590e-01 4.4839039039673581e-02
      -2.0888384199472845e-01 8.1649607041877306e-02
      -2.6473080138476174e-01 -2.1003095759006546e-01
      2.3991685473744573e-01 1.3420099417972700e-01
      3.4263503796499994e-01 4.5341460550742535e-02
      2.3700056483574122e-01 1.8396567010555467e-01
      -3.5674629982292960e-01 2.0514942884831178e-02
      -1.6606470189005318e-01 2.4395425903415385e-01
      -3.0580956602167320e-01 1.8710595655914844e-01
      -8.0072967915060481e-02 -2.0223475972618163e-01
      1.5465251993727375e-01 -7.5270913048613303e-02
      1.5481121996372043e-03 1.1805211376153552e-01
      -2.4415024834815771e-01 -4.8674951543469169e-01
      -2.3301600724467725e-01 5.7073407990267735e-02
      2.0798582002891916e-01 -7.2121541585900728e-02
      4.7625966393677682e-01 -2.2574039755956521e-01
      3.4486535459197470e-01 -1.1131830756295782e-01
      4.0469006729944114e-02 4.2086339158754782e-01
      1.9305491642533526e-01 -1.3484812504097237e-02
      -3.2637712729726842e-01 -7.3798318298619237e-01
      -3.1341336116379576e-01 6.6933727426207193e-02
      -5.8881120032589618e-01 2.4952045959768707e-01
      -2.3354592440231258e-02 -3.0538720433623662e-01
      3.6670694967324963e-01 2.6574979389844205e-01
      5.3999019105343848e-01 -8.3896986245652880e-02
      3.4790308096308320e-01 3.5569072807244212e-01
      -4.3824677109946147e-01 8.6003177279872167e-02
      -2.2990924837823223e-01 4.6616639763048029e-01
      -1.4964099936527137e-01 3.4647623348489254e-01
      -2.4871626866260704e-01 -2.8460855593115908e-01
      2.6789339832208203e-01 -3.1112695515441685e-02
      2.6739685273572306e-01 1.2992339135002542e-01
      -1.5331403324409151e-01 -1.8180783856046334e-01
      1.5434796956475996e-02 1.7904428488025214e-02
      7.3868142464251232e-02 4.6852522708441896e-02
      -2.3061797216578497e-02 1.3213017910471867e-02
      2.7987857176294278e-01 2.5431484461734894e-02
      3.1454907197642362e-01 1.7608803780497853e-01
      -6.9424172921673397e-02 -3.6197894673790731e-01
      -1.2414585956376092e-01 1.5180127828209825e-02
      -1.5520983529680721e-01 -1.6974472320571220e-02
      5.6161386112395049e-03 2.0508045685524560e-02
      -2.4123062850491958e-01 -7.7522904351301714e-02
      2.4098283617143781e-01 -2.2215954206944734e-03
      1.1960995796740708e-02 1.3794137243115176e-01
      2.3085628999334196e-01 9.2024120454621466e-02
      -1.5798067126761842e-01 -2.0366816205902089e-01
      6.9431714572924921e-02 2.6562713658842013e-01
      -3.6711433818924116e-01 1.6423027047816710e-01
      5.3322277529100057e-02 1.0159973287353974e-01
      -5.6339368559260944e-02 1.4775067507530962e-01
      -3.3683229971082675e-02 6.6879123908696977e-02
      -3.3029605177201937e-03 8.6375305253940424e-02
      2.8322809651388337e-02 1.1650873702674790e-01
      3.8588865606936876e-02 -1.5031043035334016e-01
      1.5879568705810779e-01 -1.2580345754653738e-01
      9.3251421874848472e-02 2.8184018986116315e-02
      -4.8270025838276526e-02 6.5135719733195527e-02
      -5.4740692860388372e-02 -1.9132451890698521e-01
      -5.6117983892892444e-02 -2.0715383372536450e-01
      1.2785239146690658e-01 3.8304974507447138e-02
      -2.8142642752413485e-02 9.7225272953096062e-02
      -2.8015425015170642e-01 -1.0406626346998793e-01
      -5.7074244043381600e-02 1.3678530261640320e-02
      6.7674715206334696e-02 3.7382453312291987e-02
      8.9438518324400695e-02 1.1973737230378703e-01
      2.2635754025186902e-02 -1.5613038335351120e-01
      1.0084879969452501e-01 3.3244145747243978e-02
      -5.8300626639799923e-02 8.6220904506606744e-02
      2.8555630497975357e-02 2.0106611555493661e-02
      -5.0496496538689477e-02 1.0064364081262017e-01
      -3.8753701416590569e-02 1.1312880827560945e-01
      -8.6097490381772154e-02 1.1089065631442860e-02
      1.5524927220874075e-02 -4.4939084648067423e-02
      3.1589956761373321e-02 -1.1367080474215894e-02
      7.4255845481584384e-02 1.9437815720683753e-02
      -1.5208923224211973e-02 1.5305036632209760e-02
      -8.3478054499160917e-02 9.8212301145885972e-02
      -4.6567319077854226e-02 5.2763189024361563e-02
      -1.9763883277074235e-02 -2.4067044088024364e-01
      -7.3541579904869703e-02 -8.1922379793040179e-02
      -9.8182324598039897e-02 -1.5515709742472706e-02
      7.6883140056622700e-03 -1.0646706778442079e-01
      1.9512576824180148e-02 4.4045823643695539e-02
      -3.9000034349015951e-02 1.9936682354629823e-02
      -4.2515225983576842e-02 -5.9072275418388547e-02
      8.1434475544396728e-02 -2.6576814031833634e-02
      -2.3635105298736574e-02 -1.5164742571894874e-01
      4.4512474909935408e-02 1.5038052746080541e-02
      -9.2064087188006752e-02 2.0547724197290566e-02
      -1.9353191844007106e-02 9.3810926007254741e-02
      1.1471462603580469e-02 2.4304506161355471e-02
      2.9445631321371010e-02 -2.3553292905538242e-02
      3.1702390394022208e-02 -4.2106320044439441e-02
      -1.9295500857618910e-02 1.5057644442249742e-02
      -2.2897044330405823e-02 6.3912761666404402e-02
      -6.2435458769310080e-02 8.0998539194366781e-02
      9.2096721655037420e-02 1.0630846081303054e-01
      -8.4927857902764581e-02 9.6426767329793536e-02
      1.2154064811280146e-01 1.2750573554678306e-02
      7.0229487556602813e-02 -1.8621105438439614e-01
      -2.0826700408858961e-02 -1.0422416230036198e-01
      -7.7156279079638762e-02 -7.8023022210394893e-02
      -1.2874718753950513e-04 4.0761397767199813e-04
      -1.0003800429157819e-01 6.4566795041844538e-02
      -1.1355660746836134e-01 -4.9136913203935775e-02
      2.4579143626799044e-01 -1.1126046369164679e-01
      3.1991866433463412e-02 -1.6427033621388748e-01
      3.0009694972033981e-02 -6.5515628974311774e-05
      3.1071475913422748e-03 8.7994159850397092e-03
      -9.2788654792127379e-03 1.4674250134939343e-01
      -1.7237694657946567e-02 -1.0160986712086298e-02
      -8.0027599510088376e-03 -4.0444431442676558e-02
      3.7098747461463875e-02 -4.0629890382169498e-01
      -6.2430966548125286e-02 -8.6808920257249234e-02
      6.1372233433856269e-02 6.6476741504028686e-02
      -4.6639566880627224e-02 1.5326901028557921e-01
      -1.0730283187404666e-01 1.5452502864827933e-01
      -1.2275157025721002e-01 1.3447544654099663e-01
      1.1579448280837802e-01 2.0670489427565497e-02
      2.3680822344378091e-01 -1.7091470848383652e-01
      -6.0416983695903696e-02 -9.8953189452093970e-02
      -1.2120496932872851e-01 -6.2084352225945501e-02
      4.2440855707561009e-01 4.6236405850268850e-02
      -5.8741225711513967e-02 1.0511542755669465e-01
      -8.8491104311995181e-02 -1.4274583894213000e-01
      4.1615377497655370e-01 -1.3885070954603521e-01
      3.5404073511818270e-02 -2.2947320474228808e-01
      2.4496055827166502e-01 -5.0811994524217273e-02
      -2.5174971585101801e-02 -4.0878460530661659e-02
      -1.2816411307644819e-02 6.3065969582437306e-02
      -1.2310730980757568e-02 -8.9494240028911612e-02
      -1.4687140604616217e-01 -2.4290431226675896e-01
      -1.3003970463195002e-02 -2.9173258892194448e-01
      1.0378111042445532e-02 -7.5455197266347362e-02
      9.9090171964503256e-03 -1.3407036605942150e-02
      -3.9766472581646735e-02 1.5459490927186423e-01
      -3.4050417057099897e-01 1.2981737867427612e-01
      -1.9655272046520211e-01 -1.4374477663404129e-02
      9.1994557898476617e-02 -4.3964803010593002e-02
      6.6652825524910239e-02 -1.1350699696821347e-01
      -4.9129345850076375e-02 -7.4061663689607066e-02
      -3.7448490598300554e-01 6.6224739791122811e-02
      1.2159888559493355e-01 -3.6252379132531683e-03
      -6.2253708566801153e-02 4.2338609107133628e-02
      -7.4076292657381373e-02 -4.6800401544375599e-02
      2.8380479963453042e-01 -4.5658899379757978e-02
      -7.5435662454991143e-02 -1.6184427962594258e-01
      8.5404794791728951e-04 1.3647781455737387e-01
      -1.3525774860490455e-01 1.2079681040121151e-01
      -3.0676954683777225e-02 -2.4612127717170500e-03
      -4.7458847860965311e-02 -2.7815252843650617e-01
      -1.1697855634471714e-01 -1.1488524615675190e-01
      2.8735184325794383e-01 -1.6999012659188903e-01
      -2.6905304213672132e-01 2.4759261872980245e-02
      -1.3504575555213583e-01 -1.4031829938718410e-01
      -1.0755305560196525e-01 -3.7014420066959569e-02
      -5.2270765861783641e-01 3.3489207211649791e-01
      -1.9077573672074349e-01 -1.0098486784681315e+00
      1.0472581435268623e-01 1.9356471727617960e-01
      -1.3970120567357988e-01 -1.6146785886025544e-01
      -1.4435632312724916e-01 -1.1964880129911695e-01
      -4.2552298397237337e-01 -4.0146846710268407e-02
      -3.2109349256722164e-01 -2.8010808619458077e-01
      -9.3364984911504356e-02 -4.8886019568386493e-02
      -8.7832506804033095e-03 1.5248841434480735e-02
      2.2039436238835011e-01 -3.4183246256193700e-01
      2.0451309795455433e-01 -7.9810075706650913e-02
      -3.9847680583862211e-01 -1.4316309143095707e-01
      -6.4041604567575017e-02 2.1712823373744661e-01
      -2.6785460176326492e-01 2.5691118913507272e-01
      2.2629427273399276e-02 -3.0498233675402231e-01
      -2.3987907897978633e-01 1.0907203305166593e-01
      2.2243096582149646e-01 -4.2956199384115504e-02
      -1.8491287047090432e-01 1.0263988157658890e-01
      -1.2836968680259672e-01 -4.9808106208009975e-02
      8.6751908062143931e-02 -1.1330934726716434e-01
      -2.9687753746555445e-01 -7.9485690841055098e-02
      -2.8722187724373033e-01 -7.3089725248622994e-01
      1.6919020406023066e-01 2.3411417204280929e-01
      -3.3501604073378233e-01 -5.6771158298902814e-02
      1.1010371575966450e-01 6.3808187080964321e-02
      -3.5737826495961134e-01 -2.0056822193106363e-01
      -5.2473080069814748e-01 -3.1548211949751676e-01
      -2.3323103931065844e-01 -2.3737405187551913e-01
      7.8022464624651705e-02 8.2886706381389952e-02
      1.7203285745634853e-01 -3.6983035349238175e-01
      2.9050917156268208e-01 6.8899481870315596e-02
      -5.8211222844266741e-01 1.3356233068993164e-02
      -1.6397114075500027e-01 3.5357501185784629e-01
      -2.2609010215530936e-01 2.6638262950339620e-01
      2.8177373983054022e-01 -8.1520679407148772e-02
      -9.7297257829690134e-02 1.6636987158733413e-01
      2.1532265929724906e-01 -2.5632650934635310e-02
      -1.5868425870993752e-01 -1.5132523361166638e-02
      -4.3227866051332706e-02 -1.5567466473493999e-01
      1.3612100863771393e-02 -9.4661870644239907e-02
      -2.5348762392181451e-01 1.0597768158749377e-01
      1.2170244741429184e-01 -1.6780308612576508e-01
      -2.1014164439737851e-01 1.9138385006839284e-01
      -3.5334000591312470e-01 -1.7167733188533324e-01
      6.3680918185467769e-02 -7.4903247444271209e-02
      2.8814141348816208e-01 3.1977373126002205e-02
      -2.9751350391328785e-01 -1.9095767132858815e-01
      -2.1498592285911314e-01 -1.2956016625326514e-01
      4.7394007688797514e-02 -6.3352470076270834e-03
      3.5401833115555800e-04 -2.5499789887395657e-01
      6.4695254712236342e-03 1.5434416838671179e-02
      -1.4769385758744727e-01 3.8015301209692320e-02
      2.3020475625902689e-02 1.0341023147569324e-01
      -2.5966793036770264e-01 3.4541808233893734e-01
      9.2230057126880260e-03 -1.4607614085017265e-01
      -1.5017646622253719e-01 6.7989636940327905e-02
      2.5625149232761907e-01 1.4861077416190055e-01
      -1.6703031293957768e-01 -1.5636724618301401e-01
      3.8011142643961482e-01 -1.8870197111176520e-01
      -9.5577483141708573e-03 1.1335294791162997e-02
      -2.0454487133289984e-01 -2.7100389552547610e-01
      -5.0195741067594939e-02 6.5992995406733035e-02
      1.2617162188184217e-01 -1.7135904897173732e-01
      3.3811151972457865e-01 -3.1958627025914760e-02
      -9.6106566190941448e-02 -7.8464046899441961e-02
      -3.1946393785915950e-01 -5.4578977347236067e-02
      -3.4035995696550797e-01 -2.3583840238038153e-01
      1.3449627709018158e-01 -1.4625660634165730e-01
      -5.1188288267195937e-02 9.4581987738953793e-02
      1.5227780886756961e-01 -3.3000938082564668e-01
      1.4154546231759380e-01 3.3823360074376647e-02
      -3.7046081828540481e-02 -1.6007120436040235e-02
      -1.4215244063561666e-01 2.3914666075965951e-01
      -1.8175658158738506e-01 2.8912427483320435e-01
      1.0505939014496704e-01 -2.5184405253727123e-02
      -1.2597614824674094e-01 -1.9312081944465403e-02
      2.1807149989357438e-01 -1.3552234187289047e-01
      -1.3320968024560245e-01 5.7248662145249988e-03
      5.4291460635351030e-01 -1.2672275132375724e-01
      4.9963272198800368e-02 -5.0095111893569300e-02
      -2.3630387229930822e-01 2.3394193968850809e-02
      1.5602038320102887e-01 4.6081894166095000e-01
      -3.3425114648208482e-01 -5.3465771006746488e-01
      2.1918017918723665e-01 -7.2819558341018623e-02
      -1.3718123390867787e-01 1.5377458599440809e-03
      1.3841845941374645e-01 1.0487758437330401e-02
      -3.8632732772475836e-01 -2.0720313851164363e-01
      8.3122861654687089e-02 -1.9630958959440337e-01
      2.0062798389094853e-02 9.3086507641331001e-02
      8.6012543583003961e-02 -2.1591306662285550e-01
      1.7564025554293453e-01 6.7003013973526662e-02
      2.3231405511877162e-01 1.9926336619116861e-02
      -1.5453593291264947e-01 4.8697560376881083e-02
      -2.4911287027839574e-01 2.1755828882509146e-01
      6.5452253469008279e-02 -3.0928359512833077e-02
      -1.0322390308796585e-01 1.5487352097219625e-01
      2.4601889419040342e-02 -1.0920571484033284e-01
      -3.5980322673044296e-02 -3.9907833021098721e-01
      5.7474647438492366e-01 -2.2531691697432504e-01
      -1.3021816173217585e-01 5.4636307832182984e-02
      -3.6905512064492552e-01 -6.7091411214774480e-02
      6.8518996857890077e-02 1.0979818424454449e-01
      2.5221225576336287e-01 -5.9683869337340700e-01
      3.8586573354298481e-01 -2.7987794431450425e-01
      -2.4551060279880568e-01 1.2485380003533142e-02
      -2.3189883031757944e-01 -2.0655134305060871e-01
      6.7691455124467680e-03 -4.1828480117196948e-02
      2.2638396174737138e-01 -2.1708967105171265e-01
      -7.8057788988172519e-02 -2.7314561444307349e-02
      3.8691242543563507e-02 -2.6724834128923436e-01
      -1.4927661318981481e-01 -9.0358562675071100e-02
      1.6371998588724881e-01 -9.9999850332487594e-02
      -3.1935596356871032e-01 -2.0152290031751636e-02
      8.1818717672126562e-02 1.3444004572635465e-01
      2.2175029856183795e-01 5.8727002135444163e-04
      -5.0674816496399031e-03 2.2300960873136422e-01
      4.2451757909961738e-02 -2.4819593020322794e-01
      7.1288600284740711e-03 -1.8314636762438202e-01
      4.4302514015017397e-01 6.0669374100081538e-03
      -2.8440809653524418e-01 -1.1553821827804518e-01
      -2.6577373049946576e-02 2.0175431627864279e-02
      2.4850327065555106e-01 2.3281109776665601e-01
      1.5928727333378664e-01 -4.6592898336739380e-01
      3.9015557841966192e-01 -2.5280722685339324e-01
      1.6986427334073659e-02 -1.1006970757051257e-01
      3.8593306891407142e-01 -1.4356013275529947e-02
      1.2844563706950793e-01 -3.5634857938911614e-02
      1.6653132577066854e-01 -1.0052278471597037e-01
      -2.8188656586746758e-01 -2.8383829046971915e-01
      8.9215028040655828e-02 -1.7324751543402941e-01
      -8.0026303666802578e-02 -2.7529630247864234e-01
      2.0641218595499786e-01 -2.6994354026837336e-01
      -5.8546103848710555e-02 -1.1178030171999063e-02
      -2.7123198160494591e-02 6.7072709851410187e-02
      4.1936693747607376e-02 6.2434666767662995e-02
      -3.0907503740798741e-02 2.8111711707240272e-01
      1.8603827888742139e-01 -1.0538979932738114e-01
      -8.1945486204850829e-02 1.0197303965058928e-01
      1.0678452724076817e-01 1.8511847765704337e-01
      -3.0805205864756785e-01 -1.3295077958082982e-01
      5.1703878506883898e-02 -2.1768528068477902e-01
      -1.3767161159895369e-01 -3.3765632427564557e-02
      2.8770932196647275e-01 -2.6030487843610045e-01
      3.6531472769801820e-01 -9.8354606641799958e-02
      -4.6787088332489907e-01 -5.2685588272942750e-02
      -1.0658259208410313e-01 -6.9571491689980017e-02
      -1.3506541453708087e-01 -1.1194875699886106e-01
      3.7928607449307844e-01 -5.8657223574919225e-02
      -2.9748916794312946e-01 -2.2968164359357607e-01
      1.4077760307204965e-01 -1.8420611905652997e-02
      2.1291997614702676e-01 -3.0269357054733020e-01
      -3.2356725576613710e-01 -2.1026846764691129e-01
      6.4751418732849814e-02 1.9687124495082120e-01
      -1.5560400074712627e-01 -5.2336352134393076e-02
      -1.1665821054005507e-01 -4.3346667443961026e-02
      1.7251532247094161e-03 -3.3042630071424806e-01
      -1.5820709787022719e-01 2.7871909912377906e-02
      2.5091648316250736e-01 -1.4389826129865360e-01
      -8.3705980929880391e-03 5.2309829544830141e-02
      -7.7236670665168927e-03 -1.8571001523447173e-01
      7.6344602277683499e-02 5.8781872312659446e-02
      -2.5911802400671541e-01 -1.8021348548415761e-01
      2.0249294671807763e-01 -7.9643264190523838e-02
      -6.5821135314879278e-02 7.2253227438366222e-02
      -6.0645792043633784e-01 1.4355654558539915e-01
      -3.2128883833089469e-02 -3.2564948814949168e-01
      5.0434684260958051e-01 1.9763599667815732e-01
      4.1791117356789603e-01 -2.3419892131108161e-01
      -2.2156568094029598e-02 5.9548241611766126e-02
      1.9522904225904128e-01 1.2141737110921695e-01
      -1.2813273378641782e-01 1.8996763159322288e-02
      7.3066251772125196e-03 -7.2240932728461812e-02
      -1.5338629193641926e-01 1.4603767484836211e-01
      1.6591234322161749e-01 -4.2221355876934902e-01
      5.0148513804889230e-02 4.2563104577449759e-02
      7.8705817089701521e-02 -2.4383653719945281e-01
      -1.1533802322318530e-01 -2.6287300464985935e-02
      1.9217065797857311e-01 4.2940445389043919e-03
      -1.0862144485762985e-01 2.7945789041212238e-01
      -1.0885142476889197e-01 -1.4608647057151314e-01
      2.5982482992512063e-01 6.7043768745933624e-02
      -3.6298153715303544e-01 -1.6842500322056395e-02
      9.2479935050823386e-02 2.4717746861366632e-01
      -1.9265371078384311e-01 9.6708013177555313e-02
      -2.7853936037285726e-01 4.1967424082948901e-02
      4.0889545343111455e-02 -2.6241545487709239e-01
      4.5668942830318204e-01 1.9171886635411095e-01
      1.2453925307156690e-03 -8.1421382597617387e-02
      -7.3312141426211647e-02 -1.1070920849611163e-01
      6.7478178589155155e-02 1.3044389529253336e-01
      1.9596927228593741e-02 -6.5189280365674743e-02
      -1.0020770386815098e-01 -1.0328650956067686e-01
      -5.6165148918944828e-02 3.3279873420139133e-02
      1.8271258164558363e-01 -2.6393139549801592e-01
      -5.1282516273309636e-03 7.5825736742378511e-02
      7.3833546610170470e-02 1.4215173019831534e-01
      -1.2261614216014716e-01 1.7592292483483679e-01
      2.4465506308348831e-01 -4.6964048525556482e-02
      1.3390296118902292e-01 -8.1288682048758949e-03
      9.8025034420493193e-02 -1.4517780287476900e-01
      3.1065378028345303e-01 -2.2623058880552049e-01
      -3.2860097596363511e-03 2.4906622461851016e-01
      -1.1143014270393238e-01 -1.2781701283188324e-01
      -6.3149776904237925e-02 1.8467477572092389e-01
      -1.8448835113548254e-01 9.2472989244966122e-02
      -2.9660121075521647e-03 -2.1691611631125726e-01
      4.7867401132812593e-01 2.0374165485414744e-01
      2.5123391980835227e-02 -1.5635994113484508e-01
      8.7278464758145435e-02 1.7173874696588823e-01
      5.3455966044313317e-02 1.7139599205818154e-01
      1.4486446476816446e-02 1.4274610289860684e-01
      1.1727083030891694e-01 4.7344509996226351e-02
      -5.8505801027270245e-02 -7.3682997269268455e-02
      1.9807834928253201e-01 -3.6734692894561405e-01
      4.9393887516456764e-02 3.2180430218052397e-01
      1.6627630520769901e-01 9.6391262047052576e-02
      -1.2999683667722381e-01 -3.3767001716707268e-02
      1.6677241644474636e-01 1.1999728316778287e-01
      1.3609948040529976e-01 1.8970678487699630e-01
      -9.0794115366816322e-02 -1.4548586899464830e-01
      3.1684137079585645e-01 -4.2138457392629880e-01
      -2.2683446900536555e-01 3.3734041405885801e-01
      -5.2731866929418558e-02 -8.7660086548182359e-02
      2.6333993545500717e-01 9.3538856620900099e-02
      -3.3796577697604378e-02 1.2470166189027627e-01
      -4.5423321271116576e-02 -2.9108555452687318e-01
      2.1689002838150720e-01 1.8932750667320689e-01
      3.6715473394943743e-02 -1.0826043532547511e-01
      -3.1759519232427764e-02 -1.9446886193877383e-02
      3.5739306681713101e-01 6.3361377502933094e-02
      6.7649576669425421e-02 -6.1790916997524419e-02
      3.6456764953354336e-02 -1.8565279888802361e-01
      -1.0123063494553128e-01 -1.6507718657928880e-01
      1.8181536308899349e-01 -2.2217081091325711e-02
      1.2070785970933012e-01 2.9158536462338214e-01
      1.4411408611556428e-01 2.9105004615243540e-02
      -2.2129833863049247e-01 4.0011282817356864e-01
      1.7785912460652603e-01 3.7235075415073554e-01
      3.6050027007694975e-02 -2.9564750558777490e-02
      -2.0219352992250729e-02 -1.7276417793104323e-01
      1.0026744276694055e-01 -3.9264018861543620e-01
      1.7133295536960122e-01 3.9634411451976431e-01
      -2.3584910109938259e-01 -1.2736800086085606e-01
      1.2258059308628894e-01 1.8919517176812711e-01
      -9.6828892034117042e-02 8.4119459477119893e-02
      -7.2095168041315619e-02 -4.4749492838416172e-02
      3.4464928106360165e-01 1.9906640613010790e-01
      -5.5176898532445978e-02 -4.9781324878254672e-02
      -3.6786467703691206e-02 9.9480323937146925e-02
      -1.2683103629127288e-01 2.9598382027627973e-01
      -1.9858021896471612e-01 6.0916223538618246e-02
      4.3651711311742303e-01 4.5956535083582752e-02
      -1.1615405409013201e-02 -1.3739322960839870e-01
      1.9001434385309707e-01 -2.3984590508332604e-01
      3.4277320093173941e-02 1.5947357536469042e-01
      2.6486446752267068e-01 1.5634433868591208e-01
      -1.8660831583586060e-01 1.0902721974260936e-01
      2.5153097574993361e-01 8.4282053842785809e-02
      1.5137078153634551e-02 -2.8455091877929578e-02
      -3.8511488854995127e-02 -7.4529902010835938e-02
      1.5713436523733093e-01 -1.5094395585308645e-01
      3.8339280763103445e-01 -1.9662805040126755e-01
      -5.1156402863550117e-02 -3.9183311786616569e-02
      4.9293058804045477e-02 2.5337327178157603e-02
      1.1454418727612753e-01 6.9359899998858721e-02
      4.1872404328004575e-01 -6.0987538730020337e-02
      3.9894542824818879e-01 3.2803993391069869e-01
      -1.4818189970941342e-01 9.8188565465502729e-03
      -4.2534775535029649e-02 -5.5637978851958130e-03
      -1.3498046557362603e-01 2.2107238172809518e-01
      -4.2655630627020724e-01 -8.7707850956354749e-02
      1.8680170627946907e-01 -9.7999449438346320e-02
      3.9849527551487934e-02 -1.7742025466513645e-01
      2.8490340664292518e-01 -3.6714775633269342e-01
      -4.6713036288999511e-03 1.1670000135598088e-01
      5.5978484042967912e-03 -2.7169041091447327e-01
      -2.5525297339949821e-01 6.8423570346691609e-02
      2.4657747687173623e-01 1.7299164548011009e-01
      1.4200344318403004e-02 -7.4978888818974340e-02
      -7.4599101502170848e-02 9.5977031437827640e-02
      -3.2357448311280973e-01 4.8076634647179213e-02
      6.6939988743871345e-02 1.8412560072622111e-01
      -1.0048366842027320e-01 1.7132499600389733e-01
      9.9112110776333778e-02 -5.3549785190718367e-02
      -1.7214452948598058e-01 1.6367179863738514e-02
      2.8873233292006856e-01 1.2827953110843667e-02
      2.8138353100881125e-01 3.0095264539763233e-01
      -1.9264337206004589e-01 -5.1866415121310031e-03
      -1.0234404680890664e-01 9.6425385621160625e-02
      -2.4489266843020807e-01 9.9606950518047424e-02
      -3.3308810598345823e-01 -4.4272837816082627e-02
      6.0136644672198092e-02 -9.9367925640127079e-03
      -1.2723558088720030e-01 -2.5803258830875107e-02
      2.0658534576909618e-01 -2.3412454143233821e-01
      -7.0373107814893764e-03 -1.2507242302746563e-01
      2.1749106999175451e-02 9.7631359461046868e-03
      -1.3652404328408235e-01 -7.3178911721918039e-02
      2.0688514146110731e-01 1.3829566788687678e-01
      -1.9113797188296516e-01 7.6726827446401316e-02
      6.7523101930222026e-02 1.1326465025820584e-01
      1.2531574414825825e-02 -2.1737386976016423e-01
      7.7949950687817293e-02 1.8053438698434507e-01
      -2.4195285343638329e-01 3.7341932372196029e-01
      -3.7311492917281419e-02 -1.1627505365010582e-01
      2.5431267810045061e-01 -7.9101566681438074e-03
      5.5709256957373532e-01 1.0463470137850557e-01
      2.2538017852633099e-01 1.8762000833113771e-01
      -4.1060136857592866e-01 1.1567712424137905e-01
      2.6225647835313046e-02 6.7207962680719505e-02
      -2.3209613603713772e-01 9.2449992510321308e-02
      -2.6379104639886353e-01 7.4350296998530435e-02
      1.7520169648109996e-01 1.3583488165676505e-01
      2.0544045100623725e-02 -8.3476962739025842e-02
      1.6045241765229329e-01 -1.4479983192686530e-01
      -4.6245213668035419e-02 -1.1758107332229384e-01
      1.1789571911934504e-01 8.4854673910719644e-02
      -2.5063060504627643e-01 3.3112431267917508e-01
      2.1325396687920042e-01 3.0078089731223327e-02
      -2.2690407002157412e-01 -4.4122488037941238e-01
      2.3083751268161559e-01 -1.7682484400647691e-01
      -3.1214244732136487e-01 -1.9252484684316273e-01
      2.8441263355134500e-01 1.3340074106009500e-01
      -6.3458483438083954e-02 9.2947116995876586e-02
      1.2415320218461351e-01 2.1721010059487728e-01
      5.8694842914041603e-02 2.1397504917127960e-01
      -4.2894774073928769e-02 1.8431950966333746e-01
      1.9689661942096665e-01 2.4044230058885410e-01
      -1.2438945840248736e-01 -2.1749230412794715e-01
      1.9459746782928039e-01 3.8106576888792337e-01
      -3.1489145404415958e-01 4.0549004172042746e-01
      -3.7056434264279958e-01 2.4050091102917687e-01
      4.0738710597321183e-02 3.5593236492696567e-01
      2.2410131544458794e-02 -3.2845402155705597e-02
      1.3844258094604231e-01 -2.7335533520267213e-01
      8.9905221911529432e-03 -9.0713821066618655e-02
      -1.5905376852026451e-01 7.8508779152229202e-02
      -1.2675036233668630e-01 2.2689375726837582e-01
      1.8609193602853674e-01 -3.8385916504061715e-02
      -6.6316809379560859e-02 -5.2523183632086556e-01
      3.5916731978822780e-01 -2.2799506650980259e-01
      -4.6563614447555551e-01 -2.0787649659118551e-01
      1.7332414941529461e-01 1.8220603553093306e-01
      -1.0353614549902429e-01 -1.2493256639371005e-01
      -4.5682885129190048e-01 2.3305134692493412e-01
      -7.6746335018114606e-02 3.0064546873486242e-01
      2.2833670002376366e-01 4.4600180146160608e-02
      -1.0129438903411246e-01 1.6006215690872380e-01
      9.1693702298522292e-02 -2.0608827499164964e-01
      4.3411255747657468e-01 3.8369298308844407e-01
      -2.4786271475823174e-01 8.8267360057837960e-02
      -2.6770537059134153e-01 4.3302707143605246e-01
      4.5003314901140941e-03 3.2100209149077946e-01
      -1.0789274293388394e-01 4.6100998500370034e-02
      1.8845844521149509e-02 -1.4506010443583778e-01
      9.7035929657309478e-02 -1.8407896378831431e-02
      -4.1276149549246410e-02 4.6900652382282948e-01
      -1.4762178994680797e-01 4.4500757251429268e-01
      1.4652140714424811e-01 -3.2870544195797274e-01
      6.5017787590522874e-02 -7.2883331964082954e-01
      4.0994938228777350e-01 -1.5962323195440134e-01
      -5.7005513416183751e-01 -5.8683978873870479e-01
      1.7876671866647298e-01 3.7442408292101570e-01
      -1.2449030807309730e-01 -1.3124900390132391e-01
      -5.2402833663729456e-02 2.6060714115524136e-01
      1.3297402853238535e-01 2.5246769587326146e-01
      1.9999268801290743e-01 -3.1533212665124280e-02
      -9.0560274679584524e-02 9.4224131759044635e-02
      1.6831408626925873e-01 -2.3058340261495053e-01
      4.2777581019158806e-01 6.3145266290507074e-01
      -2.3070166955691279e-01 -9.1498549633122775e-02
      -2.4354378881544858e-01 5.0958036319935718e-01
      -5.7671506104151532e-02 4.3326045468151697e-01
      -1.4173762044017937e-01 2.4831693846809579e-02
      2.0546065364651079e-02 -6.6758100676227006e-02
      1.4394822225886114e-01 8.1327476015424449e-02
      -1.1124430915082781e-01 1.9426903644302507e-01
      -1.1376487036960359e-01 4.6315388452050582e-01
      8.5045384210892472e-02 -1.0594062563168544e-01
      -2.4349749916480184e-02 -5.9919340154674849e-01
      3.5000040521048426e-01 -1.5377628256322751e-01
      -4.8289503183565735e-01 -3.4779981481137284e-01
      1.0511264796177677e-01 8.6402985466517410e-02
      -8.0191469165812636e-03 -9.1661647504366089e-02
      -2.0976918609853290e-01 2.6515488868289738e-01
      1.9438294358311448e-02 3.4132827597650611e-01
      4.3758563125545248e-02 -6.3583584399596466e-02
      -3.1242666385514101e-01 5.8514616142874815e-02
      5.6104668827424667e-02 -2.8397059351072085e-01
      3.1165660891628361e-01 6.3501702074998456e-01
      -1.2914375992419422e-01 1.3011619748778508e-02
      -1.3526783176078203e-01 4.7045998603386302e-01
      2.7711958387816732e-02 4.7034546547896211e-01
      -2.3054018482428920e-01 4.7258849173063326e-02
      7.3476331801084864e-03 -1.1337385885757060e-02
      2.7088824630275105e-01 3.7441621808126366e-02
      -9.2156150055719380e-02 -7.4565779938987234e-02
      -4.1122970505243529e-02 -3.8673603831730446e-01
      6.8291431168978456e-02 1.2771301101387711e-01
      -6.1091310983600100e-02 -2.5965351660667180e-01
      1.5754283593844026e-01 1.4856348221157825e-01
      -1.3245820297778424e-01 1.1027803812663214e-01
      -3.0029060635634880e-01 -3.9861993683754132e-01
      6.5136255709799237e-02 1.1689033205059265e+00
      -2.3076596871424535e-01 -6.5093515623456189e-03
      1.0068072191508612e-02 6.9546700630036984e-02
      -3.1336632497862627e-01 -2.8205929303098606e-02
      2.0670303228236885e-02 5.1806259684728309e-02
      8.7958173445900373e-02 5.1414772260844612e-03
      2.1388056755783125e-01 1.4095825606594542e-01
      -2.0362910095674855e-01 -6.0457860583876089e-02
      -4.6086009371653372e-02 1.5810920999165931e-01
      -6.1848351078121377e-01 1.4411584734897634e-01
      -1.8818206495314196e-02 7.6860675618108373e-02
      6.7369004071743926e-02 3.0214156989188494e-02
      7.1500532123100480e-02 -2.4272126457167030e-03
      7.1876232865994025e-02 -3.1276391267255488e-01
      1.6984666423981351e-01 -2.9343493880590310e-01
      -6.9159522559167713e-02 6.0482181849362528e-02
      -2.1137484218939798e-01 7.6515073471441097e-02
      -4.9330717331528218e-02 3.0812282597719659e-01
      -2.4518149848513821e-01 4.5799419167681377e-02
      -2.9030487170736391e-01 3.6408518787196247e-02
      1.3262774104223110e-01 4.0782331879695449e-01
      -9.0592720673217109e-02 -2.6971747435749283e-01
      1.2018803750404840e-01 -2.1022933649111222e-01
      1.8529893686272444e-02 1.4421706702686629e-01
      2.8593939447766784e-02 -1.2552981297690444e-01
      -4.9458290658384674e-01 1.5621310781454034e-01
      -1.8214849279035167e-01 -1.7364933147941408e-01
      -1.7893405596855796e-01 -4.3174166772451239e-01
      1.3680244789639964e-01 -7.1737335790206386e-02
      1.0754718555910062e-01 -8.9853787450787446e-04
      1.3906041439407077e-01 7.5551171514738349e-02
      -1.6964380527940962e-01 4.1005581201329988e-01
      6.4497522457228632e-02 -2.9752122677395848e-01
      -9.0076620746971064e-02 -2.9493404809555651e-01
      1.6494750137024164e-01 -3.5945878580367713e-01
      -5.1526779940335971e-02 2.3954253065960632e-01
      -3.7810767227550696e-01 3.3731044260734575e-02
      -1.5775629563879615e-01 1.9551366034765622e-01
      -1.3166465576143785e-01 3.7024666201394185e-01
      -4.1927144588793952e-01 -3.4547865362289493e-01
      6.7019489267465482e-02 8.3850458563069441e-01
      1.6843227628489438e-03 -3.8562702950148869e-01
      3.9372909043618631e-01 -8.3946333827350089e-02
      -1.0200411387766448e-01 8.1984654303978610e-02
      -1.9698845660537345e-01 -9.5330418016851506e-02
      -7.4241613045925448e-01 9.1635801327813862e-02
      -1.8248898088937615e-01 -2.4651944526119909e-01
      -1.3827309750591890e-01 -2.6350769523049894e-01
      1.5075659124683466e-01 -1.9470915201265473e-01
      -4.6214589210726666e-02 -1.8849338829713269e-01
      7.2319925522772707e-02 1.1114884781410231e-01
      -1.3908959893276879e-01 1.5991103793106029e-01
      1.4016478671795340e-01 -4.0270790438458942e-01
      -3.5102634419917128e-01 -6.4253171648536134e-01
      2.0208089638393371e-02 -2.0076131551764617e-01
      -5.6933402635816624e-03 -1.3227440263441229e-01
      -9.6657379352594511e-02 -1.3325131209928748e-01
      -7.1322034589023281e-02 -2.0155286878927756e-01
      -4.7652213509380575e-01 6.0805038562720037e-01
      -2.0246671044887335e-01 -1.2441342205689938e+00
      9.9196354991940738e-02 -1.3562248296434434e-01
      5.9494457686562488e-02 -5.6019988662521947e-02
      -6.1384451761520364e-01 1.6047839291677773e-01
      -4.5424377152660794e-01 -3.3375757728403627e-01
      1.1754269040141715e-01 2.3689779516680241e-02
      3.3590634967214983e-01 -2.8105849118606296e-01
      -6.1881146255326668e-02 -2.5202519917194421e-02
      -7.8446254001016638e-02 -1.4645275970913169e-01
      -1.3900650026700029e-01 -1.1552258059867970e-01
      -5.3101954787108518e-01 3.9876097562170087e-02
      -2.4169324711191467e-01 8.0774603604297918e-02
      -7.9422421905004353e-03 9.9837792121317659e-02
      3.6121872797915827e-01 -2.1926681714238994e-01
      -3.2796303264218829e-01 4.9132672626773823e-02
      4.6694203939566116e-02 1.3667877305220383e-01
      -1.8562891704495571e-01 9.0719432131889585e-02
      2.9065147757569676e-01 -7.6436990648267589e-02
      2.6438217010055171e-01 -2.6507909523364004e-01
      -5.6733991013880769e-01 -2.1349046735540439e-01
      -4.2432869712661525e-01 -4.4068363649818926e-01
      9.1647581157067698e-02 -8.4546309508943551e-01
      -2.1915166970555425e-01 3.8703702370738602e-01
      -5.5155074034122309e-01 2.2340508433156164e-01
      -9.3726122883177831e-01 -3.3218369664684233e-01
      -6.9633259290004945e-01 -1.8566170211666849e-01
      5.5275995987276394e-01 -4.2355517181349717e-01
      3.5235770809948824e-01 4.8382113028107654e-01
      2.1904356610040812e-01 -1.4712512806040870e-01
      5.0937218729445144e-01 4.0455798597991760e-01
      -1.1296798041096441e+00 3.0085620559681403e-01
      -3.8879090002314021e-01 2.9969888948015552e-03
      -9.3132712076445287e-02 1.9581055550878168e-01
      3.4374742934944091e-01 1.5998448378075649e-02
      -1.2418591572156069e-01 1.0746990613789476e-01
      -9.3077723909366555e-02 4.5136071024406650e-02
      1.8002949107140544e-02 2.4579303409413289e-01
      3.6689280201447502e-02 2.3580390123606254e-01
      2.4309340374345853e-01 -1.5320352661236053e-01
      -2.6113453566906475e-01 -2.9207826399771797e-01
      -3.2000701606064907e-01 4.4308933122501659e-01
      -1.5285702940548282e-01 -3.7764622793467295e-01
      -4.8288024610270464e-01 2.7218630950008721e-01
      -1.5720281991640850e-01 8.6333472328847582e-02
      -1.8699986660463522e-01 -2.4434726892323333e-01
      -4.9877100994234719e-01 5.7806776609788127e-02
      2.3697530340572887e-01 -1.3128203677355263e-01
      2.7983811267816489e-01 2.5497396865422389e-01
      3.9550936594522534e-01 -2.3539012742378948e-02
      3.7475297865460949e-01 3.0552832003363817e-01
      -1.1825607762108824e-01 1.9526424317850000e-01
      -1.5256092568541171e-01 -1.4516335016930731e-01
      1.4426507105485298e-01 9.2330631402162869e-02
      1.4213196824017971e-01 1.2625436965799511e-01
      -1.9461665983858380e-02 -4.7318771882299865e-01
      1.1056833523231419e-01 -1.4849909069886050e-01
      -7.1375742477178358e-02 3.3787093768972637e-01
      -4.5663760040943302e-01 1.1038860155788494e-01
      -1.3533838429428849e-01 -8.4302005890303386e-02
      1.3210151891403106e-02 7.8668202288163402e-01
      1.3016258586980953e-01 -6.6692324358878863e-01
      -1.4920197028702220e-01 8.1275157285038935e-01
      -7.7898916943210983e-01 -1.4533741623284269e-01
      7.2497545292590115e-02 -7.7909491232974706e-02
      8.5697146510817016e-02 -1.0007155612024340e-01
      4.0980832350547935e-01 -6.1701240985056721e-02
      -2.1189477354712935e-01 1.2859533172919840e-01
      -1.5322565290195880e-01 -4.3526994142106606e-01
      -1.2134709461460308e-01 -1.6905620109458230e-02
      -3.0588459619326547e-01 -3.2785751200993918e-01
      3.1190464400150789e-02 -2.9001521851436635e-01
      8.2784577394839812e-02 1.3385078753749896e-01
      -1.2483003436807812e-01 8.4611278101122789e-02
      -1.5652860709842347e-03 -3.1881398030724561e-01
      -4.5188137282792022e-02 -4.9548931819445219e-01
      1.7203383936098468e-01 -1.1877887012602509e-01
      -8.6125836486717108e-02 -3.8676872659492698e-02
      -4.2205224926189139e-01 7.3662174329420876e-02
      -1.3714716635480520e-01 1.4879016439459411e-01
      1.2730718812754360e-01 5.1133556822944504e-01
      -2.9103995510957426e-01 -6.9567144830310679e-01
      1.0409176096760554e-01 7.3957856876797123e-01
      -3.5898991016672815e-01 -3.3581155152050629e-01
      2.4319816146600875e-02 -1.3918201014639064e-01
      1.7005365208661097e-02 8.0218788625242413e-02
      -6.3681882129325738e-03 -1.2971081464641607e-01
      -1.3045108237226519e-01 2.1878602907645325e-01
      -2.2237867315513515e-01 -2.9680543992634911e-01
      -6.4852596012153624e-02 -5.9230133784798578e-02
      -4.3728787694231502e-06 -1.8405882933012099e-01
      -2.1875041502629949e-01 -1.1098754039503085e-01
      1.9928948688506373e-01 3.7462214114762910e-01
      -2.1308819405228158e-01 8.7872215616884949e-02
      -1.6014881377904189e-01 -3.5605164611618273e-01
      -4.1657015758481158e-02 1.3549508918509104e-01
      -4.1716474827393428e-02 2.7096296666621411e-01
      1.1744088376117517e-02 1.7894951022437020e-01
      -3.9951992858134638e-01 -1.8404140183488515e-01
      -4.5133088890709029e-02 3.4310467694488020e-02
      -5.4375162077988537e-01 2.2058581920826467e-01
      7.0560836502374477e-02 4.0907206905372473e-02
      1.2824170955642411e-01 4.7734405812903602e-01
      -7.4549970650406860e-02 2.1221374241242034e-02
      4.1470240409800935e-01 -3.3985662741540155e-02
      7.7987117208787732e-02 9.4752860727735547e-02
      -2.5176317607622151e-01 6.2481427392123083e-02
      -1.9566963946150592e-01 -1.7233381064406814e-01
      1.4880763281853868e-01 3.4254531357395540e-01
      3.8978178147105358e-02 2.3718220877486751e-01
      2.0276239041786413e-03 1.0669537755207027e-01
      -1.2261515125748643e-01 -2.1856473009799185e-01
      -4.3922902952014786e-02 -1.1841681875756137e-01
      9.1076647820436188e-02 -3.4540887869020481e-01
      6.9431209349741396e-02 -2.1401056557783196e-01
      -2.0972966874528005e-02 5.7927771190480171e-01
      1.0036465711623467e-01 2.2115199442356856e-01
      -1.6763002522219012e-01 3.2625802061007780e-01
      -2.1698374374342899e-01 -2.3660526182097683e-01
      2.3319400323638317e-01 2.3486094461622051e-01
      2.3340441794180593e-02 1.7307581137588260e-01
      2.7093720285705236e-01 4.3780937266868036e-01
      -7.5998532150489424e-03 8.2617149935044476e-01
      1.2688372980125182e-01 4.9231761600372646e-02
      5.7111502147889837e-01 -9.7415632469841321e-02
      3.3095633268722302e-01 3.7999225292426037e-01
      -3.6693522048768101e-01 -1.4556291426534695e-01
      1.8077822846851449e-01 -1.0113169608261778e-01
      3.9072190821792968e-01 4.5705114088327431e-01
      -1.6918175889103526e-01 -6.9830595477845342e-02
      3.5551861362753440e-01 3.1605917102737424e-01
      -1.4455177804207911e-01 -3.2516746777220484e-01
      -1.4553684056160476e-01 -4.9168942530576393e-01
      9.5037464775614089e-02 -2.1501416354437325e-01
      -9.1011766055865265e-02 -4.8622905951268565e-02
      -1.0218283238635963e-01 1.5674630047619070e-01
      2.0287436569236556e-02 6.2430626852615245e-02
      -8.6755238830338033e-02 -7.4403287749289726e-02
      -1.3908343660570192e-03 -1.6005231268001491e-01
      -7.1886247223541158e-02 5.5337279696149398e-02
      -1.6503584543428379e-01 -1.0720582036929342e-01
      4.7246667182306414e-03 6.3917296244897268e-02
      8.3296744534628431e-02 9.3590745655387012e-02
      1.4499473149458095e-01 2.4418777483545884e-01
      1.0590088472219347e-01 -8.8990480548260309e-02
      2.3017008512723050e-02 -2.6020316180189468e-01
      3.7102017859755360e-01 1.3065769254700047e-02
      3.2855943699210410e-01 -1.1703427877151749e-02
      -2.8898829143610420e-02 2.5669966237806686e-02
      -6.8866618789939923e-02 -6.4261075179803909e-02
      3.4877986138496486e-01 -7.0973313616565933e-02
      2.0319528376872478e-01 2.0003995617738921e-03
      2.4707338656876115e-02 -1.6037855981379523e-01
      2.9974975872327780e-02 3.2797875865050383e-02
      1.4359298606796320e-01 6.5758933237323597e-02
      -2.2309585719187724e-01 -1.1311787778326783e-01
      1.4057430969936291e-01 1.3124234558024517e-01
      -5.6302248601223105e-02 1.5770631892201090e-01
      3.6639986619760125e-02 8.2528717061851706e-02
      1.2751985574876092e-02 1.1689728655807051e-01
      -2.2808482392103394e-01 1.2172894038998722e-01
      -3.0667680920266099e-01 1.9162012768550213e-01
      2.6629922120083943e-01 -2.3466102503904701e-01
      4.6120598402839547e-01 2.7696361201273140e-01
      -4.7908285128246264e-01 -1.6051578551625750e-01
      -2.7044206959548173e-01 2.2261939046613763e-02
      3.3663797022169695e-01 3.5676151010161248e-03
      3.8344005813001902e-01 6.2462623817496725e-02
      -5.6305040672628107e-02 2.0489866272528398e-01
      -7.7465944571224507e-02 2.7875528967944565e-02
      2.7507619968767433e-01 6.4513348763154413e-02
      4.8423613490034885e-02 4.5975686819583285e-02
      -3.7174697441834326e-02 6.3104215474226403e-03
      -1.1353501353434242e-01 -8.1374624065952403e-02
      3.1708309922511541e-01 -1.1091474926096574e-01
      -2.6498059134979657e-01 -3.0692239659155716e-02
      2.3359693392589104e-01 2.1040687557620610e-01
      -1.0738637242389291e-01 8.3119868636404207e-02
      7.9110250439042518e-02 5.3023385219406083e-02
      -6.9042841383143089e-03 -1.3490434820851374e-01
      -1.2197735660587525e-01 -4.1617956454604858e-02
      -2.7592490514926973e-02 1.5405457434309973e-02
      -4.9568451453268205e-03 -1.9177909562073092e-01
      6.5766717828956045e-02 5.9578990301060820e-02
      -3.2059493257262828e-01 -2.9574211770170850e-02
      -4.0150823822827260e-02 4.8018950788199219e-02
      -6.8073062837469625e-02 -1.8556020651432020e-01
      2.5614791425369393e-01 7.4871110038801925e-02
      -3.9968442080809165e-02 -1.6223163125060538e-01
      1.2737345346137807e-02 1.0972268441467410e-01
      2.0996883325064444e-01 -1.4916060613636603e-01
      2.0003721883463652e-02 -9.2374618721200966e-02
      3.0396172661094574e-02 1.9896719218968772e-01
      -2.6331660634374021e-01 1.7591824994241275e-02
      6.8461788552052219e-02 -1.5721882323128113e-03
      -2.2161549321136825e-01 -3.4474687054804465e-01
      3.0124539827471125e-01 3.3455047737028271e-01
      -3.0988128530787201e-01 -2.0742818648718755e-01
      2.5568410056942020e-01 -3.1396768214116322e-01
      2.1765426154961499e-02 -2.7921916603577390e-01
      -5.1463182776504313e-01 1.4838336617890943e-01
      1.3035502872301322e-01 -3.9513596061735262e-01
      6.6195562169172592e-02 -4.1716807457897204e-01
      -2.3620719369904435e-02 1.0780143988838931e-01
      -7.4761802354836793e-01 -8.5253214725548813e-03
      -3.7543239426880565e-01 5.3974057211446221e-02
      2.1675322611853248e-01 -3.6374628889554700e-01
      7.4594746856778227e-01 -2.0887532921581173e-01
      -6.5465641990518353e-02 1.3634503810045737e-01
      -3.0621740879944171e-02 -5.2068304905069342e-02
      8.5292630863912922e-02 1.9667809511536120e-02
      -3.2621157941039119e-01 1.9308426743787338e-01
      -7.8646572573519119e-02 3.8494177814409031e-01
      -4.5113578015804773e-01 1.4474157646645333e-01
      -1.3995424915192357e-02 -7.9784854779274147e-02
      1.0260662460233165e-01 -1.0974120637353049e-01
      -1.0324349339119646e-01 3.0252398305332379e-01
      9.5898666218707712e-02 1.7446878618791437e-02
      -2.7374146937361782e-01 -2.1796413434564801e-01
      2.6441395576279075e-01 4.9407773540540892e-02
      5.5789377051965960e-02 -1.2595532859789820e-02
      -2.1269195384157047e-01 6.0374751850199437e-01
      -1.1453767442561567e-01 8.3764747287302310e-01
      -3.0577440855055138e-01 8.2437364233597349e-02
      3.9621786156353445e-01 1.2299519009495115e-01
      -9.4011705239953058e-02 1.1217486520997545e-01
      -4.7297889222676454e-01 -6.4301636823130481e-03
      -6.0256305324010839e-01 -2.6765099542169651e-01
      9.7022906944082082e-02 3.9347020298918711e-01
      -2.1741000555257539e-01 -9.0226194228040221e-02
      6.4325287443839863e-02 2.8876967447547119e-01
      -1.1049760371317163e-01 3.7933693467112600e-01
      -2.9293125178040230e-01 2.0299460468925115e-01
      2.7885447834179598e-02 9.1340166156940752e-02
      1.3016209736759299e-01 -3.2554485602468175e-01
      -1.5537969960991269e-01 -3.4144465547120179e-01
      -3.8474830469941085e-01 -2.0618136942607140e-01
      3.7574064162111859e-01 5.1102945399248749e-02
      -6.9640001045888295e-03 1.4662431405086884e-01
      3.6492160468258837e-02 2.4141741540123254e-01
      9.3532524818738967e-04 1.9081481821870575e-01
      -3.3461860107461067e-01 4.7493092977467843e-01
      -3.2717756558437627e-01 6.0909830249113661e-01
      -2.6340628281026268e-01 -5.8640085743061843e-02
      1.3956386621662178e-01 1.0004350638057874e-01
      3.1058793232278009e-01 -1.1259567391132012e-01
      -8.0135759974637555e-01 3.2847681578468546e-01
      -4.8288034249947459e-01 -1.3675764147127378e-01
      9.1144794550029787e-02 2.0373238386698742e-01
      -2.0200091988251002e-02 -1.8170679107775756e-01
      -3.1662481032649403e-02 1.1526017327368183e-01
      3.4535684976556869e-01 8.4859038575448034e-02
      -2.9770040208594967e-01 -2.5475213466025387e-01
      4.4853516385105247e-01 9.5977475890615588e-02
      2.2578419000049699e-01 -1.8776460811503837e-01
      -1.7012452283611013e-01 -3.2515278499243844e-01
      9.4164597935072258e-02 -3.4291771886011169e-01
      -2.7622235859957468e-02 1.6180668724876618e-01
      4.0859906430633608e-01 6.8802347369964906e-02
      -1.9638176153882836e-01 9.9848305848631941e-02
      3.5996907545483660e-02 4.0496683025745361e-01
      7.2742129878256442e-02 -4.2472167388806818e-02
      -3.1116799972877940e-01 -5.0652360580331512e-01
      1.3166172823980254e-01 -1.4268775066679107e-01
      -3.3036850628347808e-01 -1.2144349060597233e-01
      -1.3579763136416728e-01 -6.0003202987200757e-02
      -3.1874486920430189e-01 -7.5138036793433657e-02
      2.5707411861059531e-01 9.8678989104576120e-02
      -2.4201954734068592e-02 -2.2368838418388029e-01
      5.3479107426302472e-03 -3.2104068578189421e-01
      -6.9906632616089578e-02 -1.9310496531480917e-01
      -1.3838396361587302e-01 -2.7405214739557099e-01
      1.7569276985214399e-01 -1.3363124237068069e-01
      -2.4972016582787717e-02 3.6502660424608807e-01
      -1.5236103195461262e-01 -8.0470896820736080e-03
      -7.1682570130123524e-02 7.0921931592976134e-02
      1.8379804568916466e-01 -1.9934135151810406e-01
      -1.8054624472165226e-01 1.8796272984005843e-01
      8.2878654675388422e-02 1.9382359862442664e-02
      -3.6824571956428229e-02 1.5388160447621557e-01
      5.1410434043587951e-02 1.1230231894009476e-01
      -1.1316737486808068e-02 -7.9013555642257066e-02
      4.9190093950851971e-02 -3.6296157820632925e-02
      2.9172815145683184e-01 -2.8284782380195655e-01
      -4.4178357868436380e-02 -9.3595610902632048e-02
      -3.6284206158682231e-01 6.6262332106788405e-02
      -8.7583079466080821e-02 -1.5222638903623711e-01
      -6.5182378308594704e-02 2.0456410588154264e-01
      -8.1962533291130818e-02 -9.1628435388005525e-02
      2.6787287630885809e-01 -2.3944773846189948e-01
      1.0646435369509878e-01 -1.5909407837647957e-01
      -1.9082106733430229e-01 -8.5375366816517098e-02
      1.6118853790744631e-01 1.2348938296180439e-01
      -2.3634266238469620e-01 3.5374076423382139e-01
      -1.5744485566172089e-01 -1.8248367355761130e-02
      1.6048058706927862e-01 2.5040770550394614e-01
      1.1612263475651484e-01 -6.1322860212689935e-02
      -1.3684449853809305e-01 1.9341228993354911e-01
      -1.9820665119803113e-02 8.1832940418131050e-02
      -2.7018095121266883e-01 -7.7559640010374008e-03
      1.0545520709776865e-02 5.0086288025300983e-02
      6.9527948067433593e-02 3.1995452795735552e-01
      1.7172638686566208e-01 -1.8980480611701550e-01
      1.5299511845952282e-01 -1.0722726410477113e-01
      8.5286461950761810e-02 -1.1999228882554473e-01
      -2.2304859576442454e-01 -4.5423796601727767e-02
      -2.2946719897701858e-02 -1.1992576616737254e-01
      6.6984625616562524e-03 8.7164183582281007e-02
      -6.6602555082243317e-02 -7.2554213627497824e-02
      3.8706961029528680e-01 -9.5234546144202403e-02
      1.5429742281218800e-01 -1.1583807861437476e-01
      -1.5172894232019313e-01 -6.2774098678188353e-02
      3.2908654796551792e-02 -2.8406650437303210e-02
      -1.3644120739250779e-01 2.5469975971094483e-01
      1.6600537020820025e-02 6.9341205985930410e-02
      -6.2874210867120431e-02 5.4914003326828942e-01
      7.1423789475027963e-02 1.7183741928298585e-01
      -1.6821497015553230e-01 2.8685404095591444e-01
      -1.9265417164828894e-01 -3.0537045577032867e-01
      2.1264731038360310e-01 2.0242647425257521e-01
      -1.0785442980794951e-01 1.3376437605382729e-01
      2.3395836801567288e-01 5.0375821802393694e-01
      -5.1006048073007688e-02 8.0097794034443026e-01
      1.0758344179238540e-01 3.2971109265741136e-02
      5.6494507883912382e-01 -1.1114838145123984e-01
      3.3016856236388265e-01 3.5997585022068351e-01
      -3.4804962785009708e-01 -1.0136196569446854e-01
      1.7474245029887495e-01 -1.3121832955413679e-01
      4.3264558860144919e-01 5.1854065903129321e-01
      -1.9975604614689484e-02 -3.2622140164059760e-02
      3.2133837958173667e-01 3.7526432991442282e-01
      -7.2286794895949108e-02 -2.9479106787750819e-01
      -1.6411782269134273e-01 -4.9329163133048554e-01
      1.3972017287556632e-01 -2.6298666606398030e-01
      -4.5117145326976561e-02 -4.6004409937467516e-02
      -2.2469567666164941e-01 1.9709379280483916e-01
      1.4315304806320824e-03 -2.6167597098294676e-01
      -5.5439620715907474e-02 4.3870953067350213e-02
      -6.9225512510485615e-02 -1.3467971105044066e-01
      1.6591090410647580e-01 -2.0402157068598551e-02
      -1.9914423132057574e-01 6.9611623747013407e-02
      -2.8849958786982161e-01 5.3059699265029257e-02
      2.0251861009212968e-01 8.8725210945168120e-01
      2.2460737010464124e-01 3.2714623925077196e-01
      -2.6205944782885582e-01 -7.3889349685864733e-02
      -4.6015155702789723e-01 -1.5248487792403043e-01
      3.2054065163467149e-02 5.2962979440113453e-02
      3.3575372879783844e-01 -1.6002065145611385e-01
      1.1824420465102936e-01 1.5481534070474748e-01
      -1.2687405997981618e-01 -9.2575406881233960e-02
      4.3159122519227994e-01 1.3039270609392462e-01
      3.7675002463431910e-02 2.1927679612252909e-01
      -9.4935769718389643e-02 -1.8787958279075884e-01
      5.5629950386026743e-02 -1.7837052556369207e-01
      2.3999553402488624e-01 -6.7392251147163212e-02
      -2.6684867704554732e-01 -3.2660354670108145e-02
      1.0933027687355207e-01 -3.8781396748908459e-02
      2.6252226822268399e-02 1.8299142154558290e-01
      2.7354314802465457e-01 2.2956109055909371e-01
      -6.0519152180796204e-02 -2.0366940644785357e-02
      2.6169638415689694e-03 3.6708176924575331e-01
      -1.0347843273993147e-01 1.8042630654262309e-01
      2.8973128322952912e-01 -3.6576970924359287e-01
      6.1504063857367819e-01 1.9984152620724929e-01
      -6.4969796231548116e-01 -8.4424171410863405e-02
      -3.5601209099225095e-01 -2.1967330586250097e-01
      3.3782638684099114e-01 1.9145656961099135e-02
      3.9160015691134226e-01 6.6140447898885305e-02
      -8.4501657983097306e-02 -2.5326226930141880e-02
      1.5190060147671194e-01 3.7397631229848814e-02
      2.0476702823597717e-01 -1.1474662696533203e-01
      2.6531891841320587e-01 -1.1522127108429445e-01
      -1.5665582391749361e-01 -1.3112607350754965e-01
      -1.3226248011405470e-02 -3.3638842577328631e-02
      3.5545475991203829e-01 1.0077670090218555e-01
      -5.4630360258648855e-02 -5.1293527169395475e-02
      8.7871947622781221e-02 3.0583607346389968e-01
      -1.3716806865510156e-02 -2.6304026870155817e-02
      1.9003815378694325e-01 1.3020638168771700e-01
      -1.5576480355873024e-01 -2.9800124975342701e-01
      3.9454869656628713e-02 -2.1388877104171110e-02
      1.2367321187134461e-02 -1.7335457899178505e-01
      2.3633187123818281e-01 -5.3705981535944280e-01
      1.2350197095901699e-01 1.5806392252404783e-01
      -6.7909365385425169e-01 -3.5757862488552984e-02
      -2.0391374574134605e-01 -1.5475458516545090e-01
      3.4023187743041050e-01 -2.9153291024815644e-02
      5.0210292852911775e-01 -6.7587687300416172e-02
      -1.3849211529136402e-01 -2.5771737563671793e-01
      1.8646502434825199e-01 2.6549679297442558e-01
      5.1675555370073338e-02 -2.8003252940486822e-01
      1.9068278424069132e-01 -1.7212519834143575e-01
      -6.3272413292794413e-02 1.9989414236349631e-01
      -1.5490259277990359e-01 -1.9208940099143776e-01
      1.1047371262721215e-01 1.0594972171939815e-01
      1.3779337409139375e-01 -3.0766842486723289e-01
      7.1362479347239050e-02 6.4624954152773839e-01
      -1.5144257423419497e-01 -4.7869412788635995e-01
      3.2859414501742540e-01 -3.5823997752936970e-01
      4.7743688861479769e-02 -2.8954559418803993e-01
      -1.9987586417143172e-01 1.8284327150182836e-01
      2.0017334244395035e-01 -1.9633769997442171e-01
      2.5512173124159038e-01 -5.0286941834034016e-01
      -1.7827978201935182e-01 1.4313673587659947e-01
      -8.2042895803924865e-01 4.7605691548097982e-02
      -2.1359871366696595e-01 2.4482417183080987e-02
      3.1385147636352967e-01 -1.9639854967581361e-01
      9.0202286060096160e-01 -3.2554288155702865e-01
      -1.4330063782609523e-01 1.9717873095890406e-01
      -2.2887384688811019e-01 2.3275968986610299e-01
      -9.8083419709280556e-02 1.0302096469649530e-01
      9.1343595410774364e-04 3.4518921543856368e-01
      -2.2970989639386130e-01 4.2334241883972834e-01
      -1.9602114172949980e-01 -1.4621493401553295e-01
      7.6066599658601255e-02 3.8764909908252779e-02
      2.8723728456231799e-02 -5.5444502840726551e-02
      -6.5870507876378215e-02 -4.0470924986530282e-01
      1.7602934251141103e-01 -4.7556265034832146e-01
      4.7422488061064007e-02 1.9417244333433181e-02
      -1.1900577415258755e-02 3.1996439343080801e-01
      5.0913079838938197e-02 -2.5314608920802945e-01
      -1.7017475413332042e-01 8.5192357694603116e-01
      -2.8474378513599768e-01 5.4834617734059066e-01
      1.5811039764609777e-02 -4.2943825482108311e-01
      4.4687038665486284e-01 -4.7700547193208771e-02
      1.0755813249878599e+00 2.4715475888433591e-02
      3.7170281106161240e-01 4.6800630314556613e-02
      -5.9474046381482804e-01 2.2373132436763876e-02
      -1.3539399305103153e-01 -1.0412504928260320e-01
      -2.1652418484758465e-01 -4.3198358364870831e-01
      -1.6631170438097592e-01 -6.5498993488490601e-02
      7.7337221964061154e-01 2.1597427430566234e-02
      -2.5721583537363585e-01 2.4116339744305750e-02
      7.4381419903271545e-02 1.4196696934980657e-01
      1.6403949102477269e-01 -3.3507607772221903e-01
      -2.5221146454649651e-01 -7.3956971381281655e-01
      -2.9263196755306936e-01 -1.0105368080853252e+00
      3.4081664970352699e-01 -1.1550515305942662e-01
      1.3092215831638712e-01 2.8280541650313051e-01
      -2.2842312947497256e-01 4.8292926215467763e-01
      -1.4164486595193090e-01 3.9542245270081533e-01
      -4.3833270488206788e-01 5.1466148843150050e-01
      -3.7981535386320675e-01 3.2948040630016284e-01
      4.1883472945210964e-01 -6.0799156791047582e-01
      4.0214908059471921e-01 1.2025281740594217e-01
      8.1121801186777909e-01 -1.5051039888249296e-01
      -4.1718864306508141e-01 2.8019687293619994e-01
      -6.6800696771291068e-01 8.4080760146024919e-02
      -1.9281427562649872e-01 -2.7993558241570943e-01
      -2.6181847039406285e-02 -5.1251855829761128e-01
      -2.1693336764703622e-01 -2.6211398438171635e-01
      6.5413806030591615e-01 -3.2989638224209161e-01
      -2.1152162778980044e-01 -3.6544440492410785e-01
      4.7469682936768398e-01 2.8343086279081325e-01
      2.4679283628410253e-01 -6.3286953561515147e-01
      -6.3715148851366379e-02 -1.3415157515456302e-01
      1.7957035966930210e-01 -3.7160585651515449e-01
      -2.0221877791898085e-01 3.7255318130058773e-01
      6.9983975696978806e-01 1.4406418643323479e-01
      -4.3189542745600162e-01 1.3450720691708293e-01
      -7.5466231544303000e-02 5.1114026770855886e-02
      2.5231768044378045e-01 2.5551984007151507e-01
      -2.0290607966111479e-01 -1.1842536988070462e+00
      8.3502078988976813e-01 -3.1242944335835932e-01
      -2.9498431999204983e-01 -2.1740284604340759e-01
      -4.9706660440653244e-01 2.8074056178339524e-01
      -3.2914299616281378e-01 -1.7015321498310101e-01
      4.1475505923920730e-01 1.4464266090990041e-01
      -2.5873189757972770e-01 -3.4689785398398998e-01
      2.1714677074100799e-01 -1.2326205437496601e-01
      1.8674008030204309e-01 -3.8005805128103015e-01
      6.5997364413754533e-02 -4.6858522403510089e-01
      3.4368240787630322e-01 -3.8164756634376290e-01
      -9.4078064104745965e-02 2.4899455429510609e-01
      -3.6543168011185551e-01 -3.8559161103904754e-02
      -3.3375636669323215e-02 5.5132104325810749e-01
      2.3252939407921699e-01 -5.8815786678902492e-02
      -2.1800168158829306e-01 9.7465214697070313e-02
      5.2002782840446637e-01 1.8359893988223094e-01
      -6.7930119066566347e-02 1.1222868546833652e-02
      -2.6301529703331529e-02 -3.7304194041473770e-01
      1.9923719413338931e-01 3.2000847121293735e-01
      5.3713000430865229e-02 -8.3130733004154922e-01
      6.6059627904034957e-01 -1.4657723755964126e-02
      -3.2723060331206011e-01 -1.2714064359576052e-01
      -3.1773699590714538e-01 8.9413229665640900e-02
      1.2759174203542595e-01 -2.0830888143536341e-01
      2.6725049839101572e-01 1.5623839991157629e-01
      -1.6320133053698966e-02 -4.4552308948252559e-02
      4.1250834817068122e-01 -2.0920619901127913e-01
      2.7562711187949235e-01 -1.5934157634935966e-01
      8.9005081387195706e-02 -8.3423439159889923e-02
      1.4181109737382769e-01 -1.2906793796428417e-01
      -2.3301182659142153e-01 2.1186116043681882e-01
      -2.3842952259612507e-01 3.1419763161338710e-01
      2.7838496405546368e-03 2.6224169739179187e-01
      6.9257293159704914e-02 1.5099893519922544e-01
      -1.8403205432112205e-01 2.2885354161687210e-01
      4.2829047108194240e-01 -8.8344866105291617e-02
      -1.8571371674809034e-01 -1.1109253168493902e-01
      1.8650395415627670e-03 8.7470629458430260e-02
      1.6742250857026333e-01 2.4351384345997834e-01
      2.0855491135255433e-01 -6.5880633890187457e-01
      3.1204878890162258e-01 -1.4897334187225924e-02
      -4.0108306413944933e-01 -1.3391565304271189e-01
      -3.1850614090883433e-01 -6.8441233974048749e-02
      9.9006267475232987e-02 -1.2685425247998988e-01
      5.0121221068770661e-01 1.1629810240320428e-02
      1.3548775065118380e-02 7.9615867575187751e-02
      3.5618242285750379e-01 -1.1483998191404382e-01
      2.4158181990848587e-01 -1.6878196256989483e-02
      -1.2010945995279822e-01 7.5813303883632402e-02
      -8.1091372738796241e-02 5.0997790374703929e-02
      -1.5277717933719859e-01 1.8410780884972389e-01
      3.2675207186441520e-02 2.0840834036737146e-01
      -7.9620212004133245e-02 5.4769080820259275e-01
      2.4685691725763324e-02 1.8222852218799604e-01
      -1.6476196552166031e-01 2.7761840048465436e-01
      -1.4110761534819774e-01 -3.5528782998863018e-01
      1.9668069919464368e-01 1.7833992158813594e-01
      -2.0554087322229173e-01 1.7195765608935532e-01
      2.3159906810552591e-01 5.0786428242387771e-01
      -4.8561196558270875e-02 7.0705426773552704e-01
      9.1577388754209899e-02 6.7906382083612757e-02
      4.1328247075031505e-01 -8.2797044444498133e-02
      2.9533677870006919e-01 3.1929366200138687e-01
      -3.5816370135692749e-01 -6.4323513594120044e-02
      2.3753120619323356e-01 -1.9368774600013997e-01
      4.8701314965575199e-01 5.3513806695629551e-01
      6.9022237256187988e-02 -1.3629689707773918e-02
      3.4807555737866869e-01 4.1288939624421322e-01
      1.5716878774079582e-02 -2.7595933798102773e-01
      -2.0407156648238531e-01 -5.0513551351800934e-01
      1.4420130941845377e-01 -2.7071629272883213e-01
      1.2429257750638887e-02 -2.0582777128833898e-02
      -1.1609084756842897e-01 -1.0326809911958404e-01
      4.3257486718485359e-02 -3.3229868791038791e-01
      -4.6996885257675397e-02 3.2214650600403866e-01
      -3.1581336531459114e-01 6.5136868636865825e-02
      -8.4340356976222594e-02 2.0584011674080069e-01
      2.0700988692576741e-01 9.4923163389078274e-02
      -2.9099419655353070e-01 -2.7026286597929272e-01
      3.3818967240719194e-01 1.1344374660602763e+00
      6.8367644294001617e-01 1.6199041427277328e-01
      1.1487361457582686e-01 2.1033355353780217e-02
      -5.4820059222114226e-01 1.1025894117142931e-01
      1.2567552649096386e-01 -4.8020270616833581e-02
      -2.9108884132264961e-02 2.9490211568542236e-02
      -8.4885508307897484e-02 -1.1548296362996605e-01
      -3.9735348763246102e-02 7.2904217600248400e-02
      1.5342062960049802e-01 -1.2960816191663080e-01
      -1.7091673917606251e-01 5.3972474030899484e-02
      9.3544921093603822e-02 -4.9519991187672134e-02
      -4.7271268302702125e-02 2.4848619738928074e-02
      5.9275161704695462e-02 -2.5102755967656215e-01
      -1.6616676121766843e-01 -1.9534313265687361e-01
      4.1462356589153274e-02 -1.2368207261586232e-01
      8.3270748822022470e-02 4.2129446546040428e-01
      2.0018001649919223e-01 4.1286443856583582e-01
      -1.0522537556910623e-01 -1.1245018357447491e-01
      3.3665762846405611e-01 4.0872453727395208e-01
      -1.1102752368984589e-01 -8.0373083665686684e-02
      2.2546067982927195e-01 -1.6532920116234356e-01
      3.3039166788557617e-01 1.7804453553564573e-01
      -5.7722777449516671e-01 -1.8618278328130594e-02
      -1.7443449811766981e-01 -2.2606403387396959e-01
      1.6845238915217861e-01 6.8249704693355395e-02
      2.3807477624640855e-01 5.1536590549982109e-02
      -2.1736854310886855e-01 -3.0590919146618772e-01
      8.1953999841135466e-02 1.2764856644089780e-02
      1.3218094085573148e-01 -2.1133078339066091e-01
      1.3759991378721539e-01 -2.0610644324022209e-01
      -1.7146509859819156e-01 -1.4697786199602583e-01
      2.6494967537695004e-02 1.5146077293781779e-03
      3.8963668499258203e-01 -5.6919636510752519e-02
      -1.1362655885668849e-03 -2.6580479031672966e-01
      5.1162483203127829e-02 1.7601179893677601e-01
      1.1054805527687032e-01 9.2126602534429364e-02
      -3.3845906330142936e-02 2.4804084605033055e-01
      -1.6450982465569894e-01 -3.4178999274579924e-01
      3.2057443347846243e-01 2.1381086483564155e-01
      -4.4704593521703070e-02 -5.2167024504137560e-01
      2.1817410707505627e-01 -1.3823740338095286e-01
      -6.9866225612618613e-02 1.6357173656530516e-01
      -4.7292456540431832e-01 1.6272315940604458e-02
      -2.5675597095197988e-01 -2.7404331657126085e-01
      4.0514018833976279e-01 3.1771346322325818e-02
      3.7527657142201282e-01 -1.1422188253416725e-01
      -1.6994488261176272e-01 -3.2520810807339201e-01
      1.2138041343363262e-01 2.7916640741143622e-01
      -1.2401995273780379e-02 -3.0176968381616537e-01
      -1.0953201241793503e-01 -2.3200076095826305e-01
      -7.2114506295446718e-02 3.0987937745007721e-01
      -9.4601908455673289e-02 -2.4089280406608118e-01
      1.4304515317532401e-01 1.2340833998813092e-01
      2.9072483124139925e-01 -2.1424700251011364e-01
      -1.1165051453616999e-01 2.8553441974778593e-01
      2.8110551142289799e-02 -2.9181309570541430e-01
      5.0436858692662198e-03 -8.1328451917984396e-03
      -1.3823636366112646e-01 -3.5675061771737399e-01
      1.5250635594357537e-01 1.3436654389598204e-01
      1.0968668242130093e-02 -2.8396636501343464e-01
      4.2739704217439145e-01 -2.3041359909537087e-01
      -1.2329185010185459e-01 1.6476002698636281e-02
      -8.0018472338243984e-01 7.2244655328023044e-02
      -2.0095040932554109e-01 -1.7893285715728885e-01
      5.2508129498452860e-01 5.3780157718308783e-02
      4.8307245702769064e-01 -3.7720361016148696e-01
      -2.5495946277998688e-01 -3.5597231563225237e-02
      4.2084114660074085e-02 3.6912921795248183e-01
      -1.4344578438182537e-01 -1.1891399804228758e-01
      6.8582595113415015e-03 6.4624584447834282e-02
      -1.9791682414284575e-01 3.1277106771256019e-01
      4.1808504231406377e-02 -3.9190579151093169e-01
      1.6429638005524674e-01 1.7262707442701739e-01
      5.1224716935535188e-02 -9.3635856719185812e-02
      -2.9016310716887728e-01 -4.5559324078615560e-01
      3.4106059851063658e-01 -6.4931100720705226e-01
      -2.5638876400171784e-01 -3.0567171939386312e-01
      2.6200947708314451e-02 1.6648269563112564e-01
      -2.2927676780837525e-01 1.6070832567857910e-02
      -1.4730757477384138e-01 6.7258958981709438e-01
      1.5380431467550351e-02 5.6083091682380526e-01
      -6.5716600714583281e-02 -2.8002937261803507e-01
      -1.8005670631608153e-01 8.0769447475862718e-02
      1.1069675071580194e+00 -2.5015637458084666e-01
      5.9177703241150681e-01 3.1852929676095276e-01
      -1.8935981393449339e-01 -1.1114397379373793e-01
      -5.1009446649698593e-02 1.4692349590558729e-01
      -3.0210157112043495e-01 -8.6156972512835342e-02
      -5.3656173415597086e-01 1.1366621634119804e-01
      6.1949522857562833e-01 1.6055543640918116e-01
      -2.2714774456808740e-01 3.3974915647901380e-02
      3.3581092323001266e-01 -1.5898932286365641e-01
      2.3130117260405439e-01 -3.7814715819571010e-01
      2.3815145443798636e-02 -9.4015596089935161e-01
      -7.0759466542965513e-02 -8.0519136352053644e-01
      1.1427019222272587e-01 -5.8081243481710274e-02
      -3.2909254968995211e-01 7.8681568272334010e-02
      -4.8643080387620563e-01 2.2124698470222637e-01
      -1.9684810921684645e-01 6.8977450245118521e-01
      -3.6272990816015527e-01 2.0120354545281902e-01
      1.8430282759102237e-01 5.5242231765049055e-01
      4.6220438464680552e-01 -5.5274453335003348e-01
      9.5520231218569132e-02 -8.1730159830730412e-02
      4.7327123433432111e-01 5.5692873183650439e-02
      7.9157687548118416e-02 4.4521186701159100e-02
      -3.3547090646261929e-01 1.3207446088901925e-01
      -4.3276120347396169e-01 -4.0221326763216902e-01
      1.2561507188151977e-01 -2.2536119713090880e-01
      -1.8266053691979067e-01 -4.6976771876725165e-01
      2.6233258861799641e-01 -5.2824484298227947e-01
      1.4440140558405629e-01 1.6339891522238485e-03
      1.1960088577065860e-01 1.2745713361259456e-01
      -7.8278836272889590e-02 -7.7134154281555511e-01
      5.5477433715359577e-02 7.1724136851801179e-02
      2.5848702207476110e-01 -1.9071334454259017e-01
      -3.7878718177293508e-01 3.5304152838184633e-01
      6.7419849847910029e-01 2.9273611000313693e-01
      -4.9650762923199748e-01 4.0094995828852439e-02
      -2.8491324157014236e-01 -2.9801143095411681e-01
      2.0713982792853422e-01 7.4102319063716338e-01
      8.6460330136987010e-03 -1.2604013390459878e+00
      1.2478185329035989e+00 -1.3280488188371847e-01
      -6.1439090229495863e-01 -3.5659957035735851e-01
      -5.0674167298602668e-01 4.4400907183838212e-01
      3.5556652099069094e-02 -2.2830899847682548e-01
      7.8798361478096868e-01 3.3252564087451791e-01
      -3.2525918010022881e-01 -3.7646669565615587e-01
      4.4550857855858539e-01 3.4023013148060652e-02
      4.4104246031474004e-01 -4.4976598003544976e-01
      1.5689415515027250e-01 -4.8860242132776827e-01
      4.3404129095607469e-01 -3.3668865162738415e-01
      -2.5434982037815973e-01 1.4361368626216441e-02
      -5.9510548996001189e-01 2.7451933282097361e-02
      -1.3477777768748972e-01 4.0727991627264204e-01
      2.1296062298943935e-01 -1.9271065113444988e-01
      -1.5562614112957157e-01 1.4179226497500605e-01
      5.6200570788743498e-01 2.9613945120912594e-01
      -1.7859682191330115e-01 6.3900282156270888e-02
      -8.3096930299360855e-02 -2.7146127562374645e-01
      1.6937470745187930e-01 1.9360560563983772e-01
      2.8451239182746405e-02 -1.0311465237702218e+00
      6.1213917310462129e-01 -1.4498844523988616e-01
      -5.0475137737374631e-01 -1.5728004398531117e-01
      -3.3976166873582264e-01 1.7446992379641577e-01
      -2.0405110085067965e-03 -1.8790146033184899e-01
      3.9988798299168055e-01 1.8502840866453121e-01
      -1.1204735858372940e-01 -2.2384091234992190e-01
      3.5258222220600594e-01 -2.3426570589100978e-01
      2.7079592422909565e-01 -2.5050289862103636e-01
      5.8500134184915099e-02 -1.9379270988248776e-01
      1.0089619482308398e-01 -5.4780957173907602e-02
      -2.1295619741368374e-01 2.0705168940658614e-01
      -2.1602694939997266e-01 1.9705008795649390e-01
      2.1233625499029091e-02 2.8131906432293824e-01
      1.1978700969140831e-01 2.3304122915533831e-01
      -2.3725474948732028e-01 3.5510361383836575e-01
      4.3833970107013298e-01 -1.0346516080807333e-02
      -1.6850822731922266e-01 -1.4187070331745716e-01
      1.9385505319655305e-01 1.4860163853862240e-01
      1.8114208957492567e-01 1.0927369403804239e-01
      9.9324745176641388e-02 -4.5823430828480449e-01
      1.2784901750634570e-01 -1.4190553105559897e-01
      -5.5287074195414943e-01 -1.6568820842369922e-01
      -1.1116465534412234e-02 -8.0084885758181998e-02
      -5.6571666742194431e-02 -1.5069132249585238e-01
      5.1265940152455391e-01 6.3298067537759364e-02
      -4.8308174618301197e-02 3.6534495792097639e-03
      2.1742252918420263e-01 -1.2593823596234721e-01
      2.5391118886669994e-01 -1.7321995044678535e-02
      -8.9950795313496562e-02 -5.7399086784485437e-02
      -4.5639566572385035e-02 2.8395232359763635e-02
      -1.5991671380777106e-01 2.9062514407382828e-01
      -1.5714127307298459e-02 2.2825409426652343e-01
      -7.5440839503544591e-02 5.8216208160233152e-01
      5.7484229501062731e-02 2.2178307127790739e-01
      -1.5658095455147469e-01 2.9107867125178616e-01
      7.5312238967325376e-02 -2.8151641895969864e-01
      2.5557082753635280e-01 1.6742043566601997e-01
      -1.3475163138450491e-01 1.2546934681642258e-01
      2.3478198788741150e-01 4.8258851221613036e-01
      -6.5038040948557321e-02 7.9028698684387655e-01
      7.1840355570091136e-02 9.5142397706047557e-02
      4.1405972526799445e-01 -8.6390191401198441e-02
      3.2031253414349936e-01 3.5481765805296595e-01
      -4.3198336171644292e-01 -9.3903925264749791e-02
      3.5606090870011903e-01 -1.7042487922769678e-01
      4.4210310818443960e-01 5.1043089523944940e-01
      -6.1043406772790097e-02 -6.0560094158198706e-02
      3.7152674448047146e-01 3.8291235113105127e-01
      -1.8494394472658199e-01 -2.3108579806983320e-01
      -1.6410009505922010e-01 -5.0116252688506069e-01
      1.3114311506633305e-01 -2.0101602584015482e-01
      -4.1548659096814732e-02 -4.0744438701211749e-02
      -3.0330338335195861e-01 -1.9859014223021593e-01
      -4.3188942222815059e-02 9.9374576316294374e-04
      4.1585543886311034e-02 4.5518009605763482e-01
      -2.7237522220842475e-01 -1.1932159591520078e-01
      1.8815276908153648e-02 -2.1869543635612203e-02
      1.9636722830356629e-02 3.9186369476395944e-01
      2.8388383463572336e-01 -2.1111227245296713e-01
      -3.3072163431566826e-02 1.1488776621777139e+00
      4.7372937331504555e-01 2.0451134405832801e-02
      6.9014885146720928e-01 7.3221951846998007e-02
      -3.4362027635714047e-02 3.7223325023020837e-01
      2.5052239351965561e-01 1.1319082783062333e-02
      -2.1933526002615580e-01 -2.2005654771349489e-01
      6.2539738526681127e-02 -2.6714612409112257e-02
      -2.0050364398853407e-01 1.2809929921625446e-01
      -2.0180528009047607e-01 -1.1263380597482425e-02
      1.6913125842195251e-01 -1.3717411814876870e-01
      -7.5341451169271226e-02 -7.3233303349471401e-01
      2.7216636678598671e-01 -4.3849035374623879e-01
      2.1698141203362345e-01 -1.5293996084928552e-01
      2.3893047772414050e-02 -1.7932564269980469e-01
      -1.2295946153620589e-01 3.3107702450234927e-01
      1.1341946876669468e-01 4.1228767189271398e-01
      1.3841383853859113e-01 3.0681802288707544e-01
      6.5757970540547578e-02 -2.3485637850943905e-01
      6.3319293564272294e-01 8.4633116731566996e-02
      -1.9536843205682636e-01 -3.0854394970050553e-01
      2.8540210482959627e-02 1.6906848426921531e-01
      -2.4599464637641175e-01 3.3658610026934271e-01
      -1.6102244061394247e-01 5.3724905108991569e-02
      2.6787430402933371e-01 -1.9783577281256740e-01
      -2.3350711331965862e-01 6.9744989807253230e-02
      4.7014841088085488e-04 -4.2697695988302864e-02
      -2.1029505644267568e-01 -2.0213468580888472e-01
      -2.4313151442484890e-01 3.1763209828023359e-01
      -7.4238230808666159e-03 -5.2473273713759809e-02
      -5.1078969227049953e-01 4.4568267886628411e-02
      -2.0519045476523290e-01 -8.9145958942534104e-02
      1.0647650864010930e-01 8.2436732358991141e-02
      4.5170098283922383e-01 -1.4097270406324539e-01
      -1.1770305852710565e-01 -3.3307880430303427e-01
      -5.2795574798507230e-02 1.0181607123176177e-01
      2.0585116087602587e-01 4.5036332027042386e-01
      -2.8140330842517997e-01 3.8213513917875996e-01
      -6.4965380451446730e-02 -3.2802931263038343e-01
      6.0238959039882201e-01 2.8377473226721628e-01
      8.8004466615563368e-02 -5.7996850447269399e-01
      -1.3073868561608099e-01 4.9478292839421090e-01
      -5.2352628631261311e-01 8.1807597061803683e-02
      7.1635946571348544e-02 3.0735942278385150e-02
      1.9400946426923055e-01 -1.2214361994294466e-01
      8.4281024558338594e-02 9.9298176125580992e-02
      -7.3673349960446388e-02 -3.6978280064150576e-02
      -1.5912486238564424e-01 -3.4061677911509625e-01
      -1.6224564639825537e-01 3.4717430942527933e-01
      -1.1215453787504120e-01 -1.9774571403527652e-01
      -2.6493851913477229e-01 -2.6652892585339905e-01
      -5.4394120447572032e-02 2.2875224412170195e-01
      1.2866861145738973e-02 -2.2085214918829157e-01
      1.8338254902937801e-01 -3.4204184437609088e-03
      3.0940965291564565e-01 -1.8035144718473059e-01
      -2.3669052185050615e-01 2.1291602285011199e-01
      1.6314520308575095e-01 1.6070978498824509e-01
      -2.2754893968110670e-01 4.5150911599803401e-01
      -1.3444222819709647e-01 -3.3859466687155282e-01
      6.1940525204454033e-01 2.1017013423590689e-01
      -1.3790218307910905e-02 -3.1357476654302313e-01
      3.3029173773868870e-01 4.0850777122866160e-02
      -1.9340878473248357e-01 2.0729704191981646e-01
      -6.9256928300350806e-01 1.4455613307327428e-01
      -7.1546410745668573e-02 -2.4130615873190819e-01
      6.3272893227538995e-01 2.4047461053308755e-01
      2.8960582226460674e-01 -1.7072374171676022e-01
      -1.5874907173578795e-01 -1.4454506996734123e-01
      5.4304417747513690e-02 5.4348271790474623e-01
      -1.4693155762757049e-01 -1.1150998672400324e-01
      -7.0762778210286925e-02 -1.3878875992416109e-01
      -8.0438202167156247e-02 5.9752033554551026e-02
      1.9208832625972994e-01 -5.2621411877049984e-01
      1.7951056654557110e-01 3.2585802671011638e-01
      6.3747225894524229e-01 -2.3531931147187996e-01
      -1.2300360803087391e-01 -3.2610860880590226e-01
      1.6284053379864563e-01 -4.9897598305029583e-01
      -3.1448502610456530e-01 1.4372529115246185e-01
      -5.8231881359684057e-01 -2.3591005904215853e-01
      2.1998854408726162e-01 2.2625635622671422e-01
      -3.5769407514904700e-01 3.6540841709653205e-01
      9.1517227182913496e-01 1.4439882978889096e-01
      5.8959473927356176e-01 -9.7311785968291223e-02
      -6.1596564503202722e-01 3.9491003979995880e-02
      -3.8387022670297466e-01 -3.2600485984219579e-01
      1.5518167691977425e+00 2.2837231366390759e-01
      8.5163587161567189e-02 -3.2237190444540420e-01
      -4.2116880891791886e-01 -3.9991015703745547e-01
      7.2044923106378866e-01 3.3737826190855763e-01
      -2.0276664524786506e-01 -5.2425050414998708e-01
      1.0918270562811172e+00 -5.2629737770787799e-01
      1.9335614853139838e-02 3.4538204788610888e-02
      2.1805589469819961e-01 -5.5989774651416990e-01
      -2.4125327626350841e-02 -1.5352385242223848e-01
      4.0761966164664520e-01 -1.9450668606245525e-01
      1.8399767572452380e-01 4.9720144297672950e-02
      -3.7458488694526254e-02 -4.8169694832031479e-01
      -4.0856277843484728e-01 -9.6662135912943467e-02
      -2.4670940170052649e-01 -1.9379106892161066e-01
      3.2335020367789897e-03 1.9947436321829654e-01
      -9.8635358764183112e-02 -4.4472090976335293e-01
      5.8233315672381714e-01 4.0099925686421445e-01
      7.5723500198045091e-01 1.2971774172260522e-01
      -4.1470003446652762e-02 -7.8206583469912702e-02
      -1.3939654941350892e+00 -1.3493552774362116e-01
      1.1153121135146034e+00 -1.0054305992223020e-01
      3.3847982036394268e-02 -1.7637580396167493e-01
      -1.4363995655373943e-01 -8.5210975607601408e-02
