<?xml version="1.0"?>
<opencv_storage>
<opencv_ml_svm>
  <format>3</format>
  <svmType>C_SVC</svmType>
  <kernel>
    <type>LINEAR</type></kernel>
  <C>2.</C>
  <term_criteria><iterations>100</iterations></term_criteria>
  <var_count>140</var_count>
  <class_count>11</class_count>
  <class_labels type_id="opencv-matrix">
    <rows>11</rows>
    <cols>1</cols>
    <dt>i</dt>
    <data>
      0 1 2 3 4 5 6 7 8 9 10</data></class_labels>
  <sv_total>55</sv_total>
  <support_vectors>
    <_>
      2.13574458e-06 4.08255619e-06 2.26124553e-06 2.68944723e-06
      4.49212303e-06 5.48395064e-06 3.75102582e-06 2.82385963e-06
      -1.08254972e-06 -1.42018553e-06 -1.93309575e-06 -1.01507487e-06
      1.48811375e-06 1.30208059e-06 2.17943989e-06 1.14884187e-06
      2.10822145e-06 2.05948231e-06 1.72893863e-06 2.15164573e-06
      -1.89959860e-06 -2.12520399e-06 -8.78336550e-07 -2.06913933e-06
      -1.80288941e-06 -2.80941754e-06 -2.17196771e-06 2.14262840e-07
      3.85655085e-07 5.92869469e-07 1.07811354e-06 1.13155625e-06
      2.11746260e-06 -1.16530842e-07 1.67554833e-06 6.45275975e-07
      4.44458374e-06 3.30461376e-06 4.31054514e-06 4.62001208e-06
      6.92597951e-06 1.76535809e-06 -7.57197922e-05 -3.68050823e-04
      6.62147359e-04 3.56542791e-04 -4.07049636e-04 1.41738274e-04
      2.93662917e-04 2.00436596e-04 4.55033341e-06 -7.98191309e-07
      1.00973040e-04 2.46013078e-04 -3.05182941e-04 -1.27502484e-04
      2.89683725e-04 1.95335408e-04 3.26292138e-05 1.98105932e-04
      -4.02695974e-08 -3.86405236e-06 3.47786117e-04 5.32461854e-04
      -1.23958348e-03 -1.18316920e-03 3.79612000e-04 2.63265014e-04
      1.16532897e-06 1.92279287e-04 -1.20839638e-06 6.19193429e-07
      5.85308357e-04 9.94760543e-04 -7.82412011e-04 -9.96101182e-04
      6.25066896e-05 2.68279342e-04 1.16532897e-06 1.94609951e-04
      1.42234829e-04 9.38731500e-06 7.63667806e-04 1.11528602e-03
      -8.37096188e-04 -8.49001284e-04 3.12547891e-05 4.21621400e-04
      2.10406051e-05 1.99335947e-04 5.01161812e-05 5.83367864e-06
      6.12639007e-04 1.06737914e-03 -7.97184242e-04 -3.49027658e-04
      1.51551838e-04 6.41769031e-04 4.08511987e-05 2.02831929e-04
      4.66834945e-06 6.99900738e-06 5.38434717e-04 9.88802523e-04
      -6.38338854e-04 -4.03389044e-04 2.86722119e-04 5.56237763e-04
      3.13920056e-04 2.01666597e-04 5.83367864e-06 3.22018663e-04
      8.05476564e-04 8.19717126e-04 -5.90653217e-04 -6.23766566e-04
      4.78786009e-04 4.57911636e-04 5.77343919e-04 2.02831929e-04
      4.02106753e-06 5.08173427e-04 7.08339154e-04 9.57432261e-04
      8.77720158e-05 1.18061202e-04 3.51568364e-04 6.21984713e-04
      6.66041393e-04 2.02831929e-04 1.01611813e-05 2.90416065e-04
      3.26813839e-04 -3.43657128e-04 8.97882506e-04 9.16706980e-04
      4.18981537e-04 6.35120203e-04 5.16493223e-04 1.74799352e-04</_>
    <_>
      -4.57493030e-07 -1.48107722e-06 -6.08025459e-07 2.46322003e-07
      -4.97021119e-07 1.50240840e-06 2.06852724e-06 8.54265750e-07
      -1.93261758e-06 -2.71845238e-06 -1.68701206e-06 -2.01333773e-06
      -9.54007078e-07 -6.20821538e-07 -1.12356099e-06 -1.01751300e-06
      6.69001210e-08 -1.48713127e-07 5.12313179e-08 2.09876106e-07
      2.09560696e-07 4.83849192e-07 5.26713336e-07 -5.72022884e-07
      -3.14751780e-08 1.02100864e-06 3.36873029e-07 8.74586021e-07
      5.43708552e-07 4.31774225e-07 9.62579065e-07 9.24175225e-08
      8.34652212e-07 3.61586046e-07 4.27399129e-07 9.76539354e-07
      9.32037096e-07 6.34704008e-07 8.76681909e-08 4.64649105e-07
      4.81150846e-06 -1.60514969e-06 -1.08147418e-04 -1.62019947e-04
      -3.95529896e-05 -1.03701263e-04 -6.65385232e-05 -1.56445021e-04
      -1.54218913e-04 -6.08396258e-05 2.12785312e-06 1.65571852e-04
      -3.51774834e-05 1.87660757e-04 4.62338649e-05 -2.92712823e-04
      -5.63236710e-04 -2.57912820e-04 -2.50632904e-04 -6.49728754e-05
      -9.35436105e-07 3.10636591e-04 2.93820136e-04 6.91167603e-04
      9.93962749e-05 4.96137218e-05 -1.13096270e-04 -4.28103260e-04
      -2.47562479e-04 -6.50299990e-05 2.72529928e-06 3.13699682e-04
      6.89168170e-04 1.55380345e-03 3.39344406e-04 -3.99273667e-05
      -4.90352977e-04 -3.00709362e-04 -2.24329735e-04 -6.57454148e-05
      7.19606469e-05 3.32122610e-04 9.34368640e-04 1.48282829e-03
      -1.43410682e-04 -7.91760394e-04 -2.66424147e-04 9.34185518e-05
      -2.23826777e-04 -6.17718324e-05 2.17468187e-05 3.63987841e-04
      8.08372104e-04 9.85726248e-04 -7.06398918e-04 -1.05433469e-03
      1.32450863e-04 4.16063587e-04 -2.62057383e-05 1.10390924e-04
      -3.98659495e-06 3.45145061e-04 4.41626413e-04 6.97409443e-04
      -7.94303312e-04 -7.55128625e-04 6.05240173e-04 6.49985450e-04
      1.53691581e-04 1.08390886e-04 4.88780552e-06 3.82994040e-04
      2.30248741e-04 5.23629482e-04 -7.02687714e-04 -5.92705386e-04
      9.39145742e-04 7.33400462e-04 1.87528829e-04 1.09038207e-04
      -1.66252528e-06 1.98506168e-04 -1.58105613e-04 4.32179833e-04
      -4.12872701e-04 7.32508415e-05 6.96854317e-04 6.38072612e-04
      1.24509490e-04 4.56291527e-05 -2.60332963e-05 -2.14394197e-04
      -3.84259940e-04 -6.70595560e-04 -2.77076761e-04 1.90425955e-04
      -2.42679642e-04 3.22489141e-05 -1.45611659e-04 -7.40039395e-05</_>
    <_>
      -8.22866411e-07 1.58212103e-07 1.98881708e-07 1.51766881e-06
      7.80719290e-07 3.31949423e-06 2.63191691e-06 2.29673174e-06
      -2.05482979e-06 -2.30802630e-06 -2.69556244e-06 -2.04148387e-06
      -1.59580247e-06 -1.36213305e-06 -1.20840002e-06 -3.26346203e-08
      1.42906322e-06 7.50296692e-07 5.86055592e-07 9.26151131e-07
      3.67822935e-07 -7.18037427e-07 5.38827692e-07 -6.22637458e-07
      -6.74241107e-07 -2.14654207e-07 1.01589057e-08 4.43000800e-07
      -1.52484790e-06 -3.39514230e-07 -9.46463615e-07 -5.67447557e-07
      4.97411577e-07 -4.23447602e-07 -9.19937690e-08 -5.10063785e-07
      -4.30096122e-07 -3.38529446e-07 1.02740137e-06 2.43513284e-07
      2.21520807e-07 3.80315282e-06 7.58474707e-05 4.95442655e-04
      6.44406013e-04 -2.07775884e-04 -6.13092037e-04 -1.55504371e-04
      4.47584571e-05 6.88562359e-05 3.72718455e-06 1.54924841e-04
      1.69551931e-04 3.02569824e-04 4.95391665e-04 -1.27027626e-04
      1.16709598e-04 -2.82835186e-04 -4.55340296e-06 6.79413206e-05
      1.19884999e-06 3.28133319e-04 7.21366203e-04 1.04606221e-03
      -1.06785272e-03 -1.21720787e-03 2.03269083e-04 -1.65102567e-04
      3.92284528e-05 6.38430429e-05 8.45309899e-07 3.44136701e-04
      6.91291352e-04 9.76122101e-04 -1.10808806e-03 -1.52193976e-03
      -4.91096689e-05 -3.83344566e-04 3.58573889e-05 6.62120146e-05
      4.69609950e-05 3.41913605e-04 8.47315474e-04 1.04423845e-03
      -6.23912551e-04 -1.34475890e-03 -1.53137153e-04 3.68499634e-04
      3.12701522e-05 6.61251834e-05 1.23579239e-05 3.39084945e-04
      9.50168527e-04 1.29943353e-03 -5.57346153e-04 -8.08672048e-04
      -2.94088066e-04 8.98982762e-05 -1.35831069e-05 6.88025757e-05
      -4.49964000e-06 3.26448790e-04 7.28244602e-04 1.03851256e-03
      -8.03235889e-05 -3.20048915e-04 -2.47509190e-04 -1.98743714e-04
      1.05524639e-04 6.82519094e-05 7.86420969e-06 3.52510455e-04
      3.76729207e-04 6.55844691e-04 -8.27272161e-05 -4.74916247e-04
      -3.57720768e-04 -3.29641043e-04 2.81924935e-04 6.79789737e-05
      6.64596473e-06 4.22363606e-04 -2.25856347e-05 3.45477514e-04
      8.08695913e-05 1.44122068e-05 -3.14128440e-04 -6.01916516e-04
      2.95347651e-04 6.92217436e-05 1.58545811e-06 1.82732940e-04
      -1.10641988e-04 -2.60090834e-04 9.04633198e-04 1.37994095e-04
      1.18325501e-04 -2.09900478e-04 2.23614697e-04 5.92820907e-05</_>
    <_>
      -1.34458617e-07 1.03470825e-06 -6.23562016e-07 3.36865327e-07
      -7.82328655e-08 2.96285430e-06 2.71150816e-06 1.18305263e-06
      -3.69909515e-07 -1.51553297e-06 -1.27384158e-06 -2.30984165e-06
      -1.28938950e-06 -7.69173766e-07 7.00908799e-07 -2.03875032e-07
      -1.93768841e-08 2.97465675e-07 -1.42661975e-07 -7.51888720e-08
      2.42755641e-06 2.99496287e-06 2.58822865e-06 2.30574165e-06
      2.23521624e-06 1.51769859e-06 9.13258191e-07 2.36019150e-06
      -1.23790286e-07 2.57898705e-07 -6.21327843e-07 6.51054734e-07
      -3.57195631e-07 -1.71591728e-06 -6.66192932e-07 -1.14866862e-06
      1.35829259e-06 2.57524539e-06 2.19721869e-06 3.42296107e-06
      8.48423133e-06 2.75630882e-05 2.11148159e-04 4.98615904e-04
      5.75715210e-04 2.74044869e-04 -6.93033740e-04 -8.91875607e-05
      6.72650131e-05 4.61784693e-05 5.56593295e-06 5.08278972e-05
      5.76563354e-04 6.57410361e-04 3.81549413e-04 4.62529533e-05
      1.61928459e-04 -1.23958143e-05 2.08454603e-05 4.56446214e-05
      5.91611570e-06 4.46213708e-05 7.55838118e-04 8.47088231e-04
      -5.39248984e-04 -9.01965308e-04 1.18320080e-04 1.15938463e-04
      5.82995381e-05 4.64494478e-05 3.75478930e-06 6.75294577e-05
      6.79698540e-04 5.54156723e-04 -8.80203967e-04 -1.03572651e-03
      -4.71935491e-05 1.66883619e-04 6.81945021e-05 5.76805542e-05
      3.10247597e-05 6.67576387e-05 2.01644842e-04 6.42579573e-04
      -6.75082090e-04 -4.91491111e-04 -4.99701477e-04 2.44289287e-04
      6.32074516e-05 4.89711274e-05 8.18439275e-06 -1.49188956e-04
      -1.16590709e-04 5.69759228e-04 -2.08579862e-04 1.92703574e-05
      -5.75859623e-04 2.42293419e-04 6.16243997e-05 4.41407647e-05
      7.66597714e-06 -5.54128841e-04 -5.14635467e-04 -5.36830921e-04
      -6.66620559e-04 -9.13451542e-04 -4.56285372e-04 -2.88322306e-04
      -2.57191987e-05 4.36214868e-05 7.00808505e-06 -6.47100460e-05
      -4.74176341e-04 1.49063817e-05 -4.11262008e-04 -1.34717952e-03
      -5.49268327e-04 -2.33085026e-04 1.51912782e-05 4.38884126e-05
      -6.20855417e-07 1.68520637e-04 -7.99787358e-06 9.78995813e-04
      5.03634510e-04 -7.07664061e-04 -3.63733707e-04 9.24946071e-05
      1.50285152e-04 4.64449331e-05 4.21410869e-06 8.36650506e-05
      -7.50501204e-05 3.14604986e-04 1.46730384e-03 4.29980661e-04
      -4.62942000e-04 -9.96185190e-05 1.16650852e-04 4.00386962e-05</_>
    <_>
      -3.37171014e-06 -5.01596048e-07 -5.23772633e-06 7.33374861e-07
      -4.43462523e-06 -7.41706742e-07 -9.66531502e-07 -3.09564075e-06
      -5.20932826e-06 -5.37155665e-06 -6.09481867e-06 -3.22891810e-06
      -2.04475737e-06 -3.12838188e-06 -1.94424661e-06 -1.79287952e-06
      2.86870659e-06 1.88771992e-06 2.92114896e-06 2.95977861e-06
      2.34325412e-07 -8.76626757e-07 3.68788642e-06 -2.66254960e-06
      1.73848764e-06 -8.25432494e-07 -8.60110902e-07 2.86080626e-06
      -3.77047127e-06 -1.09130212e-06 -1.71197712e-06 -6.31119008e-07
      -2.79170922e-06 -4.07642210e-06 -2.12147575e-06 -5.55573524e-06
      3.12882275e-06 4.10294751e-06 4.18888021e-06 4.42764804e-06
      6.79967525e-06 -2.10833226e-04 -1.77511072e-03 -2.70686287e-04
      1.08810933e-03 8.53242527e-04 7.55414367e-04 -1.32976929e-04
      3.91090958e-04 3.89139663e-04 6.99054965e-07 -1.45090118e-04
      -8.72147444e-04 -9.95903625e-04 -1.50816646e-04 -9.26512439e-05
      2.02692067e-03 9.17533063e-04 2.97754683e-04 3.81016202e-04
      2.39032888e-05 1.62373501e-04 -1.06650766e-03 -7.62653537e-04
      -1.81006407e-03 -1.26033952e-03 2.09096260e-03 1.65647909e-03
      2.39051791e-04 3.71504895e-04 2.22637900e-05 1.53626592e-04
      6.89838489e-04 -4.27255523e-04 -1.02798454e-03 -5.47528674e-04
      2.10463535e-03 6.92825590e-04 2.40242443e-04 3.77798802e-04
      2.50074605e-04 1.72059692e-04 1.01947051e-03 8.63973546e-05
      -2.56054732e-03 -1.67730008e-03 1.91971994e-04 7.31969776e-05
      7.96507884e-05 3.85409629e-04 7.52338092e-05 3.33212985e-04
      1.03343558e-03 1.72047550e-03 -9.17530910e-04 -3.43477848e-04
      -1.26856752e-03 -1.64191024e-05 -1.99668400e-04 3.89654393e-04
      -2.08329602e-05 3.60391859e-04 -3.64764237e-05 1.60574750e-03
      2.04897078e-04 -1.34651855e-04 -1.08773413e-03 -1.32203917e-03
      2.98399187e-04 3.88731278e-04 -1.99256137e-05 8.46268202e-04
      2.05530901e-04 1.07834954e-03 5.77952131e-04 -6.93402777e-04
      -5.32654405e-04 -1.86383724e-03 7.85069016e-04 3.91927577e-04
      -6.57781902e-06 1.05815521e-03 9.77880787e-04 4.82365460e-04
      -3.30115785e-04 -3.13869619e-04 -8.75056023e-04 -5.79516927e-04
      1.06189970e-03 3.91626323e-04 9.78238768e-06 4.84209595e-04
      -1.21734171e-04 -7.96866312e-04 9.14339558e-04 2.97918305e-04
      -2.55642203e-06 -1.07254236e-05 1.00837171e-03 3.31407005e-04</_>
    <_>
      -2.34042795e-06 -4.00881142e-08 -2.66809161e-06 6.49733778e-08
      -3.29854902e-06 2.31971694e-06 2.41609314e-07 -2.21233859e-06
      -2.73371393e-06 -3.83480483e-06 -3.26479585e-06 -2.12512418e-06
      -6.07738059e-07 5.58906720e-07 9.41519147e-07 -9.07827712e-07
      2.25410167e-06 1.91493041e-06 1.93419328e-06 2.48539527e-06
      4.89326794e-07 1.80063785e-06 3.17643116e-06 2.37090489e-06
      1.37007839e-06 1.38301982e-06 5.20245692e-07 3.66866743e-06
      -2.60860293e-06 -1.75393052e-06 -2.41742009e-06 -1.42677584e-06
      -1.79876770e-06 -2.46005493e-06 2.08121307e-07 -2.69010206e-06
      2.59850196e-07 3.93359102e-07 1.68586325e-06 2.28509043e-06
      -6.32563160e-06 1.12779742e-06 3.83388870e-05 6.51068578e-04
      3.76599928e-04 1.23511988e-03 7.90346938e-04 1.90677223e-04
      4.23471385e-04 2.44697119e-04 4.65231324e-06 6.54793766e-05
      6.71494170e-04 7.06768653e-04 4.54396155e-04 7.04893435e-04
      1.89726148e-03 5.04471769e-04 2.36048974e-04 2.42508235e-04
      5.09313668e-06 8.51873119e-05 4.05631115e-04 1.00110774e-03
      -5.73415775e-04 -6.64915307e-04 1.87714177e-03 8.29650846e-04
      1.97932415e-04 2.36427979e-04 4.29391912e-06 7.50029722e-05
      2.18847126e-04 -2.91731667e-05 -1.24138256e-03 -1.41675747e-03
      1.28195179e-03 1.03131332e-03 1.64349360e-04 2.39564266e-04
      1.53977613e-04 -1.79928757e-04 1.28317319e-04 -6.89907698e-04
      -1.86354353e-03 -1.56301388e-03 -1.06933730e-04 8.70840042e-04
      1.73563138e-04 2.43242073e-04 4.59899456e-05 -2.78607622e-04
      -6.06282440e-04 -3.07625683e-04 -1.35814410e-03 -1.23800489e-03
      -7.67314283e-04 2.00323120e-04 -8.26825708e-05 2.48306314e-04
      -9.66316948e-05 -2.64486705e-04 -1.04775990e-03 4.62316995e-04
      5.81304310e-04 1.14061520e-04 -6.19575658e-05 -2.43089016e-04
      -1.48111634e-04 2.44466879e-04 -1.10529771e-04 1.45790691e-04
      -4.26278420e-04 3.91281908e-04 8.65051232e-04 -3.16878082e-04
      -1.76576486e-05 -7.26447382e-04 1.63181816e-04 2.47595744e-04
      -7.50998106e-06 4.70586325e-04 -5.22793271e-05 -4.00695630e-04
      2.32437014e-04 -3.87147360e-04 -1.36682036e-04 -1.27393083e-04
      3.78226046e-04 2.46574520e-04 5.69303256e-06 1.98930997e-04
      -1.67115766e-04 -9.78891738e-04 5.51978592e-05 -4.20333963e-04
      5.09296719e-04 -4.83819967e-05 6.39645208e-04 2.09658916e-04</_>
    <_>
      2.16534227e-06 4.14959970e-07 2.20454027e-07 9.94931838e-07
      2.75051457e-06 4.93401330e-06 4.77033154e-06 4.75885736e-06
      -2.58087107e-06 -1.39338692e-06 -2.27080341e-06 -2.55564237e-06
      4.00578671e-07 -1.12981775e-06 6.45211799e-07 -3.30280272e-07
      5.09393999e-07 5.99351679e-08 3.12435674e-07 4.76656140e-07
      -6.83366807e-07 -2.03789955e-06 1.05042113e-06 -1.51668462e-06
      7.07157852e-08 -3.91394622e-07 -2.37329900e-07 -3.56376773e-07
      6.66571111e-07 1.78015955e-06 6.12431734e-07 7.60311877e-07
      1.59007891e-06 7.04228853e-07 4.96024370e-07 7.13070676e-07
      1.87553633e-06 2.86005070e-06 1.67520227e-06 1.21129563e-06
      -6.74518060e-06 -1.83960889e-04 -4.82749369e-04 -3.56213306e-04
      -3.40910716e-04 1.81945288e-04 6.94812916e-05 -8.71064258e-05
      3.22690699e-04 1.26662329e-04 -3.67611233e-06 -2.63197580e-04
      5.97845537e-05 1.00841047e-03 -2.92841054e-04 2.31265149e-04
      -1.74818269e-04 -3.51036637e-04 8.01651622e-05 1.23159683e-04
      -2.04352145e-05 -9.91827765e-05 2.30408565e-04 1.21287687e-03
      -5.30779362e-04 -7.46083912e-04 -3.82038736e-04 -2.88314710e-04
      -3.74810566e-04 1.16604431e-04 -8.22412840e-05 -2.30290956e-04
      3.58740654e-04 9.37373552e-04 -6.58509787e-04 -9.74463939e-04
      -3.57012381e-04 -9.40430327e-05 -1.96263733e-04 1.22945843e-04
      9.95926894e-06 -2.26540447e-04 5.12181781e-04 6.79504068e-04
      -6.40110404e-04 -1.04562356e-03 -2.99033010e-04 2.69644166e-04
      9.63225757e-05 1.26228391e-04 -4.79889204e-05 -2.27572658e-04
      3.51261580e-04 6.64571358e-04 -6.70516281e-04 -1.11022696e-03
      3.05659269e-05 9.90100438e-04 1.37442607e-04 1.27635547e-04
      -7.67015663e-05 -2.31786427e-04 -1.62722699e-06 6.32372103e-04
      -6.76651543e-04 -1.01912557e-03 4.67484904e-04 8.87264556e-04
      1.27468607e-04 1.27077175e-04 1.05485968e-04 1.06670734e-04
      2.48200726e-04 4.94342588e-04 -4.17679141e-04 -8.28817429e-04
      6.65350643e-04 5.22368471e-04 -2.49679906e-05 1.24855345e-04
      8.24811505e-05 2.43265837e-04 3.57217417e-04 9.72591923e-04
      4.67299891e-04 7.77388559e-05 3.91224079e-04 -1.82337710e-04
      4.79221762e-06 1.29832813e-04 -3.52867464e-05 -1.49445346e-04
      9.29206508e-05 5.19249996e-04 1.53033284e-03 3.68685141e-04
      -2.12804254e-04 3.33355303e-04 2.76762003e-04 1.08420114e-04</_>
    <_>
      -5.34981336e-06 -4.36384227e-08 -8.20088917e-06 -4.27759187e-06
      -8.31695525e-06 5.18744037e-06 -2.10836947e-06 -2.39318979e-06
      -7.72831663e-06 -4.24569680e-06 -1.11843678e-06 3.02344404e-07
      -1.87912201e-06 -3.26506620e-06 -2.32371053e-06 -5.88317516e-06
      1.10485769e-06 -5.05080266e-07 1.42166925e-07 -6.56483451e-07
      1.46970979e-06 3.74995261e-06 6.85580153e-06 -3.46112824e-06
      2.16330909e-06 2.28884937e-06 -2.29340458e-06 7.47970660e-07
      -6.01089005e-06 -1.04105820e-05 -8.50464403e-06 -5.31668866e-06
      -3.51700669e-06 -7.96769200e-06 -3.43809756e-06 -1.14851246e-05
      -7.09087772e-07 3.50222081e-06 2.81123971e-06 1.11011168e-05
      9.99521944e-06 2.94700531e-05 -2.12715284e-04 -8.42038426e-04
      -2.49542849e-04 1.21901173e-03 6.02591259e-04 -3.47099995e-04
      2.36447435e-04 1.57355214e-04 8.05806030e-06 -7.75753288e-05
      4.48635867e-04 -9.13722906e-04 7.59768358e-04 7.69266509e-04
      4.09231550e-04 -2.47566146e-04 2.67361756e-04 1.51789369e-04
      1.44235491e-05 -5.32842605e-05 -2.61390960e-05 7.97923538e-04
      -1.04037218e-03 -4.42119199e-04 -1.08882471e-03 -2.73415440e-04
      6.24899549e-05 1.44474689e-04 1.72995192e-06 -5.89473930e-05
      9.30848299e-04 -3.39832404e-05 -1.15150365e-03 -1.05800794e-03
      -1.53467921e-03 9.92650894e-05 1.11002235e-04 1.52835681e-04
      7.45183061e-05 8.53974198e-05 1.06355967e-03 -7.39511670e-05
      -4.64739185e-03 -3.64118535e-03 -1.37285853e-03 7.00527977e-04
      1.72452012e-04 1.44619480e-04 1.54553290e-05 -8.47319607e-05
      2.30521022e-04 -3.44825662e-06 -4.73861955e-03 -1.97469559e-03
      -7.42204022e-04 1.72694214e-04 1.02521772e-04 1.48235151e-04
      -3.48345748e-05 -3.86052998e-04 -6.66074920e-04 4.82945645e-04
      9.68398235e-04 2.08454044e-03 5.45426083e-05 -1.50427094e-03
      -8.14080340e-05 1.53656147e-04 8.59207648e-05 -9.96741117e-04
      -2.07912788e-04 1.02821803e-04 1.25072524e-03 4.62242169e-04
      -7.52290507e-05 -7.48727238e-04 -2.38155495e-04 1.47340310e-04
      1.19037366e-04 -6.31155635e-05 2.93761201e-04 1.20623689e-03
      1.71038759e-04 1.31618450e-04 -4.15940332e-04 -6.34656579e-04
      1.85230878e-04 1.54923066e-04 -5.14509338e-06 2.10400933e-04
      -3.86226602e-04 -4.65751073e-04 7.05577200e-04 7.65716832e-04
      1.60112430e-03 3.20175983e-04 1.91974104e-04 1.33857771e-04</_>
    <_>
      -9.07555346e-08 -5.94559992e-07 -5.20894389e-07 -6.42530210e-07
      -6.78795175e-07 2.94372148e-06 1.63078175e-06 1.70140083e-06
      -2.48464789e-06 -3.44197883e-06 -2.41038924e-06 -1.30645492e-06
      -6.22395191e-07 -1.16595550e-06 -1.71501654e-06 -1.89956859e-06
      -4.78510572e-07 -8.53205563e-07 -6.18488002e-07 5.28901012e-07
      1.00164399e-07 8.33794957e-07 1.08605423e-06 -1.40353870e-06
      -1.19031188e-06 -1.18656907e-08 -1.67719872e-06 1.14158134e-07
      -1.18868991e-06 -1.65101335e-06 -7.81343658e-07 -1.34743300e-06
      -1.58359370e-07 -4.69863267e-07 2.05363563e-07 5.18791467e-07
      2.05162610e-06 3.10248652e-06 2.38964026e-06 3.65203755e-06
      9.00958366e-06 -2.79527332e-04 -1.72288972e-04 -1.61446296e-04
      -1.04302177e-04 -2.09486025e-04 -1.33713684e-05 7.74042201e-05
      -2.60142078e-05 1.57904833e-05 -3.72533796e-05 -2.93782650e-04
      -1.03576167e-04 1.37138108e-04 4.25258941e-06 1.28018160e-04
      -4.78508155e-04 -2.94221263e-05 -9.46395812e-05 1.44739543e-05
      -7.30676402e-05 -2.02017545e-04 -2.73796439e-04 -6.90137458e-05
      -4.15251503e-04 -3.75987875e-04 -3.87974287e-05 -4.68429120e-04
      -3.54481017e-04 1.16512019e-05 -3.40416409e-05 -1.65912337e-04
      -3.22316075e-04 3.68907029e-04 -4.90061357e-04 -1.16294599e-04
      -4.31164430e-04 -6.06649031e-04 -3.89430468e-04 1.42282433e-05
      6.24659442e-05 2.26427190e-04 -1.31553577e-04 1.11513364e-04
      -1.16281153e-03 -8.10774975e-04 -5.78448176e-04 -5.84225578e-04
      -4.14271199e-04 1.35185483e-05 1.60159925e-05 3.73825402e-04
      3.71846283e-04 3.36323254e-04 -1.84182206e-03 -1.92898780e-03
      -7.38919713e-04 -2.66370917e-04 -2.67358584e-04 1.86873367e-05
      -3.53942823e-06 5.20288944e-04 6.84195140e-04 8.38402077e-04
      -7.64372642e-04 -1.44918042e-03 -2.46900308e-04 -8.39949425e-05
      -2.59701774e-04 1.56052301e-05 1.36021015e-04 5.75465499e-04
      5.72101271e-04 1.24171644e-03 -2.24893840e-04 -1.53466733e-03
      3.63998901e-04 6.31960429e-05 -2.02261435e-04 1.54971603e-05
      9.96387316e-05 1.13866648e-04 1.29063279e-04 1.60542806e-03
      2.43478891e-04 -1.48388121e-04 8.62705347e-04 6.02297296e-05
      -1.47102983e-04 1.55518464e-05 3.41943723e-06 1.65110293e-06
      3.98355216e-04 5.55878913e-04 3.18434293e-04 1.06488308e-03
      4.89248894e-04 5.55499573e-05 -1.84919598e-04 1.93828419e-06</_>
    <_>
      5.14011276e-07 4.73342169e-07 2.73572851e-07 4.49381616e-07
      6.31434716e-07 1.64110406e-06 1.42487511e-06 1.16417561e-06
      -1.08820700e-06 -7.59701777e-07 -1.60908019e-06 -9.56473400e-07
      6.85316834e-08 2.83138206e-07 6.01252623e-07 4.84604755e-07
      1.06650350e-06 1.22103233e-06 1.04823982e-06 1.33435617e-06
      -9.01441126e-07 -2.73147094e-07 2.20503921e-07 -1.06782011e-06
      -2.23010176e-07 -8.09732171e-07 -1.17220998e-06 -1.30033342e-07
      6.90499462e-07 2.22441358e-07 9.13853285e-07 5.34045022e-08
      7.88882517e-07 6.01996542e-09 7.06613378e-07 4.65816186e-08
      8.22380855e-07 4.01489388e-07 7.09425251e-07 7.30286274e-07
      -1.89498996e-06 -1.14518800e-04 -3.00927786e-04 -2.19851499e-04
      5.79663727e-04 2.89482006e-04 1.29186228e-04 -1.39995507e-04
      2.21770460e-04 1.61085103e-04 -5.30474097e-07 -6.04741672e-07
      -2.35304571e-04 -5.27624507e-05 7.32644636e-04 1.52338005e-04
      5.26491822e-05 -1.13044305e-04 3.38688878e-05 1.59179443e-04
      2.65743324e-06 5.58207394e-05 1.48042789e-04 4.86261415e-04
      -5.14605199e-04 -5.04991389e-04 8.81084270e-05 9.35381686e-05
      1.71021147e-05 1.54236375e-04 -5.36034236e-07 5.78783875e-05
      3.27574555e-04 4.97179630e-04 -7.20761542e-04 -7.02842604e-04
      1.51940636e-04 2.20465736e-04 1.79154540e-05 1.56117894e-04
      1.11987538e-04 6.38584315e-05 3.70057242e-04 7.06221792e-04
      -6.06923015e-04 -5.30055666e-04 3.13875120e-04 2.94497848e-04
      3.36899502e-05 1.59946241e-04 3.47971145e-05 6.02197688e-05
      2.93286605e-04 6.09606388e-04 -6.07828377e-04 -4.98815964e-04
      2.71425553e-04 3.95980169e-04 4.93527623e-05 1.63043049e-04
      -9.37905099e-07 5.95760357e-05 2.06747340e-04 3.51115741e-04
      -5.83431916e-04 -8.12789425e-04 1.54519032e-04 3.08830640e-04
      1.70504092e-04 1.61822201e-04 2.58256860e-05 2.16585438e-04
      2.25529671e-04 2.46239448e-04 -3.47887515e-04 -7.25856284e-04
      2.26285865e-05 1.18420634e-04 3.03607783e-04 1.62760189e-04
      2.39496840e-05 2.69320182e-04 3.24829052e-05 3.14532866e-04
      2.22683462e-04 -4.75989145e-05 -1.09571702e-05 1.01202153e-04
      3.71443050e-04 1.61579112e-04 2.65758536e-06 9.21495957e-05
      -1.31667330e-04 1.40433418e-04 4.31489258e-04 3.35873745e-04
      8.32773803e-05 1.34285801e-04 2.41758040e-04 1.38900708e-04</_>
    <_>
      -3.43689089e-06 -3.45160493e-06 -2.07693893e-06 -2.68073563e-06
      -4.27343912e-06 -6.78857532e-06 -1.34132665e-06 -4.27543182e-06
      -2.33399533e-06 -4.77513481e-07 -2.36745927e-06 -2.10530970e-06
      -1.46637456e-06 -6.07853690e-06 -2.34884851e-06 -2.25366148e-06
      -8.45600653e-07 -7.98622864e-07 -6.57689384e-07 -6.57689384e-07
      -5.91831395e-07 2.69639418e-06 1.63746336e-06 -2.64565574e-06
      8.57585064e-07 7.88234445e-07 1.59702893e-06 -6.89209742e-07
      -1.82868700e-06 -9.50939295e-07 -2.92273467e-06 -1.65474387e-06
      -1.33698347e-06 -2.33594824e-06 -3.72992531e-06 -1.73171725e-06
      -6.13766042e-06 -3.72547174e-06 -5.44659497e-06 -4.89483818e-06
      5.54233736e-07 1.97245004e-06 -3.07899812e-04 -6.53206895e-04
      -1.17476843e-03 -3.54676187e-04 3.84836632e-04 4.04798950e-04
      -2.39586851e-04 -1.25900537e-04 -3.19382275e-06 -4.74201124e-06
      -9.06230183e-04 -1.69903913e-03 7.09193118e-04 4.69422928e-04
      -9.67483327e-04 -4.89303842e-04 -2.39586851e-04 -1.25900537e-04
      -6.40769213e-06 -1.94303925e-06 -6.60682388e-04 -4.62841330e-04
      1.11464644e-03 1.56587560e-03 -1.19114551e-03 -9.32987256e-04
      -2.39586851e-04 -1.25900537e-04 1.18887820e-05 -7.13780901e-06
      -3.17991304e-04 7.72390165e-04 1.46210135e-03 1.18218188e-03
      -1.40629581e-03 -7.26133760e-04 -2.39586851e-04 -1.25900537e-04
      -5.67862162e-06 -7.58968372e-06 -8.95442099e-06 8.15489911e-04
      1.11250975e-03 8.22963193e-05 -4.03269922e-04 -5.31576457e-04
      -2.38647292e-04 -1.25900537e-04 -7.07530853e-06 -1.50458536e-05
      -8.72022065e-06 4.92383435e-04 -1.26417683e-04 -2.68673175e-04
      3.08786170e-04 -3.84730287e-04 -9.39556267e-05 0. -1.41062974e-05
      -8.95442099e-06 -2.63014896e-04 2.54484999e-04 -9.88949789e-04
      3.13095603e-04 7.15149858e-04 -1.41451092e-04 -1.69120140e-05
      -9.39556287e-07 -1.29950495e-05 -3.98536577e-06 -4.08971944e-04
      -1.32457775e-04 -9.15535318e-04 8.86332127e-04 5.28733653e-04
      -2.18992773e-05 -1.87911257e-06 0. -1.59553874e-05 -7.65850345e-05
      -3.81435646e-04 -9.65110899e-04 -1.11899094e-03 3.82164726e-05
      3.01031891e-04 5.83914807e-05 -9.01974054e-05 -4.69778133e-05
      -2.91266933e-05 -2.24536881e-04 -4.14462207e-04 -6.97885873e-04
      -1.25617418e-03 -6.57786499e-04 -1.26252708e-04 3.00855376e-04
      -2.39586851e-04 -1.24960992e-04</_>
    <_>
      -9.60605576e-06 -8.85091049e-06 -8.26624728e-06 -8.72557575e-06
      -1.24464132e-05 -8.03001421e-06 -7.12027668e-06 -7.20781145e-06
      -3.92367201e-06 -3.01822524e-07 -6.81240806e-08 -1.60071875e-06
      -4.92777281e-06 -7.75476292e-06 -7.03966134e-06 6.84932729e-07 0.
      0. 0. 0. 3.81298742e-06 1.87777493e-06 2.90629191e-06
      1.24419603e-06 2.85048054e-06 -2.11835572e-06 2.27362170e-06
      3.25743167e-06 -1.47001424e-06 -2.41080079e-06 -1.10982467e-06
      -5.85671387e-07 -1.25425615e-07 -3.36705421e-06 -1.11065890e-06
      -2.59102990e-06 2.31259037e-06 1.01024602e-06 -4.89202193e-07
      2.61806235e-06 -2.32513048e-05 -6.66670712e-06 -8.42642039e-04
      -1.62409549e-03 -2.84340145e-04 1.59367541e-04 1.22868791e-04
      -1.14730348e-04 0. 0. -2.88311512e-05 1.59397234e-06
      -5.10584854e-04 9.65626386e-04 2.32482632e-03 5.96712925e-04
      -7.94629217e-04 -1.18562719e-04 0. 0. -1.31181414e-05
      -3.09275783e-05 -5.45349321e-04 1.37545902e-03 3.59220663e-04
      -8.25808733e-04 1.05467821e-04 -6.07992057e-04 0. 0.
      -1.68365784e-06 -1.62468914e-05 -1.23195373e-03 5.52146812e-04
      -1.33282249e-03 -1.30344334e-03 2.77633924e-04 -1.02986197e-03 0.
      0. -2.67149662e-05 -2.25816329e-05 -1.15560682e-03 1.25129693e-04
      -5.79022511e-04 -1.48126801e-05 1.14471838e-03 -8.07244971e-04 0.
      0. -2.21456157e-05 -4.63786782e-05 -6.94347953e-04 6.01956213e-04
      2.99461681e-04 -5.17997018e-04 -1.15674676e-03 -1.02366682e-03 0.
      0. -2.69615412e-05 -1.33724097e-05 -1.16045796e-03 -1.92533789e-05
      1.41842128e-03 2.30087014e-03 -2.84412084e-03 -8.91626813e-04 0.
      0. -1.34796173e-05 -3.77454999e-05 -9.31101444e-04 -3.58234160e-04
      1.12605456e-03 1.43954181e-03 -1.67931733e-03 -5.19643712e-04 0.
      0. -5.09685833e-06 -1.89458187e-05 -1.71795196e-03 -1.81221147e-03
      2.08105281e-04 1.79030595e-03 -1.65606602e-04 -1.75202353e-04 0.
      0. -1.60490672e-05 -1.71843421e-05 -9.09602735e-04 -3.57982120e-04
      -6.14123011e-04 -8.51549208e-04 1.60472374e-03 3.19128048e-06 0.
      0.</_>
    <_>
      -5.10669224e-06 -4.94328742e-06 -7.81028211e-06 -6.70784493e-06
      -6.18595777e-06 -3.18589173e-06 -2.84852513e-06 -4.83165832e-06
      -1.92837589e-07 1.35830976e-06 4.22469293e-06 -1.76802121e-06
      -2.05640572e-06 1.37439963e-06 -3.52580059e-07 -3.03821730e-06
      -3.35920191e-07 -1.11973392e-07 -2.23946785e-07 -2.23946785e-07
      1.04216042e-05 1.41193568e-05 7.74991440e-06 1.48397166e-05
      6.84676434e-06 7.85468728e-06 6.96291681e-06 1.22223310e-05
      8.48168042e-07 4.67705831e-06 -3.09540837e-06 4.74876231e-07
      2.19287176e-06 -2.19535224e-07 -3.03522688e-06 -2.95785389e-06
      -3.72599629e-06 7.70820009e-07 -8.02997420e-07 6.61006743e-06
      6.43469502e-06 -1.32569303e-05 1.44899590e-04 1.08288741e-03
      1.16722146e-03 4.90525039e-04 5.81067696e-04 -4.45444821e-05 0. 0.
      -5.80834558e-06 3.95362349e-06 2.23635958e-04 1.02681387e-03
      2.39212345e-03 -4.08247752e-06 -2.28463650e-05 -9.51020629e-05 0.
      0. -1.05179333e-05 6.67013410e-07 3.16426813e-05 8.57283943e-04
      -1.36865972e-04 -2.34276429e-03 -3.61178274e-04 -1.03161387e-04 0.
      0. 1.74410832e-06 7.93162235e-06 -2.83536530e-04 -9.38014418e-04
      -5.44812123e-04 -1.66139542e-03 -4.83240292e-04 -5.68505748e-05 0.
      0. -1.16179554e-05 -8.38372507e-05 -1.26674329e-03 -4.28719184e-04
      -4.70511557e-04 1.12112879e-03 -4.71803272e-04 -9.16815916e-05 0.
      -1.11973395e-06 -2.22404760e-05 -4.57748916e-04 -1.85474404e-03
      -3.80338286e-04 -1.30114274e-03 1.51593797e-03 -4.22448036e-04
      -5.55426406e-04 -2.23946790e-06 0. -5.13331252e-05 -6.80966768e-04
      -1.45092979e-03 -1.98044349e-03 -5.46853873e-04 1.71365612e-03
      -3.76722630e-04 -1.09820405e-03 -2.35144125e-05 -1.11973395e-06
      -3.14940226e-05 -3.51331168e-04 -4.54271736e-04 -2.64106924e-03
      4.08838350e-05 -3.08415911e-04 -2.79457425e-03 -3.74836120e-04
      -1.11973395e-05 -1.11973395e-06 -2.34316303e-05 -2.34316303e-05
      1.11840185e-04 -1.37812912e-03 6.68572029e-04 -7.33384572e-04
      -4.63638396e-04 9.61937403e-05 0. 0. -4.30619948e-05
      -4.45611149e-05 1.17789212e-04 1.31688104e-03 2.92435288e-03
      5.06974990e-04 1.12602531e-04 -3.08736431e-04 0. 0.</_>
    <_>
      -4.68517283e-06 -4.54780638e-06 -4.25119561e-06 -4.63707420e-06
      -6.74123248e-06 -6.48138212e-06 -6.58584713e-06 -5.38725726e-06
      -3.41193959e-06 -6.68759469e-07 6.14605028e-07 -1.78813173e-06
      -4.51586493e-06 -4.69854967e-06 -2.40400936e-06 -2.85944020e-06
      -5.90674233e-07 -2.95337117e-07 -2.95337117e-07 -5.90674233e-07
      1.59297770e-06 2.32585353e-06 3.67183702e-06 2.88353658e-06
      3.65865344e-06 3.44045179e-06 3.77065112e-06 2.27520491e-06
      -3.24614598e-06 -1.67315852e-06 -3.31271895e-06 -2.24239739e-06
      -2.80646714e-06 -1.30240892e-06 -2.20649395e-06 -3.74545493e-06
      -3.83812994e-06 -2.35772859e-06 -2.78480206e-06 -4.94091000e-06
      -4.43900672e-06 -1.41233293e-04 -5.14106301e-04 -4.31150984e-04
      -4.88649122e-04 5.85706075e-05 3.12775490e-04 -8.13393563e-04
      -1.25518272e-04 0. 2.39166752e-06 -3.81573627e-05 -5.58121479e-04
      -8.94852739e-04 8.11187027e-04 3.56189528e-04 4.22095472e-04
      -5.03065879e-04 0. -2.51036545e-06 6.26082556e-06 4.27146944e-07
      -1.05698535e-03 -5.87384216e-04 7.95947912e-04 8.89547868e-04
      4.35638387e-04 -3.25235829e-04 -2.51036545e-06 -5.02073090e-06
      1.31883880e-05 6.83396365e-06 -5.55986830e-04 -1.24036509e-03
      3.47442401e-04 5.39122091e-04 1.00941630e-03 -1.67668608e-04
      -2.51036545e-06 -2.51036545e-06 -1.25449351e-05 -1.32787854e-05
      -6.85854466e-04 -1.60233455e-03 -5.13601641e-04 2.63464695e-04
      -2.07001111e-04 -3.74772586e-04 0. 0. -1.48798645e-05
      -1.77766997e-05 -4.37750452e-04 -1.66457947e-04 5.45359217e-04
      -6.68918028e-06 -1.36156892e-03 -7.15286762e-04 0. 0.
      -1.84947457e-05 -1.75204659e-05 -3.82652943e-04 1.44651014e-04
      1.07909017e-03 1.89535116e-04 -1.44294731e-03 -1.30486384e-03 0.
      0. -1.51573049e-05 -3.46412038e-04 -4.75899811e-04 -5.48556331e-04
      1.50940625e-03 9.04127315e-04 -1.02370640e-03 -1.61596981e-03 0.
      0. -8.19020443e-06 -5.32018021e-04 -5.37842978e-04 -6.27240050e-04
      -3.08872521e-04 -4.34432761e-04 -1.05944439e-03 -8.82399734e-04 0.
      0. -1.22887923e-05 -2.16024724e-04 -6.89067354e-04 -2.37534055e-04
      -1.21750182e-03 -1.02217041e-03 3.38406797e-04 -4.33433568e-04 0.
      0.</_>
    <_>
      -2.97310885e-06 -7.62424997e-06 -3.43204943e-06 -5.54739290e-06
      -8.88918748e-06 -9.43494160e-06 6.09691483e-07 -4.91678838e-06
      -3.09865663e-06 -6.54471819e-07 -1.36832125e-06 -4.36685059e-06
      -2.77213235e-06 -1.45408967e-06 -5.10568316e-06 -3.90513742e-06 0.
      0. 0. 0. 5.50708046e-06 3.84447549e-06 6.07077209e-06
      4.70372743e-06 5.09961001e-06 2.10361304e-06 5.76930006e-06
      2.07629705e-06 -9.80787149e-07 -3.95222241e-06 -3.96860105e-06
      -3.42003909e-06 -2.16995045e-06 -2.35647599e-06 -1.01976696e-06
      -4.33447576e-06 -4.83003805e-06 -6.34912658e-06 -4.65587300e-06
      -3.29952218e-06 -2.78966600e-05 2.51963934e-06 -5.39046232e-06
      1.30070862e-03 8.08266515e-04 -3.02785891e-04 9.78192780e-04
      -2.92704499e-04 0. 0. -8.64642345e-07 -4.43694444e-06
      7.96821332e-05 1.14522874e-03 6.54242525e-04 -2.27654135e-04
      1.00728497e-03 -3.86394182e-04 0. 0. 1.31924298e-06
      -1.92249513e-06 -8.57795894e-05 -1.04509592e-04 -3.91874841e-04
      4.29913984e-04 9.80627141e-04 -2.09069214e-04 0. 0. 8.12979852e-06
      -8.59091688e-06 -3.67343542e-04 3.09782743e-04 -1.19362492e-03
      1.27593777e-03 1.17083243e-03 -6.97152473e-06 0. 0.
      -2.16284661e-05 -1.70390667e-05 -5.52783895e-04 -5.64718270e-04
      -7.76627858e-04 1.53573827e-04 -1.13820315e-04 -3.93250695e-04 0.
      0. -7.65027380e-06 -2.58314958e-05 -8.92876065e-04 -8.11020902e-04
      -4.17249190e-04 -6.43240113e-04 -1.13056297e-03 -8.48567986e-04 0.
      0. -1.96576748e-05 -2.53444123e-05 -1.01380271e-03 -1.09101145e-03
      7.23398873e-04 4.82082774e-04 -1.86305691e-03 -8.92721582e-04 0.
      0. -2.62524577e-06 -1.07559663e-05 -8.19231966e-04 -1.68656686e-03
      2.53796298e-03 1.16389722e-03 -1.31953938e-03 -5.63703128e-04 0.
      0. -2.67250089e-05 -1.51491795e-05 -7.29757186e-04 -1.07907562e-03
      -2.63930997e-04 -9.20993509e-04 -9.58224060e-04 -3.16958845e-04 0.
      0. -1.33109488e-05 -3.78549230e-05 -5.05509437e-04 2.49140576e-04
      -4.35541238e-04 -1.23831874e-03 -1.34047499e-04 -8.47483025e-05 0.
      0.</_>
    <_>
      -2.89449281e-06 -3.48957087e-06 -1.03121311e-05 -3.63611070e-06
      -9.81264293e-06 -5.99457371e-06 -4.47831781e-06 -4.93953348e-06
      4.42766304e-06 1.79309006e-06 -8.78163337e-06 -3.12248744e-06
      -9.05113939e-06 -1.08405193e-05 -6.78189917e-06 -4.74153467e-06 0.
      0. 0. 0. -1.91102263e-05 -1.08393579e-05 4.68269917e-07
      -4.33645573e-06 5.10349582e-06 -7.69045528e-06 6.82652399e-06
      -5.92523065e-06 6.65217840e-06 1.08845734e-05 1.07446876e-05
      -2.63732159e-06 1.88432514e-05 1.01118512e-05 7.17115245e-06
      4.30199589e-06 6.86282556e-06 2.94401834e-05 1.45843469e-05
      2.54663937e-05 -3.30028524e-05 1.04741885e-05 -1.67949812e-03
      -5.76432189e-03 -6.58722175e-03 1.83952635e-03 1.83566706e-03
      6.21678249e-04 0. 0. -1.49805583e-05 -4.57627757e-05
      -1.38669997e-03 -2.98531755e-04 1.73054251e-03 1.63260789e-03
      -5.52253274e-04 -1.95728010e-03 0. 0. -1.33273661e-05
      -4.55448280e-05 2.44573152e-06 2.77119130e-03 3.52697680e-03
      -3.36998113e-04 -3.49999033e-03 -1.97663950e-03 0. 0.
      -6.29378192e-05 -2.20622915e-05 -3.10207979e-05 1.15812043e-04
      3.72410379e-03 -7.11951230e-04 -1.20683992e-03 -7.14199443e-04 0.
      0. 2.86272325e-06 -1.19733641e-05 5.70026373e-07 7.31039399e-05
      2.87616136e-03 -1.20277971e-03 -4.43060298e-06 -1.06645537e-04 0.
      0. -9.78910066e-06 -1.21518688e-05 -1.61423679e-06 -5.06831311e-05
      -6.17248006e-04 1.45501108e-03 9.22071456e-04 -4.32064189e-05 0.
      0. -4.47696038e-06 7.48530681e-07 -2.29269699e-06 -3.85082501e-04
      -8.80510546e-04 1.17726333e-03 1.44092203e-03 -4.64893819e-05 0.
      0. 7.48530681e-07 5.22549090e-06 -1.19733641e-05 -1.22456276e-03
      -9.81402467e-04 5.88874682e-04 -1.01084076e-03 -2.72082343e-06 0.
      0. 2.27812016e-05 6.07797756e-06 3.23742534e-05 -3.93889815e-04
      -2.33913679e-03 4.61760967e-04 -4.11575136e-04 7.38552713e-04 0.
      0. 8.37067455e-06 2.26026968e-05 -2.30993552e-04 2.55745836e-03
      2.53561325e-03 5.55109000e-04 2.06471188e-03 2.54800310e-03 0. 0.</_>
    <_>
      -6.15705903e-06 -5.35929530e-06 -5.91527441e-06 -7.26217968e-06
      -7.97186385e-06 -4.05410765e-06 1.13656904e-06 -8.17388627e-06
      -4.42947930e-06 2.51928759e-06 1.52473535e-06 -2.44001876e-06
      -2.09727682e-06 6.23065034e-07 1.51280040e-06 -2.12707801e-06
      -8.26068629e-07 -5.08349956e-07 -3.81262481e-07 -5.71893679e-07
      -1.04707806e-06 5.37156393e-06 3.70885482e-06 2.17933825e-06
      4.51941969e-06 -1.11730969e-06 4.28519525e-06 1.24567930e-06
      -3.04616924e-06 -5.71957162e-06 -7.56628788e-06 1.18707965e-06
      -3.62010519e-06 -7.54697105e-09 -3.30682224e-06 7.32943647e-07
      -5.87602563e-06 -5.40105793e-06 -1.28615432e-06 -2.38262351e-06
      -1.57193899e-05 -3.23515742e-05 4.11109322e-05 6.99815981e-04
      -1.85082108e-03 -8.07327102e-04 1.13201514e-03 -2.62481772e-04
      -1.27087492e-06 -1.27087492e-06 -1.93202432e-05 -1.94239033e-06
      1.49891412e-05 2.78070511e-04 7.47603073e-04 5.71080425e-04
      6.13775046e-04 -4.68976941e-04 -2.54174984e-06 0. 2.08906786e-05
      -4.15324685e-05 -3.12519929e-04 -1.79821087e-04 1.12895144e-03
      5.12223400e-04 -1.18465535e-03 -7.26485043e-04 -3.17718732e-05
      -1.27087492e-06 -4.50585503e-06 -7.66950325e-05 -3.55328259e-04
      -1.31138111e-03 1.45458744e-03 4.56083420e-04 -6.78758661e-04
      -7.94236257e-04 -1.77922484e-05 -1.27087492e-06 -2.45458050e-05
      -1.03626502e-04 -4.24868282e-04 -4.08194232e-04 -1.80016679e-03
      -9.74778843e-04 8.65454786e-05 -8.37113883e-04 -1.27087492e-06 0.
      -2.06085642e-05 -6.85375708e-05 -3.98858130e-04 -1.12987799e-03
      -7.32872169e-04 -5.98454033e-04 -7.59677670e-04 -3.67016328e-04
      -1.27087492e-06 -1.27087492e-06 -1.91545387e-05 -5.21919501e-05
      -4.28889296e-04 -1.41005393e-03 1.20251137e-03 1.24868785e-03
      -4.12940048e-04 -7.45759171e-04 -2.54174984e-06 -1.27087492e-06
      4.39982296e-06 -2.42211354e-05 -5.55378036e-04 -1.34804577e-03
      2.08531367e-03 1.50110223e-03 -1.07940903e-03 -5.94469835e-04
      -3.17718732e-05 -1.27087492e-06 -1.20463164e-05 -1.77601032e-05
      -2.53261271e-04 -1.40848861e-04 -1.63055176e-03 -1.37218437e-03
      -1.04685361e-03 -3.34573444e-04 -7.37107403e-05 -1.27087492e-06
      -1.77601032e-05 -2.57616830e-05 -1.05885294e-04 1.96222868e-03
      -8.58894025e-04 -6.62010163e-04 1.31309975e-03 -2.50766370e-05
      -7.37107403e-05 -1.27087492e-06</_>
    <_>
      -8.69582982e-06 -5.15299689e-06 -8.26665109e-06 -5.99646546e-06
      -2.12579721e-06 -6.28685575e-06 -3.48285016e-06 -6.34866410e-06
      2.49786444e-06 -1.02998774e-05 -4.97493329e-06 -3.25215478e-06
      -1.97228269e-06 -5.99690338e-06 -3.32475793e-06 -8.88858540e-06
      -7.37221512e-07 -7.62586524e-07 -2.72344664e-07 -3.57404559e-07
      6.34647404e-06 3.88408171e-06 1.45908944e-05 -6.52497329e-06
      9.46693763e-06 -3.45333802e-07 1.40578823e-06 -4.68023336e-06
      -1.10994079e-05 -1.03626944e-05 -1.51894246e-05 -7.99090594e-06
      -9.88341071e-06 -7.02342504e-06 -7.65655386e-06 -4.24498694e-06
      -8.30609042e-06 -2.12373880e-06 -1.41298096e-06 -5.47863328e-06
      1.38846769e-06 -1.74948815e-04 -1.72259664e-04 -1.01284927e-03
      -8.12052051e-04 3.19633691e-04 2.98525300e-03 -8.83566026e-05
      -5.96949235e-07 -1.19389847e-06 -1.21214225e-05 -2.08939586e-04
      -1.19157543e-03 7.10655237e-04 1.46367343e-03 7.85723561e-04
      2.69246614e-03 -4.78954171e-04 -3.93986484e-05 0. -1.27571241e-06
      -2.12975749e-04 -3.44667496e-04 -6.37901830e-04 1.42580410e-03
      6.58748904e-04 -1.03902468e-03 -3.02751258e-04 -1.00884419e-04 0.
      -1.55265898e-05 -2.39567395e-04 -4.60848503e-04 -2.02252460e-03
      1.54220092e-04 1.28084351e-03 -1.26936974e-03 -3.95764626e-04
      -1.32522720e-04 0. -3.35025688e-05 -2.19675087e-04 -2.60332396e-04
      -5.75186335e-04 -1.64676527e-03 1.01115638e-05 -1.61300111e-03
      -1.19916012e-03 -1.61189440e-04 -8.50598951e-07 -3.60626218e-05
      -2.57727021e-04 -2.18252433e-04 8.52679776e-04 -1.89674809e-03
      -1.15480740e-03 -3.02402349e-03 -2.96482001e-03 -1.33970272e-04
      -8.50598951e-07 -3.54452495e-05 -1.63653764e-04 -1.40255870e-04
      7.04855192e-04 2.21259752e-03 -1.38514536e-03 -1.34361116e-03
      -2.94059515e-03 -1.33970272e-04 -8.50598951e-07 -3.80906531e-05
      -1.06475545e-05 -4.71072963e-05 9.43554915e-04 6.58672536e-04
      -1.26301986e-03 1.06717297e-03 -1.21275451e-04 -1.36522067e-04
      -1.70119790e-06 -1.24588332e-05 -2.09459889e-04 -2.27100827e-04
      9.59438039e-04 -1.27925223e-03 -3.24964465e-04 1.89857977e-03
      -1.57656013e-05 -1.67994236e-04 -8.50598951e-07 -1.12814032e-05
      -1.96986468e-04 -2.31316881e-04 -4.89062688e-04 -7.16649927e-04
      1.99186499e-03 -6.08842811e-07 7.75029621e-05 -1.33970272e-04
      -1.70119790e-06</_>
    <_>
      1.48230754e-06 -8.51691038e-06 -1.46167599e-06 -2.20799643e-06
      3.34773995e-06 -1.43760326e-06 -9.28146449e-08 7.62576428e-06
      -2.09594928e-05 1.07840538e-06 4.02432164e-07 -1.59125084e-05
      -7.32254011e-06 -5.07760524e-06 -1.34999646e-05 5.14200201e-06
      -1.40420627e-06 -4.68068748e-07 -9.36137496e-07 -9.36137496e-07
      -7.17498551e-06 7.18759929e-06 -1.08424247e-05 -4.82919677e-06
      -6.62756793e-06 -6.29124588e-06 -1.74376037e-05 -6.31596095e-06
      1.38290670e-05 -3.92899983e-06 1.47809660e-05 -6.84833367e-07
      1.40957272e-05 2.97148927e-06 1.74962261e-05 8.50935339e-06
      1.10615692e-05 6.39162727e-06 -7.88431635e-07 7.84055010e-06
      -8.87136121e-05 -1.09369517e-03 -1.57030963e-03 -2.67894822e-03
      5.27791213e-03 -5.08031109e-04 -1.97302710e-04 4.56518610e-05 0.
      0. -4.47422608e-05 -2.43572329e-04 -1.03844865e-03 -2.83537549e-03
      4.06451058e-03 -1.90982144e-04 -1.50454673e-03 -9.07204463e-04 0.
      0. -2.52887585e-05 -3.51149247e-05 6.22899606e-05 1.11958396e-03
      -4.32053953e-03 -3.47454479e-05 -4.85082099e-04 -1.48849227e-04 0.
      0. -6.04432717e-05 -2.12745599e-05 4.63729775e-05 1.49925574e-04
      -1.84946414e-03 6.63070939e-04 7.85351032e-04 1.62341876e-05 0. 0.
      2.52732043e-05 2.71870958e-05 -4.98678673e-06 1.05067773e-03
      1.43137237e-03 1.22748478e-03 1.83681655e-03 -9.59622776e-06 0. 0.
      2.37566892e-05 3.30027106e-05 3.25669535e-05 6.37066260e-04
      5.00747759e-04 1.26655062e-03 1.72276027e-03 -1.66462160e-05 0. 0.
      6.44841930e-06 4.12968475e-05 1.32647192e-05 4.10530192e-04
      -3.70784983e-04 -3.94477649e-03 1.79353193e-03 -2.79599306e-04 0.
      0. 1.51916147e-05 3.12741358e-05 -2.81987886e-04 1.05374481e-03
      -1.45829236e-03 -2.94645503e-03 1.11182977e-03 -6.92381873e-04 0.
      0. 9.59901058e-07 9.24306823e-06 -9.62393824e-04 9.45488209e-05
      1.22422422e-03 1.51768001e-03 -3.05806962e-03 -5.60284709e-04
      -4.12836642e-04 -8.42523787e-06 -5.75113336e-06 -1.04421697e-05
      -1.17493793e-03 1.41193264e-03 -4.66703088e-04 2.52608466e-03
      -2.78870552e-03 2.18365705e-04 -8.08822806e-04 -1.68504757e-05</_>
    <_>
      9.69225198e-07 6.38115182e-07 5.24049483e-07 1.22189732e-07
      1.09073710e-06 1.00410159e-06 2.90612945e-07 1.03299340e-06
      5.27440704e-07 1.24919069e-07 1.21091159e-06 1.50299581e-06
      -8.70995507e-07 -9.36115612e-07 -5.13844554e-07 5.18326715e-07
      8.09892697e-07 1.00540763e-06 7.34222112e-07 7.34222112e-07
      -4.27407997e-07 -7.64516415e-07 1.33883532e-07 -8.16773934e-07
      -8.71123461e-07 -1.43853299e-06 -3.70198535e-07 -7.12385827e-07
      -8.81663482e-07 -1.31002400e-06 -1.12024952e-06 -1.82857366e-06
      -1.42980298e-07 -6.18168940e-07 -4.29516660e-07 -1.42304509e-06
      -2.71362495e-07 -6.58305510e-07 4.40982518e-07 -2.03691869e-07
      -5.83492636e-07 -1.11595057e-06 -5.81575441e-05 3.41565290e-04
      7.99678674e-05 3.43641295e-04 -2.77010433e-04 1.00817917e-04
      3.28138471e-04 2.10489161e-04 5.08961534e-07 4.67457454e-07
      3.05257592e-04 1.30684857e-04 2.96714134e-04 -1.82916428e-05
      6.77589502e-04 2.35056898e-04 3.58748832e-04 2.10489161e-04
      -8.62048921e-07 -3.69609415e-06 1.68901257e-04 3.84201121e-05
      -8.48326832e-04 -1.15866400e-03 1.61197167e-04 3.05073103e-04
      4.01185913e-04 2.10489161e-04 -3.68817336e-06 8.98311100e-06
      -6.80981684e-05 -2.77903542e-04 -1.33527000e-03 -7.09360407e-04
      2.92203564e-04 9.02014945e-05 4.01185913e-04 2.09793463e-04
      2.53394342e-06 -3.49861716e-06 -2.47626653e-04 -2.75121391e-04
      -6.41209073e-04 -2.88170559e-04 -1.39579788e-04 -3.36520247e-06
      3.99609911e-04 2.09366801e-04 2.80478616e-06 -5.49222341e-06
      -1.71198801e-04 2.64779810e-04 2.61271547e-04 3.15134384e-04
      -9.25773173e-04 -4.90465260e-04 4.87232101e-05 -1.54902750e-06
      -2.63688753e-06 -8.33045488e-06 -6.97916330e-05 5.15812251e-04
      8.84044275e-04 7.94942374e-04 -1.59196614e-03 -8.86963098e-04
      -9.99886252e-05 1.14933744e-06 3.89374827e-06 -7.23365229e-05
      1.69039908e-04 2.55434396e-04 7.16644747e-04 3.37980193e-04
      -1.69977220e-03 -9.81991179e-04 -7.85935044e-05 -1.12235875e-06
      1.68828246e-05 5.13404120e-05 1.66632119e-04 2.71756944e-05
      9.76482348e-04 1.08009239e-03 -8.54035025e-04 -8.42839654e-04
      1.23563135e-04 7.88003163e-05 3.09185307e-05 3.66083201e-04
      4.90302686e-04 2.87524919e-04 1.15673919e-03 7.35930371e-05
      2.20872258e-04 -1.43807367e-04 4.01454949e-04 2.08755504e-04</_>
    <_>
      7.28416353e-07 8.36995298e-07 3.04694765e-07 1.59819802e-08
      1.25687063e-06 1.52126131e-06 1.02942749e-06 8.15081933e-07
      5.05179912e-07 7.06033177e-07 1.12197415e-06 -3.53484957e-08
      -3.06688861e-07 -4.95275954e-09 6.73386467e-07 2.64918526e-07
      1.10943724e-07 2.80534351e-07 1.37022724e-07 3.91801791e-08
      1.88216609e-06 1.88885895e-06 1.65661891e-06 1.40794225e-06
      9.49621437e-07 6.84713370e-07 7.59050636e-07 2.03892512e-07
      -5.83600695e-07 -7.28615078e-07 -1.63955838e-06 -8.34876403e-07
      -1.50412336e-06 -1.70430644e-06 -1.55971100e-06 -1.63144136e-06
      -2.24630810e-07 8.28347424e-07 5.05470041e-07 1.81566395e-06
      2.99260455e-06 1.10975100e-06 3.34321317e-04 9.86305065e-04
      8.96790007e-04 5.38664055e-04 -1.63504301e-04 -1.88569029e-05
      7.90724953e-05 6.93460024e-05 3.31675119e-06 4.25250255e-06
      6.79304532e-04 7.62789336e-04 3.42117070e-04 -9.85878432e-05
      2.77307350e-04 1.24551589e-04 1.32494519e-04 6.87589491e-05
      4.37394920e-06 4.65575840e-06 2.93952704e-04 3.05207941e-04
      -1.77071444e-04 -7.63199816e-04 1.08607957e-04 2.88474082e-04
      1.32494519e-04 6.87589491e-05 7.59364696e-07 4.06899062e-06
      -6.94033370e-05 -3.26734182e-04 -7.08382810e-04 -6.39488630e-04
      6.40009894e-05 2.35807427e-04 1.32494519e-04 6.93460024e-05
      -5.34502419e-07 -2.70281198e-05 -3.67735425e-04 -2.97650491e-04
      -5.39594621e-04 1.52469365e-04 -2.95141159e-04 1.40364835e-04
      1.31972629e-04 6.93460024e-05 -1.32862567e-07 -2.09490929e-04
      -3.80543381e-04 -2.36906722e-04 -2.73767128e-05 3.88983754e-04
      -5.56830608e-04 1.10043860e-04 5.16017972e-05 -1.17411037e-06
      -5.56468012e-06 -3.12028395e-04 -3.80720623e-04 -6.28650130e-04
      -3.07659830e-05 -2.37741857e-04 -8.27983487e-04 -1.90221341e-04
      8.80693824e-06 -6.52221786e-07 2.16697572e-06 -1.85303812e-04
      -2.49512319e-04 -4.12962225e-04 1.82985401e-04 -4.95818967e-04
      -1.07305846e-03 -1.60963464e-04 -5.29652971e-05 -5.87055183e-07
      3.54186068e-06 1.27740013e-05 2.62680522e-04 4.17069677e-05
      4.45376965e-04 -9.28157096e-05 -1.88818769e-04 1.11585859e-05
      -3.90777768e-06 2.55073701e-05 9.58351211e-06 1.17607757e-04
      4.31626133e-04 9.20115039e-04 1.03425060e-03 6.44201573e-05
      -5.63032663e-05 5.45360672e-05 1.32494519e-04 6.82370592e-05</_>
    <_>
      1.11551877e-07 1.90378202e-07 -9.90887543e-07 9.57754409e-08
      -6.75032027e-07 -1.06038556e-06 -2.18239325e-06 -1.23187840e-06
      -1.69984929e-07 6.87479030e-07 3.93075481e-07 8.59717659e-07
      -3.98654947e-07 -3.73321882e-07 -8.52706194e-07 5.42722830e-07
      4.77336016e-07 6.92223637e-07 5.22140283e-07 2.50558202e-07
      4.48566681e-07 -4.45938149e-08 -7.72677780e-08 1.00230852e-06
      5.11212818e-07 -4.16868460e-07 -1.11487097e-07 -1.71327369e-10
      -4.44000449e-07 -1.71773888e-06 -7.64719459e-07 1.91839021e-07
      -1.07098856e-06 -3.77634109e-07 -2.90441108e-07 -1.73279375e-06
      5.15999723e-08 2.53413646e-07 2.18869516e-07 6.75037882e-07
      1.10771680e-06 -6.84532351e-05 -1.27154301e-04 2.03817108e-04
      7.13108690e-04 5.84151188e-04 -1.39684693e-04 -3.24632798e-04
      1.73719338e-04 1.51941131e-04 3.92780703e-06 6.66848500e-05
      1.88695267e-04 -2.55407613e-05 -1.39400596e-04 6.67785571e-05
      1.03629730e-03 4.56724432e-04 2.89141695e-04 1.49632688e-04
      6.45277123e-06 1.05944258e-04 -1.17356576e-04 -6.23274653e-04
      -6.41468330e-04 -3.55000258e-04 6.84936356e-04 7.84603704e-04
      2.86833267e-04 1.47324230e-04 -1.10458325e-06 3.81806467e-06
      -3.73604271e-05 -1.10120070e-03 -6.27950300e-04 7.02640755e-05
      9.46427172e-04 3.94759496e-04 2.86833267e-04 1.49632688e-04
      -1.06746097e-06 -2.16919238e-06 -5.37057873e-04 -1.13696931e-03
      -6.38953119e-04 2.16046828e-04 1.28657615e-04 6.60682126e-05
      2.88007810e-04 1.51941131e-04 2.88233923e-06 -2.13701446e-06
      -2.60215806e-04 -2.01568721e-04 6.16382575e-04 5.01672737e-04
      -3.82426835e-04 -2.98866013e-04 1.13388902e-04 0. -4.12147119e-06
      7.05350715e-07 -2.71227880e-04 -8.67682902e-05 8.35984130e-04
      4.69852472e-04 -6.20733888e-04 -6.68965105e-04 2.04100033e-05
      1.13388899e-06 -6.53470408e-07 -3.03877867e-04 -5.20728005e-04
      -1.66095837e-04 1.03987276e-03 4.34198650e-04 -7.21475168e-04
      -8.62843415e-04 2.26777797e-06 0. 1.18412754e-05 -3.84596584e-04
      -9.79430988e-05 -8.56891565e-05 3.14081699e-04 3.19745013e-05
      -6.68149092e-04 -3.49562877e-04 1.08853346e-04 5.66944509e-05
      2.32958464e-05 7.29902458e-05 1.74126937e-04 4.54981084e-04
      4.06228733e-04 8.78240098e-05 2.18273752e-04 1.38866541e-04
      2.89141695e-04 1.50807246e-04</_>
    <_>
      8.31653210e-07 5.40925896e-07 7.36966115e-07 4.64269704e-07
      5.11671999e-07 9.96784479e-07 9.36419937e-08 2.30119266e-08
      -2.47141202e-07 2.97075246e-07 5.71577630e-07 6.07545815e-07
      2.56223501e-07 4.81089387e-07 -4.14880475e-07 -5.82725818e-07
      6.14670000e-07 4.29041080e-07 5.16738965e-07 4.22261621e-07
      1.98230009e-06 1.41492285e-06 1.47812955e-06 1.22755773e-06
      1.08874485e-06 4.78800473e-07 8.08761399e-07 4.17849236e-07
      -9.25078496e-07 -1.28418799e-06 -1.77586344e-06 -1.36473545e-06
      -1.52616030e-06 -1.22660072e-06 -1.06318694e-07 -1.51933250e-06
      -9.37968025e-07 4.72255891e-07 3.20623116e-07 3.06764264e-07
      -7.11970642e-07 3.05190179e-06 1.30648055e-04 7.68613885e-04
      8.27038544e-04 8.32711812e-04 6.22851716e-04 -1.39074866e-04
      1.51941946e-04 7.92290812e-05 1.42124588e-06 6.21586105e-06
      6.17179845e-04 6.45546359e-04 1.35323717e-04 1.97482703e-04
      4.88342019e-04 7.08377411e-05 1.50771753e-04 8.15694439e-05
      4.04889533e-06 6.51499613e-06 1.02158920e-05 -1.21424491e-05
      -4.18545475e-04 -5.32413018e-04 4.74172644e-04 3.73218500e-04
      1.80026313e-04 7.92290812e-05 1.33876483e-06 -2.99912517e-05
      -2.40205976e-04 -5.37792512e-04 -8.21538735e-04 -6.21552899e-05
      7.22041819e-04 5.25071751e-04 1.67154300e-04 8.03992662e-05
      -2.14826423e-06 -5.08883095e-05 -2.64209142e-04 -8.06991011e-04
      -8.57340288e-04 7.43012279e-05 -4.11747933e-05 4.07597436e-05
      1.49606509e-04 7.86550881e-05 1.07458482e-06 -7.28575251e-05
      -3.23994376e-04 -7.79185095e-04 -3.08995019e-04 -3.44454747e-04
      -7.83452066e-04 -4.03691491e-04 -1.14312763e-06 -5.73993418e-07
      2.86143063e-06 -5.00948299e-05 -2.89666670e-04 -5.01551141e-04
      3.28735652e-04 1.94650202e-04 -7.10463733e-04 -5.68070449e-04
      -9.89900291e-05 1.72683947e-08 3.70498810e-06 -4.87179350e-05
      -1.03110629e-04 -1.25408842e-04 3.85676220e-04 1.05671577e-04
      -5.95444872e-04 -6.52773248e-04 -1.08450215e-04 -5.73993418e-07
      3.78809068e-06 7.50571344e-05 7.81136550e-05 -1.24588230e-04
      -2.65754843e-05 -1.50471387e-04 -1.79924798e-04 -3.59898637e-04
      -3.90957648e-05 2.95630907e-05 1.15345692e-05 1.33428839e-04
      4.74184664e-04 4.22352721e-04 3.30542098e-05 6.11528012e-05
      3.03679175e-04 2.63980219e-05 1.42735851e-04 7.80638293e-05</_>
    <_>
      5.48524622e-06 5.14746898e-06 4.86594274e-07 4.28712110e-06
      6.90011757e-06 9.17296893e-06 5.71146256e-06 8.62322759e-06
      4.82619544e-06 8.89041360e-07 -1.01588353e-06 1.97298937e-06
      3.60783270e-06 2.83734175e-06 1.61333560e-06 1.12613918e-06
      -1.21979053e-06 -1.14398767e-06 -1.02592753e-06 -8.43624719e-07
      -2.92477637e-07 -4.99953694e-06 1.76605590e-06 7.70231850e-07
      4.72919510e-06 8.99281588e-07 4.78834522e-07 9.83841915e-07
      4.11693463e-06 1.02486865e-06 5.00905753e-06 4.46900913e-06
      1.28882039e-06 3.73295211e-06 3.79628204e-06 3.92823722e-06
      7.02663601e-06 8.79542677e-06 7.79318088e-06 5.70724842e-06
      -3.07597929e-06 -6.37794845e-04 -1.03499263e-03 -2.42432041e-04
      1.31699198e-03 1.25305040e-03 -8.31460522e-04 -1.75798242e-03
      -1.71080654e-04 1.23640115e-04 5.42804685e-07 -4.01885743e-04
      5.07719174e-04 1.54811540e-03 -5.89172880e-04 -1.01879414e-03
      9.03406326e-05 -1.35572429e-03 -3.71852424e-04 1.21518817e-04
      -9.25670156e-06 -4.27000108e-04 1.00399659e-03 1.95035071e-03
      -3.95353534e-04 -1.89891295e-03 2.92756504e-05 3.70275578e-04
      1.62713201e-04 1.23869133e-04 -8.21323483e-05 -5.20848378e-04
      1.37157869e-04 -4.57371410e-04 -1.27618189e-03 -2.19548331e-03
      7.59020681e-04 1.16835488e-03 9.20101957e-05 1.23370744e-04
      -5.40465626e-05 -5.30507241e-04 -5.26572519e-04 -4.97903791e-04
      -1.02052116e-03 -1.19751156e-03 6.17902959e-04 6.79873279e-04
      1.88924125e-04 1.26978513e-04 -4.89679151e-05 -5.11839986e-04
      -5.29170386e-04 1.67313003e-04 -2.81734334e-04 2.53296981e-04
      -3.17178579e-04 4.34878428e-04 6.76677664e-05 -2.39231372e-06
      -4.42310993e-05 -5.38079883e-04 3.66685214e-04 5.37062879e-04
      -3.19302984e-04 -8.87343776e-04 -8.40284745e-04 -2.88150095e-05
      -1.41752884e-04 -1.78782003e-07 -5.14930725e-05 -4.05141123e-04
      1.19166158e-03 4.00297722e-04 -3.84355881e-05 -9.91450623e-04
      -7.08368490e-04 -6.05172354e-05 -3.30926530e-04 -3.25697101e-06
      -3.57062381e-05 -1.36787698e-04 1.31484319e-03 1.68786873e-03
      9.66616033e-04 4.57096990e-04 5.40804642e-04 6.81457459e-04
      -2.03013071e-04 4.51829910e-05 -3.70354019e-06 -3.62345309e-05
      -3.20635554e-05 2.84625147e-03 2.69236998e-03 9.63870843e-04
      7.97866727e-04 4.17361123e-04 6.47786219e-05 1.23746140e-04</_>
    <_>
      -4.91955007e-07 5.79202947e-07 -1.04692617e-06 -1.53633141e-06
      -1.36358949e-07 1.55838757e-06 -8.63570904e-07 -1.69888654e-06
      -9.10785673e-07 1.53369240e-06 2.02894967e-06 1.13444878e-06
      2.12062446e-07 2.52368841e-06 1.13720830e-06 1.39592103e-07
      -2.15360956e-07 -1.16966866e-07 -9.29690174e-08 -3.36857596e-07
      1.43021452e-07 8.89886223e-07 1.21682774e-06 4.71156966e-07
      7.72587669e-07 -9.70188012e-07 5.43695535e-07 -8.92821319e-08
      -2.28622480e-06 -4.18763284e-06 -4.03647573e-06 -2.30623641e-06
      -3.38090354e-06 -1.43508214e-06 -1.96994279e-06 -1.84193777e-06
      -6.05170442e-07 -3.56435748e-07 1.52242842e-06 3.92232323e-07
      -3.29027648e-06 -8.31279976e-06 3.11243959e-04 1.06918905e-03
      -8.61457229e-05 1.21003039e-04 7.17626826e-04 7.84399163e-05
      7.39353782e-05 3.81552309e-05 5.77281085e-08 -1.73608176e-04
      1.62788507e-04 4.47228027e-04 -2.44007560e-06 9.81830744e-05
      8.47647607e-04 5.00353228e-04 7.26088329e-05 4.08083142e-05
      1.25122651e-05 -3.76208802e-04 -1.00603334e-04 -7.47851591e-05
      -5.83207991e-04 -2.38220193e-04 4.39043331e-04 6.87794352e-04
      1.05772378e-04 3.81552309e-05 -4.75246134e-06 -3.66169319e-04
      -5.06391050e-04 -1.35071063e-03 -8.69731593e-04 -1.18519631e-04
      4.49336687e-04 4.21526463e-04 9.11804163e-05 3.94817725e-05
      -5.95600568e-06 -5.20609719e-05 -6.43709267e-04 -1.26314675e-03
      -1.65551784e-03 -4.69163380e-04 1.93538130e-04 2.53187987e-04
      7.16638242e-05 3.81552309e-05 -2.24435644e-06 3.06590437e-06
      -5.92593395e-04 -1.08482980e-03 -4.39826079e-04 -1.05306688e-04
      -8.83254921e-04 -2.97516381e-04 2.56665517e-05 -2.80750032e-06
      1.21731034e-06 -6.25078101e-05 -3.35113029e-04 -3.88671353e-04
      9.51937225e-04 3.86852858e-04 -9.34930111e-04 -8.38144217e-04
      -9.29598100e-05 -1.86249326e-06 2.67444329e-06 -2.64883798e-04
      2.26257762e-05 -3.60255741e-04 6.70748064e-04 3.55270196e-04
      -1.00549159e-03 -8.77581886e-04 -3.37318226e-04 -2.80750032e-06
      3.01277305e-06 -1.32330664e-04 3.17843485e-04 2.33511397e-04
      2.70150485e-04 1.91475759e-04 -3.35773628e-04 -6.39862090e-04
      -9.07627618e-05 1.20897930e-05 4.83589247e-06 6.53451498e-05
      1.92816005e-04 1.13514229e-03 7.08728039e-04 -2.47217995e-05
      3.45216657e-04 -2.81526067e-04 7.04616032e-05 3.57232566e-05</_>
    <_>
      1.02539082e-06 1.19258573e-06 9.17819932e-07 9.94054403e-07
      2.72870807e-07 1.15565842e-06 -3.78916923e-07 4.34154288e-07
      2.30919625e-07 1.41691555e-06 -9.11259974e-07 1.32490050e-06
      -6.99446261e-08 -4.46588075e-07 -1.02257445e-06 -7.81916071e-07
      -9.15305691e-07 -4.46758918e-07 -5.53691905e-07 -5.77535616e-07
      7.05107936e-07 -1.86194441e-07 8.05082777e-07 1.42855220e-06
      -9.43627683e-08 4.52752928e-08 -6.15455974e-07 -7.97074051e-07
      -2.77574918e-06 -3.62412948e-06 -1.21566745e-06 -2.09484756e-06
      1.68654793e-07 -1.32474793e-06 1.01901060e-06 1.25264523e-06
      1.40501322e-06 3.29795199e-07 1.78686446e-06 5.61283912e-07
      2.64230675e-06 1.03472667e-04 8.07784323e-04 2.29441066e-04
      -3.30551935e-04 2.67414900e-04 2.10638536e-04 -2.42039649e-04
      1.95999688e-04 1.32349975e-04 -3.54719737e-06 7.70086262e-06
      1.42072749e-04 4.76416870e-04 8.45405215e-04 5.03794407e-04
      4.40256263e-04 -1.75011519e-05 1.98231937e-04 1.32349975e-04
      -1.98226098e-05 -2.65941257e-04 -1.82182077e-04 1.21192774e-04
      3.60132603e-04 -2.08344281e-04 -1.21872858e-04 7.98876572e-05
      1.64748155e-04 1.30117725e-04 -1.18627586e-05 -6.46840490e-04
      -3.54262302e-04 -1.22005073e-03 -8.85076297e-04 -8.81794142e-04
      3.14070814e-04 -5.07313453e-05 1.46890117e-04 1.30117725e-04
      1.70373141e-06 -5.01428905e-04 -1.30875735e-03 -2.05748668e-03
      -1.60382059e-03 -3.24374676e-04 -3.50552000e-04 -8.50195574e-05
      6.38325509e-05 1.28863452e-04 -5.09653489e-07 -6.25499233e-05
      -1.02806918e-03 -1.04059989e-03 -5.67402982e-04 4.75054439e-05
      -9.54421645e-04 -2.93744437e-04 1.67770195e-05 -2.62473768e-05
      -7.39657025e-06 5.74447222e-06 1.21031007e-04 2.76402949e-04
      1.11326424e-03 -4.30455722e-04 -1.06660044e-03 -3.39978462e-04
      -7.51417538e-05 -2.28669414e-05 4.85337159e-06 -4.02762380e-05
      5.06720040e-04 5.00661845e-04 8.64797621e-04 -9.15325189e-04
      2.91507204e-05 -3.43107298e-04 -9.57449374e-05 -2.49931036e-05
      6.82453447e-06 9.07048980e-06 9.09888651e-04 1.21432601e-03
      -3.24040651e-04 -5.26421412e-04 2.01924668e-05 -9.02980828e-05
      -1.19232091e-05 3.46483102e-05 2.27907003e-05 2.52034952e-04
      8.59546883e-04 1.32203696e-03 -1.14383576e-04 7.24201440e-04
      4.74231376e-04 5.01289323e-05 1.70637926e-04 1.29947512e-04</_>
    <_>
      1.40231145e-06 6.75235469e-07 9.18029116e-07 5.48679793e-07
      1.37835139e-06 1.59860008e-06 9.56408940e-07 1.47339586e-06
      -3.49430366e-07 1.95867798e-07 4.23229494e-07 3.20209040e-07
      6.67798361e-07 1.73210503e-06 -6.42467981e-08 1.11452175e-06
      1.03069105e-07 2.39789671e-07 1.04411079e-07 1.58965108e-07
      4.37238526e-07 -5.19738137e-07 -5.73306977e-07 -1.51791497e-07
      -8.59873069e-07 -1.03802165e-06 -1.40560269e-06 -6.30750037e-07
      5.49080028e-07 -4.47801767e-07 7.76609738e-07 -2.14088605e-08
      1.32241240e-07 -1.09226761e-07 6.37546520e-07 -7.52904839e-07
      1.43152107e-07 1.41089151e-06 6.79577852e-07 1.08647907e-06
      -2.20596348e-06 2.77540130e-05 -1.10448245e-05 3.84628984e-05
      1.08869292e-03 8.33009370e-04 8.44109236e-05 -3.04578571e-04
      9.38676167e-05 7.11667308e-05 -1.63631938e-07 5.85072376e-05
      4.36356495e-04 2.66873569e-04 -3.50585869e-05 7.77567038e-05
      3.54332762e-04 -1.81845942e-04 1.35328664e-04 7.11667308e-05
      1.01437047e-06 6.05104469e-05 2.17018474e-04 -1.75859293e-06
      -1.26035919e-03 -4.69504477e-04 4.66067897e-04 1.23484206e-04
      1.36365197e-04 7.11667308e-05 -2.94912093e-06 3.46716843e-06
      1.68221450e-04 -1.74780653e-04 -1.58964947e-03 -7.00515404e-04
      8.31995218e-04 3.01233900e-04 1.36365197e-04 7.11667308e-05
      3.34605170e-06 1.22304198e-06 5.67407187e-06 -6.17553960e-05
      -9.87092964e-04 -9.47985245e-05 6.52380229e-04 2.58575950e-04
      1.36862887e-04 7.22032564e-05 1.90966671e-06 1.64242113e-06
      3.73432476e-06 1.28582305e-05 -3.49995098e-04 3.67988541e-05
      3.27620539e-04 1.92652704e-04 5.38830282e-05 0. 1.74796594e-06
      1.12141129e-06 2.23872166e-06 1.19547833e-04 -1.17866628e-04
      -7.81907351e-04 -1.06868742e-04 8.16961765e-05 9.69894518e-06
      5.38830307e-07 8.74729892e-07 -5.32423996e-07 8.67139897e-05
      2.35298125e-04 -1.72532556e-04 -7.88805657e-04 -4.87878948e-04
      -6.13832090e-05 1.07766061e-06 0. 7.57154294e-06 4.39808173e-05
      2.08116966e-04 6.11095515e-04 2.78820662e-04 1.11404028e-04
      -3.29866220e-04 -1.39139098e-04 4.86181270e-05 2.59049884e-05
      1.34592337e-05 1.24178332e-04 1.84182747e-04 6.91919064e-04
      8.89522315e-04 8.14274128e-04 -7.71893829e-05 -1.79703289e-04
      9.38676167e-05 7.06279025e-05</_>
    <_>
      3.03005186e-06 1.93955657e-06 8.07472134e-07 2.73984824e-06
      4.73416367e-06 5.14151998e-06 4.80097697e-06 1.67504504e-06
      2.69750171e-06 2.37425252e-06 3.06891297e-06 -2.16667013e-06
      1.14704804e-07 3.45362400e-06 5.30661600e-06 -2.41556286e-08
      -4.46785037e-07 -2.68071034e-07 -8.93570089e-08 -4.46785037e-07
      6.80571338e-06 8.11142945e-06 6.96563393e-06 8.45428531e-06
      2.38925122e-06 5.16092769e-06 3.81783184e-06 5.13028135e-06
      7.41891199e-07 3.06756215e-06 -8.70169856e-07 8.32728063e-07
      -1.27215185e-06 4.65195370e-07 -1.79939002e-06 -2.32650018e-06
      -2.36658639e-06 3.35913199e-07 9.55156565e-07 3.62485002e-06
      1.39992590e-05 2.37731570e-06 8.93322169e-04 2.30699498e-03
      1.61815411e-03 7.63892487e-04 -4.86325938e-04 3.23110929e-04 0. 0.
      1.76119902e-05 4.62669050e-06 1.27516873e-03 9.80486511e-04
      2.10609898e-04 9.71813512e-04 8.34545703e-04 1.99410308e-04 0. 0.
      1.17863956e-05 2.17024099e-05 8.75172380e-04 1.17091731e-05
      8.67794733e-04 -6.65110929e-05 -5.85205329e-04 2.98529078e-04 0.
      0. -2.97441306e-06 1.34788888e-05 1.08653726e-03 4.71785534e-05
      1.06837391e-03 7.13763235e-04 -4.97862755e-04 5.84877038e-04 0. 0.
      -1.16512219e-07 -6.99116936e-05 3.32788739e-04 -1.29789420e-04
      -1.25236867e-03 9.40872880e-04 -8.30611680e-04 5.12990227e-04
      -1.78714015e-06 0. -1.00586497e-07 -5.87266695e-04 -4.44363919e-04
      -1.26414117e-03 -1.17450953e-03 3.51912080e-04 1.37705181e-04
      9.66222899e-04 -3.57428030e-06 -1.78714015e-06 -7.06042147e-06
      -9.08627233e-04 -3.20495397e-04 -1.82985282e-03 -9.19448736e-04
      -6.90624001e-04 9.19729122e-04 2.19358961e-04 -1.78714015e-06
      -1.78714015e-06 -4.69238739e-06 -4.65967925e-04 -7.13185873e-04
      -1.21009501e-03 -2.25158059e-04 -1.35466270e-03 -6.86800515e-04
      -1.07665277e-04 -3.75299423e-05 -1.78714015e-06 -1.96124506e-06
      -1.45787017e-05 7.98032328e-04 6.30394265e-04 8.95420148e-04
      -1.64091436e-03 -7.25962222e-04 -1.11039844e-04 0. 0.
      -2.94535425e-06 -1.09246030e-05 1.02558860e-03 1.14159856e-03
      9.74773197e-04 4.54134279e-04 -1.67752733e-03 1.21703401e-04 0. 0.</_>
    <_>
      -1.88973845e-05 2.97584993e-05 -1.77309757e-05 4.46465629e-06
      1.37832558e-05 -2.03505715e-06 5.66922427e-06 5.96509744e-06
      -3.46301931e-05 9.77934269e-06 2.94111469e-05 -1.02162676e-06
      4.41361317e-06 1.05267596e-07 -1.40395377e-06 4.24813952e-05
      5.41247255e-06 2.45201727e-06 3.47422429e-06 2.61233276e-06
      1.22242136e-05 2.43392333e-05 -1.27813264e-05 1.74821671e-05
      1.98418024e-06 2.19083313e-06 1.52678567e-05 -5.46712545e-06
      1.77030279e-06 1.21992098e-05 1.14090763e-05 2.55809955e-05
      -1.36367407e-05 -1.28641286e-05 1.17621648e-05 4.66732718e-06
      2.01915664e-05 3.23672793e-06 -1.41145829e-05 1.94529434e-06
      7.09519663e-05 1.71015889e-03 -3.16130323e-03 -8.55076534e-04
      -1.56280366e-04 -4.85346527e-06 -3.12062725e-03 -4.09848639e-04
      -1.89270737e-04 -2.07725429e-06 -7.25722884e-06 2.51633814e-04
      -6.91026682e-04 -3.57023184e-03 -6.91662484e-04 1.11225457e-03
      2.03310675e-03 4.52953810e-03 -2.28497956e-05 -5.08088442e-06
      -3.17788690e-05 -4.84677264e-04 -2.48394324e-03 -5.41339396e-03
      -3.35299689e-03 3.13666207e-03 1.48573646e-03 1.65153341e-03
      -6.20532774e-06 -8.25614734e-06 -2.27857236e-04 -6.19142433e-04
      -2.17571459e-03 -8.59462307e-04 3.48394900e-03 7.88864563e-04
      1.36015459e-03 1.67210016e-03 -3.00363013e-06 -6.20532774e-06
      -2.04859907e-06 -3.49366572e-04 -2.33289832e-03 -2.90839933e-03
      3.17141553e-03 -1.49527972e-03 -2.11427294e-04 2.60041375e-03
      2.24492978e-05 1.46689908e-05 1.36607472e-04 -1.47665443e-04
      -3.00783053e-04 -3.12320073e-03 -1.33497218e-04 1.64263672e-03
      3.57034820e-04 -5.49045391e-03 6.51661772e-04 2.40192821e-05
      -9.08792499e-05 -3.53373965e-04 1.22140365e-04 1.36361850e-04
      -1.74548943e-04 -4.33520123e-04 -1.67302904e-04 2.01235362e-03
      6.10577350e-04 8.39747918e-06 -2.02943156e-05 -2.38802386e-04
      7.45102006e-05 -1.15195557e-03 -1.42865829e-04 -4.16717201e-04
      3.30775115e-03 1.15124544e-03 5.71662327e-04 -2.36947199e-06
      7.93413055e-05 -5.54901955e-04 6.28814055e-03 5.01088274e-04
      5.07317297e-03 -7.66107580e-04 2.60097766e-03 -6.47648843e-03
      4.04602819e-04 9.77439231e-06 9.42175539e-05 -3.42726998e-04
      1.83548720e-03 2.85832933e-03 -2.41242372e-03 -8.07952485e-04
      2.56435829e-03 -2.13470485e-04 -7.85498632e-05 1.74465877e-05</_>
    <_>
      1.47245530e-07 -6.30020850e-07 2.16371888e-07 -3.01793335e-07
      -3.59440548e-07 -6.56023076e-08 -3.37222104e-07 -2.93553580e-06
      -1.66370182e-06 -6.11663779e-07 5.28117766e-07 2.57952422e-07
      1.35851019e-06 1.19471804e-06 9.63097364e-07 -4.38130030e-07
      8.06106584e-07 3.38183099e-07 3.00516490e-07 4.78846118e-07
      2.32893422e-06 2.09332711e-06 1.94158747e-06 1.79192239e-06
      1.59083822e-06 8.57943462e-07 1.81601251e-06 5.86503972e-07
      1.89826409e-07 -8.00496480e-07 -5.39384075e-07 -2.53396479e-06
      -1.66110999e-06 -1.39001179e-06 5.01540171e-07 -2.08963627e-07
      -1.12379087e-06 -4.89225513e-08 -4.49513493e-07 -3.87632724e-07
      4.67086238e-06 -2.50841185e-06 4.80094808e-04 8.69327981e-04
      3.79991980e-04 6.83170918e-04 7.75564753e-04 3.45423847e-04
      4.61206491e-06 0. 3.85194289e-06 2.98167251e-05 6.70029083e-04
      3.53762560e-04 8.51915174e-05 6.33905816e-04 7.78093003e-04
      1.68371422e-04 0. 7.68677523e-07 -5.79839980e-06 -1.93359529e-06
      3.39710532e-05 -3.45168111e-04 7.31870357e-04 1.26564887e-03
      7.58179987e-04 2.13184205e-04 0. 0. 2.86021248e-07 8.74667876e-06
      -2.12988991e-04 -4.52000211e-04 9.74558207e-05 1.39273575e-03
      6.82494487e-04 5.30499907e-04 7.68677523e-07 0. -6.58861291e-06
      -3.36393823e-05 -3.78416211e-04 -1.44403568e-03 -9.31013608e-04
      2.80643697e-04 2.46856711e-04 4.27148159e-04 2.30632281e-06
      1.83470877e-06 -5.58013699e-06 -1.90782768e-04 -7.80850474e-04
      -1.93677319e-03 -1.27028010e-03 -3.18824750e-04 8.25753305e-05
      7.69695980e-05 5.22864066e-05 1.06632149e-06 -4.02408568e-06
      -1.83605924e-04 -8.05193791e-04 -1.89754670e-03 -6.08447590e-04
      5.03062911e-04 6.70940790e-04 -4.18358803e-04 4.37604795e-05
      1.06603125e-06 3.06322772e-06 -1.42071687e-04 1.76031463e-04
      -7.75556429e-04 -1.25092163e-04 5.20386326e-04 5.03586780e-04
      -5.26422809e-04 1.92484367e-05 0. 1.66265374e-06 4.35274414e-05
      4.63823351e-04 -3.47763125e-04 -8.96902115e-04 -6.42995699e-04
      6.00849307e-05 7.78636240e-05 1.26689911e-05 2.13206249e-06
      1.41647183e-06 -3.66685017e-05 4.96781868e-05 -2.18341564e-04
      -2.54769519e-04 2.69564305e-04 1.41391774e-05 -1.57033704e-04
      1.06603125e-06 7.68677523e-07</_>
    <_>
      4.65687799e-06 2.14096940e-06 3.90979494e-07 4.31099625e-06
      3.35288564e-06 4.83161330e-06 4.27016448e-06 3.79413223e-07
      2.93090125e-06 5.07347806e-07 -2.53614348e-06 3.18243906e-06
      5.18636807e-06 7.03339401e-06 4.52325185e-06 2.06275126e-06
      -1.18760875e-06 -1.25895667e-06 -5.76792559e-07 -8.44400233e-07
      -1.49472942e-06 -3.72965360e-07 2.98847198e-07 8.12074688e-07
      5.13287387e-06 1.83428227e-07 -1.23258317e-07 -1.54509308e-07
      7.86848159e-06 5.45211105e-06 8.49574371e-06 8.78179981e-06
      2.40317854e-06 7.76353681e-06 4.06744812e-06 5.11265216e-06
      3.30386479e-06 5.99326268e-06 4.84553721e-06 4.53842449e-06
      1.22587096e-06 -2.96964921e-04 -1.20508368e-03 -2.65235303e-05
      -7.50548672e-04 2.85490387e-05 8.14943109e-04 -1.43287281e-04
      -8.30763674e-05 -2.41317639e-06 3.45537205e-06 -3.95341311e-04
      -6.10859948e-04 5.00449038e-04 -5.28929173e-04 1.21511368e-03
      -9.14336051e-05 -3.80831712e-04 -2.14639425e-04 -2.41317639e-06
      -3.20603904e-05 -3.74258903e-04 5.17229819e-05 4.31590830e-04
      1.08796335e-03 2.09671701e-03 -1.57832948e-03 3.25228903e-04
      -3.53951909e-04 -4.30055297e-06 -7.19099262e-05 -4.77709022e-04
      1.62963188e-04 2.04098324e-04 1.84664654e-03 9.80557525e-04
      -1.10231503e-03 4.22304816e-04 -2.33104773e-04 -2.41317639e-06
      -4.15750437e-05 -4.58432769e-04 1.38085772e-04 5.38195367e-04
      1.21973234e-03 4.50915046e-04 -7.16417097e-04 5.74128062e-04
      -4.77102149e-05 -8.60883233e-07 -3.34840770e-05 -4.47789644e-04
      -6.30693394e-05 -3.53913958e-04 2.18962698e-04 1.27139897e-03
      9.89850145e-04 1.36454229e-03 1.65258170e-04 -1.19596666e-06
      -3.58416255e-05 -4.92192805e-04 2.35855885e-04 -2.76843493e-04
      -2.22790265e-03 -1.16382167e-03 2.73924298e-03 1.42892287e-03
      4.70400337e-05 -1.38668304e-06 -5.72848330e-05 -4.66581259e-04
      2.85908318e-04 3.62675812e-04 -1.10628619e-03 -1.01583870e-03
      1.72089157e-03 1.16326427e-03 -1.62352997e-04 -3.27405974e-06
      -4.64695586e-05 -4.60256444e-04 6.89619745e-04 8.58778425e-04
      -3.07907962e-04 -2.08358420e-03 1.03248539e-03 8.00840266e-04
      -2.46001611e-04 -5.25799805e-07 -1.49298985e-05 -4.17609088e-04
      1.47772327e-04 3.99886427e-04 -1.24327067e-04 1.61997654e-04
      2.64028116e-04 7.25162507e-04 -7.21654505e-05 6.91409980e-07</_>
    <_>
      -1.04913499e-06 1.73068770e-06 -2.87735907e-06 -2.84026123e-06
      -6.89787839e-07 2.53972462e-06 8.95789128e-07 -5.57364092e-06
      -2.03895956e-06 2.40785971e-06 4.02682599e-06 -4.12693794e-07
      1.14897807e-06 5.87549948e-06 4.85269857e-06 -1.60368120e-06
      -1.81242865e-06 -1.55065379e-06 -2.00980435e-06 -2.09006635e-06
      -1.55896203e-06 2.59634612e-06 2.47341382e-06 2.10111716e-06
      1.19108040e-06 -2.57494571e-06 1.18849584e-06 4.84386476e-07
      5.99478312e-07 -2.77205072e-06 -3.12450948e-06 -1.55788928e-08
      -2.52629161e-06 -1.50642006e-06 -1.15907847e-06 -3.40311487e-07
      6.78161200e-07 2.29859643e-06 1.01384319e-06 1.70623878e-06
      5.08855510e-06 -5.17916524e-05 1.46109247e-04 -1.79581082e-04
      -9.26295004e-04 5.28461940e-04 1.13321678e-03 -1.71798980e-04
      -4.94694221e-04 -8.93827382e-06 -2.93618155e-06 -3.53989744e-04
      8.20686051e-04 -7.36707734e-05 -3.74658179e-04 8.23297887e-04
      8.83868313e-04 -3.93499213e-04 -7.59681200e-07 -1.07572650e-05
      -4.64477416e-05 -5.44376380e-04 -3.19838291e-04 -1.79184927e-03
      7.62228039e-04 1.52599497e-03 9.78335379e-07 -6.08491362e-04
      -1.44267920e-04 -1.38222522e-05 9.38099038e-06 -4.89222060e-04
      -3.64032399e-04 -1.69643783e-03 8.23694281e-04 1.38461520e-03
      -6.77982694e-04 -5.80173328e-05 -2.28696488e-04 -8.63665355e-06
      -1.48577428e-05 -2.06096345e-04 -8.93359596e-04 -1.30136579e-03
      -1.43743225e-03 7.97248154e-04 -1.79707480e-04 -2.75189348e-04
      -9.98939940e-05 1.08689233e-06 -6.32160572e-06 -8.47684103e-04
      -1.35445897e-03 -2.56845541e-03 -1.16291060e-03 3.85306979e-04
      4.38382238e-04 5.24061266e-04 -1.43514117e-04 -4.62591197e-06
      -8.34100047e-06 -9.87490406e-04 -1.04772311e-03 -1.85442693e-03
      -4.83187701e-04 7.88264675e-04 1.16050767e-03 -1.83595141e-04
      1.37757874e-04 -7.46878641e-06 6.19436196e-06 -8.87703616e-04
      2.28128076e-04 -1.06889789e-03 1.35979411e-04 5.50326891e-04
      9.93844122e-04 1.96191977e-05 -1.37837284e-04 -1.13023616e-05
      1.43168290e-06 -4.67811151e-06 1.20596902e-03 -3.76994925e-04
      -1.67227443e-03 -1.17457518e-03 8.15501902e-04 9.46194574e-04
      -3.50631046e-04 -9.00283158e-06 8.83109715e-06 -1.17237951e-05
      7.65015546e-04 3.28245398e-04 -9.80171957e-04 8.43708985e-04
      1.54901587e-04 -2.17338238e-04 -5.37043379e-04 -8.64475660e-05</_>
    <_>
      -9.36469036e-08 2.00654290e-06 -1.79733070e-06 7.87075294e-08
      2.79848564e-06 2.11909060e-06 3.18211988e-07 -7.12023677e-07
      4.96590133e-07 -2.51523556e-06 -1.59700414e-06 -6.14889700e-07
      1.63463721e-06 6.15350245e-07 1.38763551e-06 -2.52406244e-06
      -3.26019267e-06 -2.32748130e-06 -2.02033971e-06 -7.15562464e-07
      3.58018747e-06 2.13738281e-06 3.10246423e-06 3.85135053e-07
      8.82586676e-07 -2.38285566e-06 -2.07897415e-06 -1.32671425e-06
      -3.90954654e-07 -4.02368954e-07 -3.18048393e-07 1.83186970e-07
      -8.93622655e-07 4.02907773e-07 2.92206352e-07 1.46071193e-06
      2.74821150e-06 4.26095949e-06 4.29106967e-06 4.65466383e-06
      1.01561845e-05 -1.61523771e-04 -1.74077559e-05 -5.21058624e-04
      -9.32873008e-05 2.42185561e-05 1.46052509e-03 1.19756813e-04
      -2.22514907e-04 -6.66658962e-05 -3.13409728e-05 -3.41394276e-04
      2.96751445e-04 7.95192536e-05 -9.89303458e-04 1.44107558e-04
      1.22528174e-03 -5.95580437e-04 -2.68403208e-04 -6.12641743e-05
      -6.13251759e-05 -8.23326816e-04 -7.96037901e-04 -1.58057583e-03
      4.93272732e-04 2.06838755e-04 -6.12955133e-04 -3.27591435e-04
      -4.92346066e-04 -6.61371814e-05 -3.25373258e-05 -8.21275578e-04
      -3.23243963e-04 -8.54259706e-04 7.64457684e-04 1.74882269e-04
      -9.95427836e-04 1.23570295e-04 -5.88321360e-04 -6.25889152e-05
      -9.65015897e-06 -2.85902031e-04 -3.91382455e-05 -6.83598511e-04
      -8.31738114e-04 3.12170945e-04 -1.64635526e-03 -4.89081896e-04
      -4.81831259e-04 -6.33710661e-05 -9.00741816e-06 -1.10836794e-04
      1.13291739e-04 -7.50991923e-04 -1.05725648e-03 -1.01428530e-04
      -5.08202531e-04 -1.10660517e-03 -4.11483896e-04 -6.55583717e-05
      1.50349604e-06 -4.70374871e-05 9.12045245e-04 3.79968260e-04
      -5.40492110e-05 -1.15048990e-03 9.03120264e-04 -8.57159263e-04
      -3.81698803e-04 -6.25370230e-05 -4.68433336e-06 -1.07976528e-04
      1.36176252e-03 6.83990540e-04 -2.48793804e-04 -1.21901813e-03
      1.11897651e-03 5.81110537e-04 -3.17662983e-04 -6.31718285e-05
      -1.78016344e-05 -3.07964830e-04 1.78822584e-03 8.18512810e-04
      -7.31841952e-04 -1.38298469e-03 6.97120558e-04 1.35123159e-03
      -3.14347737e-04 -6.25370230e-05 6.75477668e-06 -7.28772138e-05
      1.16799097e-03 3.11775802e-04 -6.31909279e-06 1.47962663e-03
      -3.38023732e-04 5.33340557e-04 -3.49305628e-04 -6.33191739e-05</_>
    <_>
      1.85939598e-06 2.37912289e-07 1.03794321e-06 1.13423539e-06
      2.19257845e-06 2.36009828e-06 1.26550367e-06 1.83588014e-07
      -1.54680026e-06 -8.96266727e-07 2.41254980e-08 5.59148759e-07
      2.13329622e-06 2.73375508e-06 1.36913957e-06 6.86317151e-07
      -2.88139063e-07 -8.71774404e-08 -2.40672819e-07 -2.49841179e-07
      -5.41292877e-08 6.98546273e-07 -2.55568381e-07 -2.48066868e-07
      -2.22634711e-07 -9.02597037e-07 -1.32190507e-06 1.66242895e-08
      1.49632967e-06 1.79072970e-06 2.36275014e-06 6.73275053e-07
      5.23320693e-07 1.30094054e-06 6.09489291e-07 8.78725093e-09
      -1.32267508e-06 -1.48121353e-06 -1.35858727e-06 -7.57862779e-07
      -1.98010389e-06 -3.39516148e-04 -1.63216537e-04 3.74698575e-04
      1.04227569e-03 1.21604791e-03 6.76547934e-05 -1.24060680e-04
      -1.48236777e-05 4.11544967e-08 3.18370803e-06 -8.48521158e-05
      -1.09614128e-04 -6.82161248e-04 1.19060849e-06 8.35199782e-04
      3.51560098e-04 -1.41137600e-04 -1.69388877e-05 8.26967934e-08
      -4.24008675e-07 6.63142373e-06 2.86175811e-04 -2.86617316e-04
      -9.07749287e-04 6.40976185e-04 2.83205183e-04 3.00557789e-04
      -9.15020877e-08 8.23089934e-08 -2.60442766e-06 1.10166025e-06
      6.62097707e-04 1.46836741e-04 -7.27779930e-04 3.01887718e-04
      5.68640302e-04 5.11551509e-04 1.23851294e-07 -9.15020877e-08
      3.26049621e-06 4.05753462e-06 6.26488531e-04 6.50251692e-04
      -6.31020346e-04 -1.62763841e-04 3.66281834e-04 3.51271010e-04
      6.87214651e-07 2.56507860e-07 5.42055375e-07 1.47942992e-05
      4.37745417e-04 2.62528280e-04 -7.61633215e-04 -5.15803331e-05
      1.18179829e-03 4.01458907e-04 3.35942605e-06 8.23089934e-08
      8.90809360e-07 2.88702807e-07 5.92592405e-04 -2.41820489e-05
      -1.50165288e-03 -1.18070655e-03 1.57765951e-03 2.67037394e-04
      3.35942605e-06 4.11544967e-08 -1.40017005e-06 5.24562529e-06
      3.84420389e-04 -3.63072351e-04 -1.25600037e-03 -4.10562439e-04
      6.40227459e-04 -5.51892408e-05 3.35942605e-06 0. 1.45015838e-06
      4.17868796e-06 4.67035803e-04 -1.19349475e-04 -4.40334436e-04
      -1.66997794e-04 -8.08394325e-05 -3.78168654e-04 -1.28743937e-04
      -2.57025704e-06 6.60826856e-07 1.39036308e-06 -1.01566395e-04
      -1.93253545e-05 3.32927302e-05 1.02321943e-03 -2.19981928e-04
      -2.77267449e-04 -2.54605198e-04 -5.08977882e-06</_>
    <_>
      -1.18081493e-06 -7.69687745e-07 -6.91405944e-07 6.95745484e-07
      -2.81504163e-06 -3.10011387e-06 -3.66660447e-06 -2.60669026e-06
      -5.35210688e-07 -2.36683260e-08 -4.87444709e-07 1.56709564e-06
      1.41375176e-06 -1.29890751e-07 -5.53378641e-07 -6.46828255e-07
      8.58640192e-07 4.38843927e-07 9.34830780e-07 9.72926046e-07
      -3.11735948e-06 -4.71826797e-06 -1.97267946e-06 -3.63029744e-06
      -1.78618598e-06 -2.47261141e-06 -1.48894651e-06 -2.52856648e-06
      -1.72672321e-06 -3.10208435e-07 -9.87678504e-07 -7.64950357e-07
      -1.11197187e-06 7.53973893e-07 1.63278699e-07 -2.61672369e-07
      -1.36730648e-06 -1.03336674e-06 -1.16132128e-06 -2.36758751e-06
      -5.76159437e-06 -3.39698067e-06 -5.70813136e-04 -9.75292525e-04
      -6.80795813e-04 -1.94878885e-04 3.28962415e-05 -1.70709667e-04 0.
      0. -4.31132412e-06 2.16447279e-06 -6.07937574e-04 -1.31461932e-03
      -3.76514101e-04 8.18431436e-05 3.48067086e-04 -1.76960108e-04 0.
      0. 3.26251467e-07 -3.74285833e-06 -9.18270438e-04 -1.09237700e-03
      2.96956976e-04 6.05229754e-04 5.57482534e-04 -2.14864722e-05 0. 0.
      1.44364424e-06 2.78743096e-06 -7.12160836e-04 -5.28248143e-04
      4.38015093e-04 7.08146312e-04 1.06179959e-03 7.14321795e-05 0. 0.
      -6.82146310e-06 3.10278119e-05 -5.54694379e-05 -4.45089478e-04
      -1.44687379e-04 -1.74478351e-04 4.34212358e-04 -8.28579214e-05
      4.01588795e-06 4.01588795e-06 1.20190668e-06 2.12204657e-04
      9.43124178e-05 1.25671024e-04 -2.25825410e-04 -1.33662688e-04
      5.07082223e-05 -2.66312360e-04 3.65398273e-06 4.01588795e-06
      1.73728631e-06 7.43430981e-04 4.21795354e-04 1.15981931e-03
      7.51599262e-04 8.89259332e-04 -4.19359421e-05 -3.81479113e-05
      2.40416717e-04 4.01588795e-06 -4.23292295e-06 1.69442443e-04
      6.08609698e-04 7.15630536e-04 8.54666869e-04 1.20576262e-03
      5.61321911e-04 -5.99260711e-05 2.28835750e-04 4.01588795e-06
      -2.54662427e-06 -4.74357108e-07 8.38356355e-05 -6.74239942e-04
      -5.30136924e-04 8.56233819e-04 7.32294808e-04 -5.70589851e-04
      -4.63238575e-05 -3.61905137e-07 3.10762334e-06 -4.21722279e-06
      -4.62498952e-04 -9.39026184e-04 -1.27636432e-03 1.35347858e-04
      1.04333076e-03 -3.08717397e-04 -2.17143079e-05 -3.61905137e-07</_>
    <_>
      -2.56395401e-06 -2.99596832e-06 -2.26249495e-06 5.43117380e-07
      -3.70229418e-06 -3.48967933e-06 -4.73520913e-06 -4.16036255e-06
      -1.79888082e-06 -9.09211735e-07 -1.40186978e-06 1.14740214e-06
      1.70082319e-06 -1.44596538e-06 -8.14089134e-08 -2.53266421e-06
      1.45823833e-06 7.24632514e-07 1.42234512e-06 1.44926503e-06
      -1.96845031e-06 -4.20921197e-06 -8.38718165e-07 -3.50057053e-06
      -8.79867514e-07 -3.42190947e-06 -1.90473190e-06 -1.38155372e-06
      -1.70293993e-06 -2.69017164e-06 -1.27928308e-06 -2.77178628e-06
      -2.19441517e-06 3.09539331e-07 -6.58853821e-07 -1.23120586e-07
      -1.91100935e-06 -1.39462850e-06 -4.23019128e-06 -3.25676842e-06
      -1.09801340e-05 -5.54740654e-06 -5.41402687e-06 -3.87707551e-05
      1.77940441e-04 4.23969090e-04 4.59012983e-04 -4.02705627e-04
      1.48598001e-05 1.61519566e-07 -2.81662437e-06 -7.20352409e-06
      -1.52627963e-05 -7.06090650e-04 2.38652166e-04 3.46499000e-04
      6.67674816e-04 -4.30958433e-04 1.61519566e-07 3.23039131e-07
      -8.60634282e-06 -1.37105644e-05 -2.67074676e-04 -3.72753391e-04
      2.52833444e-04 1.06067676e-03 1.30198011e-03 6.89056251e-05
      1.61519566e-07 3.23039131e-07 -1.75129696e-06 1.51148497e-05
      -7.09798187e-04 -1.84073826e-04 -2.36978158e-04 1.12623419e-03
      1.53721566e-03 4.50022548e-04 1.61519566e-07 1.61519566e-07
      -1.54556055e-05 6.11064297e-06 -1.52477427e-04 -1.03065465e-03
      -5.62772620e-04 -7.27556937e-04 8.56511178e-04 -5.92288154e-04
      5.93953018e-06 5.93953018e-06 -4.46715740e-06 8.42629197e-06
      8.18434564e-05 -7.06225226e-04 -1.10863301e-03 -1.48389617e-03
      1.21800105e-04 -6.65372529e-04 5.93953018e-06 6.10104962e-06
      4.34536332e-06 5.54554572e-04 3.37316771e-04 8.28672055e-05
      -4.21846868e-04 1.51476031e-03 3.62354796e-04 -5.01665927e-04
      3.17952101e-04 6.10104962e-06 1.46401590e-06 8.23860591e-06
      5.97446226e-04 -1.09302873e-05 6.40498823e-04 2.26257043e-03
      1.25938538e-03 -3.52194533e-04 3.32650379e-04 5.93953018e-06
      -6.37569065e-06 7.35221602e-06 -2.86351744e-04 -7.20513868e-04
      -7.25251681e-04 5.64750342e-04 1.17444037e-03 -3.21626198e-04
      1.48598001e-05 1.61519566e-07 -7.45002444e-06 -9.89885884e-05
      -7.55324319e-04 -1.42651983e-03 -1.07915595e-03 2.27751007e-05
      2.39976565e-03 6.85375562e-05 1.61519566e-07 3.23039131e-07</_>
    <_>
      -4.63018850e-08 -5.30197610e-07 -7.50053175e-07 3.44908131e-07
      -1.24849703e-06 -9.12882925e-08 -3.27744573e-07 8.79980064e-07
      -2.86921164e-07 -2.38862157e-07 -3.19441438e-06 6.65885239e-07
      1.11233874e-06 -6.57168016e-07 -1.65001177e-06 5.87811144e-07
      -3.82981909e-07 -5.68247174e-07 -1.72347683e-07 -2.12609578e-07
      -6.35729202e-06 -6.42287341e-06 -2.93862036e-06 -6.05539663e-06
      3.71751327e-07 -5.01290924e-06 -2.03306763e-06 -3.08733183e-06
      3.15133548e-06 8.78837625e-07 5.13589794e-06 2.19944513e-06
      2.66864481e-06 3.99971304e-06 6.01372085e-06 3.54248755e-06
      1.97437453e-06 1.62408139e-06 1.25529823e-06 -2.29938087e-06
      -6.07220181e-06 -8.72654782e-05 -8.41711822e-04 -1.96471182e-03
      -1.89379381e-03 -1.31837805e-04 -3.20359468e-05 -4.54523542e-04
      3.77736105e-05 -6.76340562e-07 -8.14265331e-06 -1.94338339e-04
      -6.11709198e-04 -2.19546608e-04 -5.15177962e-04 8.61936540e-04
      -2.02919357e-04 -3.69213376e-04 -8.11086647e-05 -2.65757791e-07
      -2.06911755e-05 -2.37113476e-04 -1.87327489e-04 4.98341047e-04
      2.74882506e-04 1.18626328e-03 -2.09760226e-04 -1.85247991e-04
      -1.89800994e-04 -1.35268112e-06 -4.59645162e-05 -2.82073364e-04
      5.77872088e-05 5.57735562e-04 6.11692376e-04 5.42325899e-04
      2.52490892e-04 -1.56091060e-04 -1.31107139e-04 -6.76340562e-07
      -2.85310325e-05 -2.25169002e-04 4.49968735e-04 2.50327459e-04
      7.15677976e-04 -1.94829190e-04 3.69403046e-04 -1.23335936e-04
      -2.67625001e-05 1.09142981e-07 -2.26670636e-05 8.77789207e-05
      5.71091135e-04 1.11782341e-04 6.25025888e-04 -3.52534378e-04
      4.43577941e-04 6.18885097e-05 8.94626510e-07 -1.35268112e-06
      -9.06085279e-06 2.82379013e-04 6.37274061e-04 1.38023915e-03
      5.83485991e-04 4.12509515e-04 6.03313267e-04 5.33802086e-04
      -4.28750427e-05 5.19725745e-07 -2.55034411e-05 2.90738062e-05
      3.00020707e-04 1.45582133e-03 7.03986094e-04 1.09542010e-03
      1.67273497e-03 3.08287796e-04 -1.14149276e-04 -9.77780246e-07
      -2.55797713e-05 -2.50840123e-04 -1.77524314e-04 5.50982018e-04
      3.00606596e-04 4.25596896e-04 3.77427816e-04 -1.98904978e-04
      -1.53524888e-04 4.10582743e-07 6.84992983e-07 -2.21505165e-04
      -3.60164617e-04 -1.20393583e-03 -6.92594505e-04 -1.64705853e-05
      -3.47021181e-04 -2.77481086e-05 -2.02409592e-05 -2.65757791e-07</_>
    <_>
      -1.26627651e-06 -1.99083797e-06 -6.69251676e-07 -1.91568574e-06
      -1.45907552e-06 -1.38958967e-06 -2.20968946e-06 -3.36856465e-06
      -1.25124495e-06 -6.57445696e-07 1.17711511e-06 1.22612516e-06
      1.10312143e-07 1.67266205e-06 8.38991866e-07 -1.96221504e-06
      1.59228563e-07 -1.33217441e-07 2.19463132e-07 5.73944533e-07
      -3.88163880e-06 -1.74540980e-06 -4.08193273e-06 -2.70895794e-06
      -2.58490945e-06 -3.17261924e-06 -1.70223484e-06 -3.20286949e-06
      -1.81006942e-06 -2.75221646e-06 -2.99117846e-06 -1.41742146e-06
      -4.13295822e-07 9.52399716e-07 8.07254253e-07 1.79258379e-07
      -1.04319906e-06 -5.72352235e-07 -1.40974851e-06 -1.19234539e-06
      -1.09183939e-05 -5.60747685e-05 -3.77780350e-04 -1.02820667e-03
      -3.66162247e-04 -3.24390967e-05 1.18103100e-03 -1.62297292e-04
      1.78008078e-04 6.27680265e-07 -5.43757642e-06 -1.24663333e-04
      -9.24556050e-04 -1.78274035e-03 -9.79158140e-05 -1.91596322e-04
      1.00104216e-05 -3.01534310e-04 -2.97353995e-06 3.36649077e-06
      -2.44815292e-05 -2.63570255e-04 -1.04247581e-03 -1.66477181e-03
      -4.56555194e-04 1.35559903e-03 -2.52159807e-04 -4.65404650e-04
      -4.36945447e-05 2.57513580e-06 -3.51827657e-06 -4.09180211e-04
      -4.55796806e-04 -1.02264946e-03 2.13196632e-04 3.52544390e-04
      -2.91162723e-05 -1.14416805e-04 -8.10405691e-05 5.86762440e-07
      -8.42391785e-07 -2.43140952e-04 -3.41812847e-04 -6.47994282e-04
      -9.76487470e-04 -1.05010020e-03 5.15914115e-04 -5.76387043e-04
      -7.11627144e-05 1.96382280e-06 4.93209654e-07 2.19226917e-04
      1.82490272e-04 -3.92717659e-04 -8.29304860e-04 -5.40587411e-04
      2.83340371e-04 -4.25110775e-04 -8.30328863e-05 2.59559488e-06
      4.87772331e-06 5.93726523e-04 8.76765233e-04 6.40510523e-04
      5.73427242e-04 7.65408622e-04 1.81291194e-04 7.84234635e-06
      -1.25636114e-04 2.59150306e-06 4.23393840e-06 4.42448159e-04
      8.49317468e-04 3.77501419e-04 9.43946477e-04 1.41313265e-03
      7.67724880e-04 -2.32624134e-05 3.61437196e-05 6.23588448e-07
      -2.32909019e-06 8.94185505e-05 5.86946029e-04 -2.87101691e-04
      -1.04286359e-03 3.40344675e-04 1.62004973e-04 -4.08294465e-04
      8.34905131e-06 -3.33313687e-06 -5.82582516e-06 -5.58854435e-06
      -1.66350310e-05 -2.56217085e-04 -1.13218219e-03 1.98958704e-04
      1.56622962e-03 -1.20444143e-04 -1.87053185e-04 -2.96439121e-05</_>
    <_>
      -4.96159714e-07 -9.14681753e-09 -5.46629281e-07 -1.64632738e-07
      7.28863597e-07 2.99306237e-07 -1.47739877e-06 -1.16508681e-06
      -1.39563292e-06 -3.11884742e-06 -8.05404738e-07 6.04524871e-07
      1.08244581e-06 -7.71081432e-07 -9.08641653e-07 -2.97394581e-06
      -1.07549295e-06 -4.55744527e-07 -2.52747952e-07 -3.87996153e-07
      -5.05403875e-07 -3.15633565e-06 -1.40337562e-07 -3.29580052e-06
      -1.56105261e-06 -2.66415691e-06 -2.58736122e-06 -3.51386279e-06
      -1.06776133e-06 -1.57206568e-06 -1.32572359e-06 -3.49000800e-07
      7.66620531e-07 3.07830881e-08 1.14854492e-06 3.58722076e-07
      2.98747011e-07 8.00974874e-07 -3.00010015e-07 1.77375696e-07
      -5.23737253e-06 -1.02692014e-04 -1.88870792e-04 -7.23714416e-04
      -9.76356387e-04 -2.76629115e-04 1.44471228e-03 9.63618440e-05
      4.80546405e-05 -6.56031352e-06 -4.35783113e-06 -1.49115251e-04
      -7.14528840e-04 -1.20994204e-03 -1.14806171e-03 -8.35640894e-05
      7.58460024e-04 -6.27983609e-05 -2.86845789e-05 -4.82716678e-06
      -5.51652147e-06 -1.97793081e-04 -7.45964469e-04 -1.48632657e-03
      -4.87729500e-04 4.05308994e-04 -6.14821647e-06 -4.21123754e-04
      -2.95744376e-05 -4.82716678e-06 -6.20033416e-06 -3.46722751e-04
      -5.18764195e-04 -6.10137300e-04 -1.56585622e-04 3.51479015e-04
      -1.22996586e-04 -6.38997299e-04 -6.78383731e-05 -6.56031352e-06
      -1.22784468e-06 -2.36426102e-04 2.53005710e-04 4.72466636e-04
      -9.74665920e-04 -4.23795340e-04 -2.39698798e-04 -6.21830462e-04
      -2.32211154e-04 -7.81975268e-06 1.31427851e-06 2.40135967e-04
      9.29367961e-04 4.34559799e-04 -1.17480662e-03 -8.94376251e-04
      -4.77970287e-04 -9.85570136e-04 -2.87322211e-04 -6.93948823e-06
      8.78943638e-07 5.82866545e-04 1.05130835e-03 1.05376681e-03
      7.53038155e-04 -2.81064538e-04 -1.71552398e-04 -3.75362462e-04
      -1.83612967e-04 -7.86632336e-06 -2.64057326e-06 3.83232982e-04
      8.43966613e-04 7.82559626e-04 4.65176243e-04 -1.99079703e-04
      1.10314274e-03 -1.76690170e-04 -8.55206381e-05 -8.50482957e-06
      -1.08239055e-06 -1.01623024e-04 1.88967038e-04 5.11852268e-04
      -2.21170296e-04 -3.42870684e-04 7.92592473e-04 -4.46650607e-04
      -1.36237839e-04 -7.29850944e-06 3.45131411e-06 -1.04079481e-04
      -1.24371174e-04 -4.64650075e-04 -7.32533750e-04 6.17558893e-04
      4.96302149e-04 -3.23898072e-04 -2.12604398e-04 -6.93647871e-06</_>
    <_>
      1.35068120e-07 -1.52508380e-06 -9.04294453e-08 -3.23208155e-07
      -7.25643247e-07 -5.08641506e-07 -1.39706970e-06 -9.58567057e-07
      -3.67538701e-06 -1.56412193e-06 -2.09665541e-06 1.04012520e-06
      1.82508415e-06 -5.05491357e-07 -1.64669393e-06 9.09639084e-07
      1.25520359e-07 4.18401171e-08 8.36802343e-08 8.36802343e-08
      -3.41195255e-06 -3.72916247e-06 -2.85268629e-06 -6.32772208e-06
      -3.15644797e-06 -4.84227667e-06 -3.81419045e-06 -4.31214494e-06
      1.26540999e-06 -1.44794353e-06 3.21426796e-06 -3.23624050e-07
      3.76324181e-07 1.43540842e-06 4.09166432e-06 1.68031022e-06
      2.46496666e-06 -8.40415737e-07 -1.81337938e-07 -2.55053351e-06
      -1.04807505e-05 -8.42058143e-05 -2.44540599e-04 -7.02802092e-04
      9.29643502e-05 6.03553199e-04 -2.02544979e-04 -1.36220478e-04 0.
      0. -8.30712543e-06 -2.29100642e-05 -5.61954686e-04 -1.82050432e-03
      -3.04924499e-04 4.65333025e-04 -2.70863035e-04 -1.35419235e-04 0.
      0. -1.10843503e-05 -9.36948527e-06 -6.71533126e-05 -1.14230590e-03
      -1.41419983e-03 5.64476184e-04 4.05895807e-05 -6.75398696e-05 0.
      0. -6.42004898e-06 -7.30932697e-06 1.80369116e-05 -1.35634138e-04
      -1.13200687e-03 3.41887324e-04 5.58406755e-04 3.90476853e-05 0. 0.
      -2.69532052e-06 4.01377565e-06 1.33420443e-04 4.33146954e-04
      -5.07805846e-04 -3.36185149e-05 8.15145613e-04 5.96922946e-05 0.
      7.73312763e-07 -1.98996077e-06 1.36689114e-05 3.87328066e-04
      5.56562154e-04 -5.03454299e-04 -6.05232199e-04 1.00030191e-03
      4.78743823e-05 1.54662553e-06 0. 9.92858531e-06 3.10797222e-05
      6.07003749e-04 6.67736167e-04 -9.39094345e-04 -9.00587533e-04
      9.50706133e-04 1.76886737e-04 1.62395681e-05 7.73312763e-07
      8.42763984e-06 1.60977324e-05 4.99943679e-04 1.01729226e-03
      -4.96664841e-04 -4.87735306e-05 1.34967885e-03 1.87516736e-04
      7.73312786e-06 7.73312763e-07 2.06126697e-06 4.87710213e-06
      -1.70095678e-04 2.11228471e-04 -9.07096110e-05 7.09149695e-04
      -4.54398032e-05 -6.94480768e-05 -3.13032033e-05 -6.38840845e-07
      7.90335798e-06 1.25453862e-05 -4.84684802e-04 -8.75509868e-04
      -8.93728866e-04 6.71430142e-04 -5.72863655e-06 -1.42918783e-04
      -6.13287266e-05 -1.27768169e-06</_>
    <_>
      -2.93258779e-07 -2.46395757e-06 -1.08905431e-06 -3.67355824e-06
      -1.22685447e-06 2.54818201e-06 3.43924262e-06 -1.32318382e-06
      -1.25001952e-06 -1.21800122e-06 -1.20122002e-06 9.17559476e-07
      1.13918304e-06 2.56922726e-06 2.06491859e-06 -7.93061076e-07
      -2.19633080e-06 -1.61286459e-06 -7.96709969e-07 -6.38482845e-07
      4.85338796e-06 3.47047126e-06 4.35785239e-07 4.48873880e-06
      1.99148644e-06 1.47703088e-06 -9.30937460e-07 -1.29585374e-06
      1.67064093e-06 -2.27789769e-06 -9.23058906e-07 -2.37839299e-06
      -2.65585572e-06 -1.89632965e-06 -1.08655161e-06 -9.60469265e-07
      -5.29420095e-06 -1.43063824e-06 -2.52012364e-06 1.21910352e-06
      1.10599567e-05 4.26900879e-05 6.15380413e-04 1.86973007e-03
      4.04598337e-04 1.52942189e-03 1.53152249e-03 4.22583951e-04
      -5.44144532e-05 1.13606905e-06 2.26286465e-06 1.70365340e-04
      1.35009200e-03 1.64226582e-03 -7.14936410e-04 2.33152168e-04
      1.42412307e-03 1.26646133e-03 9.97173629e-06 -2.52885485e-07
      1.28699648e-05 1.27239182e-04 1.10428303e-03 1.79442507e-03
      -1.26582250e-04 3.55340482e-04 9.17670259e-04 1.00603746e-03
      -1.38895462e-06 0. -1.15650582e-05 -9.26531065e-05 -2.80169934e-05
      5.85760223e-04 -9.62788414e-04 -3.36470519e-04 -2.72997655e-04
      9.32297262e-05 -1.38895462e-06 -1.38895462e-06 -4.90406956e-06
      -2.59589608e-04 -1.30803775e-04 1.07828186e-04 -4.58024297e-04
      -6.98317017e-04 4.12803027e-04 2.31122045e-04 -1.04539922e-05
      -1.58339174e-06 -2.09803220e-05 -6.40203187e-04 -1.49226072e-03
      -1.88230781e-03 -1.06446992e-03 -5.27555821e-04 -2.89920106e-04
      9.72886264e-05 -1.13077636e-04 -8.67461722e-07 -2.12697487e-05
      -6.95455994e-04 -2.14398163e-03 -2.79079075e-03 3.21872765e-04
      5.59898268e-04 9.20951890e-04 3.76234588e-04 -3.47514724e-04
      -1.79943845e-06 -2.23438601e-05 -5.70476579e-04 -1.34988606e-03
      -5.51442674e-04 9.96501185e-05 1.37043244e-04 7.30898901e-05
      -1.66671089e-04 -3.60479462e-04 -3.39846406e-06 -3.39828193e-06
      -4.51474974e-04 -8.63531197e-04 -1.33367756e-03 -1.27369392e-04
      -7.47801038e-04 1.40283679e-04 1.91415274e-05 -2.14694184e-04
      -2.45479555e-06 3.43224656e-06 -3.95131683e-05 -3.87783948e-04
      2.92025798e-04 -1.20585464e-04 -2.85376358e-04 9.94152040e-04
      -1.48120729e-04 -2.45479555e-06 -2.52502377e-06</_>
    <_>
      1.98152543e-06 -1.58024207e-07 1.33616311e-06 1.01247838e-06
      2.72544594e-06 3.92728862e-06 5.08586209e-06 3.49377206e-06
      1.56808028e-06 2.93962842e-07 -6.01348518e-07 3.51746507e-08
      1.69212501e-06 1.16204012e-06 2.28665658e-06 2.65992554e-07
      -1.67676012e-06 -1.66838299e-06 -7.73549232e-07 -9.02647912e-07
      -5.96993345e-07 -1.30951662e-06 1.37997813e-06 -2.05347396e-06
      3.16782369e-08 -1.32468961e-06 -9.03236639e-07 2.61986287e-07
      2.07041535e-06 2.28116892e-06 1.77021877e-06 1.01910666e-06
      1.22264294e-06 1.88998320e-06 9.88083571e-07 1.87011290e-06
      1.46308355e-06 2.55244504e-06 1.30280660e-06 6.43287876e-07
      -4.21699133e-06 3.01055388e-06 -9.38107114e-05 -1.30868968e-04
      -5.85830479e-04 1.26682586e-04 6.00928499e-04 1.28088883e-04
      2.19737813e-05 -2.70069495e-06 -5.82777602e-06 -2.64715258e-04
      1.21670178e-04 1.02480047e-03 2.00901704e-04 3.17836268e-04
      -8.78966006e-04 -6.77552831e-04 -2.80337670e-04 -6.33679861e-07
      -2.66764291e-05 -3.65723594e-04 5.19023102e-04 1.09765015e-03
      4.12936904e-04 -3.44748434e-04 -1.28587789e-03 -7.16879498e-04
      -4.11742454e-04 -9.98970791e-08 -6.43017775e-05 -4.61279065e-04
      1.60268202e-04 1.14922097e-03 1.23172736e-04 -5.98841580e-04
      -1.26586028e-03 -4.44559351e-04 -2.64830218e-04 -3.26887829e-07
      -5.77359970e-05 -4.73243301e-04 3.37370060e-04 1.11694203e-03
      6.41797029e-04 2.74228041e-05 -2.12633589e-04 -2.53359231e-05
      -4.90088241e-05 -2.39390283e-06 -5.66350063e-05 -5.16525586e-04
      2.71857971e-05 1.68106548e-04 -4.95017564e-04 -2.29974961e-04
      5.35451167e-04 8.89688090e-04 -1.67876824e-05 -4.66318670e-06
      -5.36811640e-05 -5.35224681e-04 -1.46961873e-04 1.99429487e-04
      -6.62637933e-04 -1.39866985e-04 5.83303394e-04 1.08258356e-03
      -1.30862405e-04 -3.68383280e-06 -5.36811640e-05 -1.86369813e-04
      4.48086270e-04 4.31839289e-04 -9.47551453e-04 -4.04404040e-04
      5.62956033e-04 1.05918525e-03 -4.08919790e-04 -5.52385700e-06
      -6.06475733e-05 9.67712822e-06 3.38406651e-04 7.37583614e-04
      3.63275700e-04 -2.11551553e-04 7.04750535e-04 4.36609524e-04
      -3.67331580e-04 -3.69553732e-07 -3.02238022e-05 -2.67756375e-04
      8.73959652e-06 3.66208376e-04 8.29816388e-04 1.99407674e-04
      -5.88450484e-06 3.79793084e-04 -9.69212633e-05 -3.00748707e-06</_>
    <_>
      2.82139183e-07 3.21788633e-07 -6.53385882e-07 -4.69053066e-06
      -1.39063695e-06 3.91158392e-06 5.60464377e-06 -1.95193661e-06
      -6.86679186e-07 -3.57384891e-07 3.93844948e-06 2.29318857e-06
      -1.04175804e-07 2.87995249e-06 2.75888510e-06 2.94846586e-07
      -2.98979171e-06 -1.04624087e-06 -2.42774922e-06 -1.84926580e-06
      -2.14796182e-06 -5.43354304e-07 -1.76780054e-06 -1.68766292e-07
      -1.78430378e-06 -3.78399409e-06 -1.50365895e-06 -4.44186662e-06
      -8.57459952e-07 -4.20704964e-06 -5.56997338e-06 -4.20142487e-06
      -2.33084984e-06 -3.40120300e-06 -2.86026739e-06 1.20366769e-06
      6.08888854e-07 1.70111704e-07 2.63438096e-06 1.61923026e-06
      -1.49963307e-05 8.00818889e-05 8.98739148e-04 2.53013219e-04
      -6.75983960e-04 4.44374717e-04 9.93658439e-04 -1.05853127e-04
      -3.76915123e-04 -8.49792468e-06 -1.22093343e-05 -9.21036117e-05
      2.13767402e-04 5.19143359e-04 8.44663009e-04 1.03937730e-03
      -1.20656495e-03 -9.81258927e-04 -1.01356163e-05 -1.95711036e-05
      -2.92296936e-05 4.31121152e-05 1.49788056e-03 2.04272522e-03
      8.05080810e-04 -4.86079116e-05 -2.94296234e-03 -1.87366921e-03
